<?xml version="1.0"?>
<opencv_storage>
<opencv_ml_ann_mlp>
  <format>3</format>
  <layer_sizes>
    120 40 65</layer_sizes>
  <activation_function>SIGMOID_SYM</activation_function>
  <f_param1>1.</f_param1>
  <f_param2>1.</f_param2>
  <min_val>-9.4999999999999996e-001</min_val>
  <max_val>9.4999999999999996e-001</max_val>
  <min_val1>-9.7999999999999998e-001</min_val1>
  <max_val1>9.7999999999999998e-001</max_val1>
  <training_params>
    <train_method>BACKPROP</train_method>
    <dw_scale>1.0000000000000001e-001</dw_scale>
    <moment_scale>1.0000000000000001e-001</moment_scale>
    <term_criteria>
      <epsilon>1.0000000000000000e-002</epsilon>
      <iterations>1000</iterations></term_criteria></training_params>
  <input_scale>
    5.0412597737059151e+001 -4.9904011595003572e-002
    4.5526517721579989e+000 -4.0681741347279621e-001
    2.9822034812249059e+000 -1.8482539310457986e+000
    3.8264416679277682e+000 -3.2237342590543490e+000
    4.2071189810441698e+000 -3.0833731585528050e+000
    4.3048064983765251e+000 -3.4718328961131446e+000
    4.0171335348265016e+000 -3.3413240172478083e+000
    3.0212800902353338e+000 -1.3930145418783604e+000
    7.2798585475470752e+000 -2.7532358074737850e-001
    7.7880080212340815e+001 -2.4831096955222429e-002
    4.5140000394140296e+000 -3.3851624880901805e+000
    4.5156059963407484e+000 -3.6786307087718293e+000
    4.5204110417591696e+000 -3.0386187602096482e+000
    4.4050381749646439e+000 -3.1245281052564002e+000
    4.6749940433547827e+000 -3.6479944924944641e+000
    4.5630709902333058e+000 -3.5004355836896797e+000
    4.2379678278405546e+000 -2.8348465953289876e+000
    4.5303818999439045e+000 -3.2261346620824281e+000
    4.3899251203176881e+000 -3.5784726578912882e+000
    4.3149903894315482e+000 -2.9984875227501830e+000
    1.0587092886488130e+000 -3.5235629873220486e-002
    4.8300087557282177e-002 -2.2679338292623569e-001
    1.3028916772113564e-002 -7.8318526567126479e-001
    1.0890119341495781e-002 -1.4873048034129688e+000
    1.0295492328846823e-002 -1.6865158605786430e+000
    1.1475944882257175e-002 -1.9719919442886535e+000
    1.1352581340740900e-002 -1.4875842822744820e+000
    1.6476876665716598e-002 -5.8850072845899093e-001
    7.4960306791239217e-002 -1.3173222801769990e-001
    5.0806190805830154e-001 -1.9176306291137628e-002
    6.8210359511341756e-001 -3.1706085920983153e-002
    3.7359817926122016e-002 -2.7327427525731468e-001
    1.1484401861194321e-002 -1.0586120204863259e+000
    1.0970239824842900e-002 -1.7517382297611492e+000
    1.1552734512954778e-002 -1.4026995871473040e+000
    1.2154808333455098e-002 -1.7653866606049180e+000
    1.0655646885757238e-002 -1.7768514068943111e+000
    1.3667773137391540e-002 -7.9170755904649248e-001
    5.8245310316370320e-002 -1.6249123974408286e-001
    5.6593514087752206e-001 -1.9221100539255166e-002
    6.5726291369781131e-001 -2.5866870170319810e-002
    3.3178906752363645e-002 -2.8672662174915259e-001
    1.0552583020708006e-002 -1.0096876246789883e+000
    1.1128539102862432e-002 -1.4650964853184505e+000
    9.8809560816941096e-003 -8.5518434791861686e-001
    1.0019527487113019e-002 -9.8190562098483958e-001
    1.0131740044483967e-002 -1.4069630606291623e+000
    1.2239276438727485e-002 -7.7061321451961173e-001
    5.0948845558763028e-002 -1.7905511542669089e-001
    7.3229216377552164e-001 -1.7791046061357577e-002
    6.0559892616096456e-001 -2.8787999774741856e-002
    3.3354015196083157e-002 -2.8758458258840364e-001
    1.0594663008287000e-002 -1.0295694553728392e+000
    1.0904846627613025e-002 -1.5569025589279157e+000
    9.8977014182105218e-003 -1.0529473509354930e+000
    1.0414567793625529e-002 -1.1824371731512302e+000
    1.0019528069628180e-002 -1.3292029512383237e+000
    1.2545612204243495e-002 -7.1216856883617741e-001
    5.4498487870360601e-002 -1.7171330191220280e-001
    7.0290705115579288e-001 -1.6815749720863714e-002
    8.0038441774278490e-001 -2.6935775570767415e-002
    3.7626131170311813e-002 -2.5587401565927881e-001
    1.1014833548730028e-002 -9.3455554924324691e-001
    1.0189953180027028e-002 -1.6096362025623185e+000
    1.0661058069153850e-002 -1.6733407773381825e+000
    1.1586588374624571e-002 -2.0369646043230900e+000
    1.1277869693460504e-002 -1.7678695059141223e+000
    1.3662801984657811e-002 -6.7153158653331357e-001
    6.5327090038164906e-002 -1.5270789308766444e-001
    5.8559723157923460e-001 -1.6477294275610319e-002
    4.9445401432229180e-001 -3.2115761202960134e-002
    3.7305308483273208e-002 -2.4669132316329728e-001
    1.1141579261324386e-002 -8.9349734339728049e-001
    1.0448886728717818e-002 -1.4928923815130577e+000
    1.1111852826644422e-002 -1.3678184649752516e+000
    1.1186119116698838e-002 -1.6911769024045384e+000
    1.0907405472443229e-002 -1.7904058227042492e+000
    1.3024262790360260e-002 -7.5254731230471616e-001
    6.3839379143078759e-002 -1.6413862062290810e-001
    4.9734572909851543e-001 -1.6275088005207078e-002
    2.9951574104285589e-001 -3.6532195746658842e-002
    3.3454085864930587e-002 -2.6966460536677239e-001
    1.0608264567407133e-002 -9.4991930252027479e-001
    1.0321477750263592e-002 -1.2820382038062146e+000
    1.0997398623276349e-002 -8.1942036317746569e-001
    1.0548794302227670e-002 -1.0519099462611483e+000
    1.0445739869303732e-002 -1.5722492600938689e+000
    1.1917534460474204e-002 -8.1106522052907226e-001
    5.3385188328245015e-002 -1.8837510457268680e-001
    4.6724690031181049e-001 -1.7490990256481782e-002
    2.8527310637599990e-001 -3.8207324628356729e-002
    3.0447165498194307e-002 -2.9678768486055185e-001
    1.0741382996403023e-002 -1.1435661789520390e+000
    1.1018297197364146e-002 -1.5668086902827814e+000
    1.0738699862493860e-002 -9.0645608466205618e-001
    9.8434767402615728e-003 -1.0170431465356609e+000
    1.0172991383129493e-002 -1.5186009515612127e+000
    1.1780182899671872e-002 -8.4647714368335103e-001
    5.2722819808215776e-002 -1.9509240512237513e-001
    4.4655107143813338e-001 -1.5498518748395085e-002
    2.8968421105710307e-001 -3.8062009757735271e-002
    3.4157771204579690e-002 -2.8210063847947114e-001
    1.1339466618492632e-002 -1.1444434869756224e+000
    1.1027226482906442e-002 -1.8268714192200612e+000
    1.2009693856556095e-002 -1.4761994139811505e+000
    1.2952721537344298e-002 -1.7502911865563771e+000
    9.9080620165046523e-003 -1.5601006630239473e+000
    1.3588083336556707e-002 -8.0464949325461255e-001
    6.4685608981875739e-002 -1.7240007704044638e-001
    3.8145556541162751e-001 -1.6690897377168210e-002
    3.2775001755265298e-001 -3.4064876320780854e-002
    4.5684944005851109e-002 -2.1944345926777059e-001
    1.3337127566850765e-002 -7.5033018233004523e-001
    1.1214751996208649e-002 -1.4428572546261917e+000
    9.9046107537061195e-003 -1.4981609256211508e+000
    1.0102778118174383e-002 -1.4079246612861531e+000
    1.1226369494614407e-002 -1.2209141256855061e+000
    1.6319093358669740e-002 -5.5958762801475059e-001
    7.9457762013886921e-002 -1.3935517505230691e-001
    3.6534778093286918e-001 -1.8318336211632549e-002</input_scale>
  <output_scale>
    5.2631578947368418e-001 4.9999999999999994e-001
    5.2631578947368418e-001 4.9999999999999994e-001
    5.2631578947368418e-001 4.9999999999999994e-001
    5.2631578947368418e-001 4.9999999999999994e-001
    5.2631578947368418e-001 4.9999999999999994e-001
    5.2631578947368418e-001 4.9999999999999994e-001
    5.2631578947368418e-001 4.9999999999999994e-001
    5.2631578947368418e-001 4.9999999999999994e-001
    5.2631578947368418e-001 4.9999999999999994e-001
    5.2631578947368418e-001 4.9999999999999994e-001
    5.2631578947368418e-001 4.9999999999999994e-001
    5.2631578947368418e-001 4.9999999999999994e-001
    5.2631578947368418e-001 4.9999999999999994e-001
    5.2631578947368418e-001 4.9999999999999994e-001
    5.2631578947368418e-001 4.9999999999999994e-001
    5.2631578947368418e-001 4.9999999999999994e-001
    5.2631578947368418e-001 4.9999999999999994e-001
    5.2631578947368418e-001 4.9999999999999994e-001
    5.2631578947368418e-001 4.9999999999999994e-001
    5.2631578947368418e-001 4.9999999999999994e-001
    5.2631578947368418e-001 4.9999999999999994e-001
    5.2631578947368418e-001 4.9999999999999994e-001
    5.2631578947368418e-001 4.9999999999999994e-001
    5.2631578947368418e-001 4.9999999999999994e-001
    5.2631578947368418e-001 4.9999999999999994e-001
    5.2631578947368418e-001 4.9999999999999994e-001
    5.2631578947368418e-001 4.9999999999999994e-001
    5.2631578947368418e-001 4.9999999999999994e-001
    5.2631578947368418e-001 4.9999999999999994e-001
    5.2631578947368418e-001 4.9999999999999994e-001
    5.2631578947368418e-001 4.9999999999999994e-001
    5.2631578947368418e-001 4.9999999999999994e-001
    5.2631578947368418e-001 4.9999999999999994e-001
    5.2631578947368418e-001 4.9999999999999994e-001
    5.2631578947368418e-001 4.9999999999999994e-001
    5.2631578947368418e-001 4.9999999999999994e-001
    5.2631578947368418e-001 4.9999999999999994e-001
    5.2631578947368418e-001 4.9999999999999994e-001
    5.2631578947368418e-001 4.9999999999999994e-001
    5.2631578947368418e-001 4.9999999999999994e-001
    5.2631578947368418e-001 4.9999999999999994e-001
    5.2631578947368418e-001 4.9999999999999994e-001
    5.2631578947368418e-001 4.9999999999999994e-001
    5.2631578947368418e-001 4.9999999999999994e-001
    5.2631578947368418e-001 4.9999999999999994e-001
    5.2631578947368418e-001 4.9999999999999994e-001
    5.2631578947368418e-001 4.9999999999999994e-001
    5.2631578947368418e-001 4.9999999999999994e-001
    5.2631578947368418e-001 4.9999999999999994e-001
    5.2631578947368418e-001 4.9999999999999994e-001
    5.2631578947368418e-001 4.9999999999999994e-001
    5.2631578947368418e-001 4.9999999999999994e-001
    5.2631578947368418e-001 4.9999999999999994e-001
    5.2631578947368418e-001 4.9999999999999994e-001
    5.2631578947368418e-001 4.9999999999999994e-001
    5.2631578947368418e-001 4.9999999999999994e-001
    5.2631578947368418e-001 4.9999999999999994e-001
    5.2631578947368418e-001 4.9999999999999994e-001
    5.2631578947368418e-001 4.9999999999999994e-001
    5.2631578947368418e-001 4.9999999999999994e-001
    5.2631578947368418e-001 4.9999999999999994e-001
    5.2631578947368418e-001 4.9999999999999994e-001
    5.2631578947368418e-001 4.9999999999999994e-001
    5.2631578947368418e-001 4.9999999999999994e-001
    5.2631578947368418e-001 4.9999999999999994e-001</output_scale>
  <inv_output_scale>
    1.8999999999999999e+000 -9.4999999999999996e-001
    1.8999999999999999e+000 -9.4999999999999996e-001
    1.8999999999999999e+000 -9.4999999999999996e-001
    1.8999999999999999e+000 -9.4999999999999996e-001
    1.8999999999999999e+000 -9.4999999999999996e-001
    1.8999999999999999e+000 -9.4999999999999996e-001
    1.8999999999999999e+000 -9.4999999999999996e-001
    1.8999999999999999e+000 -9.4999999999999996e-001
    1.8999999999999999e+000 -9.4999999999999996e-001
    1.8999999999999999e+000 -9.4999999999999996e-001
    1.8999999999999999e+000 -9.4999999999999996e-001
    1.8999999999999999e+000 -9.4999999999999996e-001
    1.8999999999999999e+000 -9.4999999999999996e-001
    1.8999999999999999e+000 -9.4999999999999996e-001
    1.8999999999999999e+000 -9.4999999999999996e-001
    1.8999999999999999e+000 -9.4999999999999996e-001
    1.8999999999999999e+000 -9.4999999999999996e-001
    1.8999999999999999e+000 -9.4999999999999996e-001
    1.8999999999999999e+000 -9.4999999999999996e-001
    1.8999999999999999e+000 -9.4999999999999996e-001
    1.8999999999999999e+000 -9.4999999999999996e-001
    1.8999999999999999e+000 -9.4999999999999996e-001
    1.8999999999999999e+000 -9.4999999999999996e-001
    1.8999999999999999e+000 -9.4999999999999996e-001
    1.8999999999999999e+000 -9.4999999999999996e-001
    1.8999999999999999e+000 -9.4999999999999996e-001
    1.8999999999999999e+000 -9.4999999999999996e-001
    1.8999999999999999e+000 -9.4999999999999996e-001
    1.8999999999999999e+000 -9.4999999999999996e-001
    1.8999999999999999e+000 -9.4999999999999996e-001
    1.8999999999999999e+000 -9.4999999999999996e-001
    1.8999999999999999e+000 -9.4999999999999996e-001
    1.8999999999999999e+000 -9.4999999999999996e-001
    1.8999999999999999e+000 -9.4999999999999996e-001
    1.8999999999999999e+000 -9.4999999999999996e-001
    1.8999999999999999e+000 -9.4999999999999996e-001
    1.8999999999999999e+000 -9.4999999999999996e-001
    1.8999999999999999e+000 -9.4999999999999996e-001
    1.8999999999999999e+000 -9.4999999999999996e-001
    1.8999999999999999e+000 -9.4999999999999996e-001
    1.8999999999999999e+000 -9.4999999999999996e-001
    1.8999999999999999e+000 -9.4999999999999996e-001
    1.8999999999999999e+000 -9.4999999999999996e-001
    1.8999999999999999e+000 -9.4999999999999996e-001
    1.8999999999999999e+000 -9.4999999999999996e-001
    1.8999999999999999e+000 -9.4999999999999996e-001
    1.8999999999999999e+000 -9.4999999999999996e-001
    1.8999999999999999e+000 -9.4999999999999996e-001
    1.8999999999999999e+000 -9.4999999999999996e-001
    1.8999999999999999e+000 -9.4999999999999996e-001
    1.8999999999999999e+000 -9.4999999999999996e-001
    1.8999999999999999e+000 -9.4999999999999996e-001
    1.8999999999999999e+000 -9.4999999999999996e-001
    1.8999999999999999e+000 -9.4999999999999996e-001
    1.8999999999999999e+000 -9.4999999999999996e-001
    1.8999999999999999e+000 -9.4999999999999996e-001
    1.8999999999999999e+000 -9.4999999999999996e-001
    1.8999999999999999e+000 -9.4999999999999996e-001
    1.8999999999999999e+000 -9.4999999999999996e-001
    1.8999999999999999e+000 -9.4999999999999996e-001
    1.8999999999999999e+000 -9.4999999999999996e-001
    1.8999999999999999e+000 -9.4999999999999996e-001
    1.8999999999999999e+000 -9.4999999999999996e-001
    1.8999999999999999e+000 -9.4999999999999996e-001
    1.8999999999999999e+000 -9.4999999999999996e-001</inv_output_scale>
  <weights>
    <_>
      -1.2920812900984178e+000 -5.0239281156876148e-001
      -1.7462740645542096e+000 5.7517484967338339e-001
      -6.4842124730420625e-001 2.6958539886848576e-001
      -4.3230535446601587e-001 1.4226806191600134e+000
      4.5080423776136774e-001 1.3698213689740679e-001
      7.8970732482185585e-002 -9.9541474048836420e-001
      1.8547896507671224e-001 1.7025628753288913e+000
      1.5844894911718939e+000 4.4307916065765512e-001
      2.7214954484001069e-001 4.1991094896010734e+000
      1.4277186676945042e-001 -1.8546718786059628e+000
      -1.0485427694316174e+000 1.9750631082494203e+000
      7.0297415784695794e-001 -1.5824291599590734e-001
      5.4736223704619136e-001 4.8179234790494757e-001
      5.8753897268054811e-001 -2.1605726926113427e+000
      9.4727688703306423e-001 -7.9271259441931241e-001
      2.9228705983635437e+000 1.7985853853417231e+000
      3.5434574970213767e-001 -2.0998042429141841e+000
      2.9459305059161750e-001 -1.7398601675704573e-001
      5.2767218849695707e-001 -2.1466101997016818e+000
      1.6581665966824155e+000 -8.9073567262268649e-001
      -6.6701758145871692e-001 -5.4007596901683341e-001
      4.8399844776884243e-001 2.6113516410519710e-001
      1.2360295779167885e-001 7.3262028895316267e-001
      -6.9564950745434795e-001 2.8190121845151483e-001
      -1.4961513794104264e-002 3.0617484380727622e-001
      -2.0452445908118871e-001 5.6586229230241558e-001
      1.1376744807191694e-001 1.7270948848580367e-001
      -3.9148838100042889e-002 -2.6647925259926047e-001
      -2.6625154151733138e-002 1.4661945209088478e-001
      -3.2852776180464160e-001 -2.4993956961131888e-001
      3.6877824218256960e-001 7.2025360348819767e-001
      1.8322677490574102e-001 8.6071418455559778e-001
      2.2891398616467752e-002 -2.2084174334719872e-001
      3.4300930142916880e-001 6.9141649162326263e-002
      -5.9748983361518049e-001 -5.7746640658400639e-001
      -1.7395386945075006e-001 3.9944728671290050e-002
      -1.1784370910324045e-001 -3.4729243994620201e-001
      1.0261315786874952e+000 2.6364092904761866e-001
      3.9813571674320741e-001 -3.0365801694682815e-001
      1.9142148032396306e-001 -5.2414604750055528e-002
      -1.2971386200091578e-001 -3.2090339178648225e-001
      -1.1447778682122067e-001 5.4670645782381766e-001
      4.9099204486405990e-001 -8.7800094915576180e-002
      -1.0403940319190029e-002 4.7745138656904479e-001
      -5.9966161777358362e-001 6.8440398699802618e-001
      -2.8227808171024482e-001 -1.0577094198557035e+000
      -6.3781530383281437e-002 -1.7947419709349280e-001
      3.1637559351085698e-002 -4.2345740698787010e-001
      1.2016076192220108e-003 4.7108432237632508e-001
      -4.1619236120160535e-001 -3.2155911240663548e-001
      5.3874858323064156e-002 5.7469553879371249e-001
      -6.8449921624509324e-001 1.4114035420087307e+000
      -1.7755430185572491e-001 -2.0816906558501530e-001
      -3.9496354212304052e-001 -2.1592690815825699e-001
      3.8051180911163784e-001 2.0075155801174716e-001
      1.0391404288892546e-001 1.4239680086996401e-001
      6.5939042696608363e-001 -2.0868766640785721e-001
      -6.1920723941355352e-002 -1.1278204245169161e+000
      3.1456442864890849e-001 -8.8303652866942153e-002
      -1.3462163580233374e-001 -7.1848868433717950e-001
      -2.2582974145750903e-001 5.4597967024608829e-001
      7.8599038574623831e-002 -1.1776568657971241e-001
      1.2896518597886708e-001 -4.8047389167766252e-001
      5.8937279317816094e-001 1.3510804236082596e-001
      -1.0225828667267602e+000 1.6775974004620910e+000
      -1.7057796037275219e+000 -9.9058979817226545e-001
      -6.7469183810580857e-001 -1.4166025734209635e+000
      -5.2481844212094696e-002 -1.4151693521409916e+000
      -9.8001745248426564e-001 -2.9409948698726057e-001
      9.4761825626312324e-001 -9.6723081747856476e-001
      -3.5508490100184462e-002 7.3724225877369098e-001
      5.2908905120944738e-001 -3.4119801025792518e-001
      3.7238568008073458e-001 1.0297958985350912e+000
      5.2981830298565388e-002 5.6302550598147172e-001
      7.0139299365969443e-001 -5.7635101858572783e-002
      1.4476546656228555e+000 2.5574042629499738e-001
      -7.3818068898736461e-002 -2.8807789482488017e-001
      2.4455095191427684e-001 -1.4462758016155466e+000
      -9.3506201405800404e-002 -1.1314087588052468e+000
      5.1671538700038455e-001 -6.1319314160531613e-001
      -9.7429924369326726e-001 1.5029340537441225e+000
      4.6923178175932345e-001 3.1449928202045829e-001
      5.0600514554416787e-001 6.5286298822635647e-001
      -7.9733625912791750e-001 -2.1770028782555205e-002
      -2.9218846941845364e+000 -4.3917075227328482e-002
      -1.7283656290409788e+000 -1.4079006384716697e+000
      -2.2622064873144936e+000 -1.7006780676523278e-001
      2.1206131619717833e-001 -6.4956075058872587e-001
      1.1440685598422642e-001 5.1604161989444752e-001
      -9.2769494729252513e-002 -1.0697004224027709e+000
      1.2181247091203145e+000 2.8949685435588429e-001
      5.6247142216472956e-001 1.5847314404346551e+000
      -1.5077762382280067e+000 3.4317000311257208e-002
      -6.9406134482516785e-002 4.2426668039944626e-001
      6.6073417884672103e-001 2.2363516890994203e-001
      -7.2372709706568272e-001 4.3724106294566062e-001
      1.1559664710373216e+000 -1.9697363808783622e-001
      -3.9751515532494752e-001 -4.6305209343450920e-001
      -1.0511381228000405e+000 -8.9701995318668915e-001
      3.1049440992807525e-001 -1.4507034321332459e+000
      -8.3518933156060193e-001 9.6189383980918375e-001
      3.9064805888828652e-001 -6.6442625742121364e-001
      1.1256567162421163e+000 3.6068317588709331e-001
      -1.2022062675521574e+000 1.6490474072174541e-001
      -5.3422989390171660e-001 -1.0339912561612337e+000
      -3.1261727195108496e-001 -4.6124943291021492e-001
      -8.5280151143881133e-001 -9.5654069960570492e-002
      -1.4365541227959369e-001 -7.9000783120005391e-001
      -4.4660239949704533e-001 7.0895041469459330e-001
      -3.4419251744739271e-001 -5.7729221840860034e-001
      8.3292204277716830e-001 -3.7421471564320585e-001
      4.1706626683381448e-001 4.3894345573951016e-001
      -1.0015429889931346e-001 -6.9306535055416196e-001
      -1.4294993585594593e-001 -4.9780297573434336e-002
      3.8713740745343750e-001 4.2833414785456436e-001
      -1.6016168283093815e-001 1.5707693599898429e-001
      2.1405754344836166e-002 -3.3845439300193014e-001
      3.9692362385331004e-001 5.2437580554907337e-001
      -4.1667346294196345e-001 3.4620712779599327e-001
      1.9855097977278013e-001 -1.0694590324260267e+000
      1.3302887505613462e-001 -1.0729205014992331e+000
      7.8979140960077576e-001 -4.5083282018410842e-001
      8.6254327980510836e-001 -3.8412996041032604e-001
      -2.6560104918601229e-001 2.7500231879951615e-002
      5.3113079654247042e-001 -7.1686568975884069e-001
      -5.8551742314511968e-001 -7.9674472549729558e-001
      -2.9192403220571834e+000 -7.9834804629730627e-001
      -2.5911077943318567e-001 -2.0278523267029098e+000
      -1.6961897849706702e+000 -4.0099932044463998e-001
      1.3717691845890887e+000 -1.0314312971875890e+000
      -6.8578579513032656e-001 -1.7802304943552003e-001
      -1.8305397701000298e-001 1.1580414883345000e+000
      5.5497769842318045e-001 1.2509717397644531e+000
      -4.4362771397194772e-002 -7.5577684909213128e-002
      3.6281353008814710e-001 1.0960041875453604e-001
      -1.9237294479393885e-001 2.1385470980650248e-001
      -1.2572396955212521e+000 -1.1733956705230089e+000
      1.1431249767231770e+000 -8.6883377093894321e-001
      7.5742077121932849e-001 -4.6393337982701427e-001
      -4.4896644627833278e-002 -9.5858850128028306e-002
      -5.6744599256025346e-002 5.1226014911719864e-001
      5.2955981736780244e-001 -5.1301368324705443e-001
      5.7741834136398751e-001 1.0965952027498499e-001
      -3.1406914683703241e-001 -3.0325856173959403e-001
      -1.0336307352708756e+000 -1.0620184084396054e+000
      4.4288534706338156e-001 -1.6064237856896743e-001
      -7.2158113481707220e-001 9.0719045936023895e-002
      -5.7947227640095567e-001 -5.7929785920740595e-001
      2.8600222360089927e-001 7.3830075465378420e-001
      5.5238944897007224e-002 -7.0014205212977032e-001
      8.4609256618258144e-001 1.6819684951978764e-001
      1.9259611379510563e-001 1.0365684713518639e+000
      -4.0321944484133632e-001 1.4292730992567471e-001
      3.6910444453316787e-002 -2.6348725228997483e-001
      -4.8531175312688124e-001 4.1549625587877459e-001
      -3.8799539536088218e-001 -6.1456363809499412e-002
      4.7305590020161564e-001 -2.4718914955554447e-001
      8.4987268413202643e-002 -6.8618733582459901e-001
      -9.2618688079212308e-001 2.8648500746516947e-001
      2.5028200142895912e-001 -1.3219892929118184e+000
      -3.6082647008199947e-001 1.1272464832495088e-001
      -4.4731956682599139e-001 2.4733792454382492e-001
      -8.6787202489280801e-001 -7.1069229398746525e-001
      -5.4061017623490526e-001 -1.7674515821353495e-001
      -4.2511578802228789e-001 -2.5721262150049001e-001
      5.7008880333514234e-001 2.3742592933969115e-003
      -3.0403510691356339e-001 8.2949456029028634e-001
      5.7200932110196445e-001 -6.6951850994951301e-001
      -8.5886974138635641e-001 4.5200505444866984e-001
      -2.3028267368972585e-001 -5.6320725160000848e-002
      1.5841541419088383e-002 7.6292752519246221e-001
      2.4314441238033402e-001 6.1831582977869748e-001
      -8.1095415100313384e-001 -4.3672099746977960e-001
      2.2216270559683084e-002 -9.5703656894207956e-001
      -4.5787563619585869e-001 8.8499869494916950e-002
      1.0441908374766381e-002 5.8142249143887249e-002
      -2.1352591117008340e-001 -9.5456938591187690e-001
      1.3769402909844812e+000 4.9709053795978769e-001
      -5.1769307662770447e-001 2.7778214372587601e-001
      -1.0080205412212415e-001 -3.2936456651458074e-001
      -1.9027271414802241e-001 -4.2101097289718901e+000
      -8.6112184569052772e-002 -8.7508992379518391e-001
      1.4750338991001579e-002 9.6203945723996154e-002
      -1.1104556869953488e+000 2.5563210038871736e-001
      4.6490673451300291e-001 4.1309058108352026e-001
      -1.0061913453504323e-001 2.4221253812937571e-001
      1.6569145383363035e-001 -7.9613873114282183e-002
      -1.9506466665164649e-002 2.1350483172039722e-001
      3.1073587623191967e+000 6.6822132089852584e+000
      1.2739979183038527e-001 -1.5764927382530616e-001
      -6.5823976880580803e-001 1.0497700618946665e-001
      1.0820837414540578e-001 -1.0916571871214362e+000
      1.5961500864526870e+000 1.3585100457079871e+000
      8.5126022201377771e-002 -8.2432249499050467e-002
      -5.9031923566468025e-001 -5.4430152057765335e+000
      1.4922910320548285e-001 1.5057497159055844e-001
      1.8962501446450246e+000 -9.8640340047065123e-001
      1.7039885564984480e+001 -7.9979656375003394e-001
      2.2752865149592645e+000 -1.1521859939681267e-002
      1.5547961808836244e-001 7.2937681982210656e-001
      -6.6797582978750394e-002 -7.6890430196933379e-001
      -6.2034106888421137e-001 -3.9544226990501523e-002
      1.1052936416687387e+000 -1.2878598643985117e+000
      -4.9588992348644771e-002 4.8365114536086828e-002
      -1.0359624653278651e-001 5.4505043186634894e-001
      -9.8785806758023828e-002 3.8567204977458788e-002
      -3.5544451454183051e-001 -1.2094834237764358e+000
      -3.4531842531442541e-001 5.7668846274771375e-002
      6.0406769480825406e-001 5.5703029085782019e-001
      -1.6405818864736588e+000 3.9915366016377568e-001
      1.4166036236602056e-001 6.3985504727357922e-002
      -5.9227939947118217e-002 1.0733507087234171e+000
      -5.9269791526095528e-001 7.8303259581659634e-001
      -1.7641531424222526e-001 -6.2274053388735051e-001
      5.8658026890539827e-001 -9.7107980180041820e-001
      5.5744119376306844e-001 5.3609835711331022e-001
      5.7289497644351695e-001 7.4361242884748091e-001
      1.0339819174188560e-001 4.1380586003682135e-001
      1.2139649428627510e+000 5.6266070127673429e-001
      -7.9798522082297585e-001 -1.1242122863805164e-001
      1.7574439250180152e-001 -7.3327683856348425e-001
      -5.7524171064257938e-002 1.2048205706373953e+000
      5.1900153939309746e-001 -2.5733683835123167e-001
      1.3900344316503996e-001 -3.4967331317156075e-001
      3.1038205104333766e-001 -4.4281651248213455e-001
      -5.9231700554208278e-001 4.6826807856138059e-001
      -1.2394158981822487e+000 -1.6247835574430700e-001
      -3.7452702158848444e-001 -2.5074883142815341e-001
      2.9901175397848295e-001 -5.7885093925135256e-001
      3.0102006891848598e-001 -3.7849777875294666e-001
      8.9466941731861274e-002 7.2332502749346717e-002
      3.8629715754528776e-001 4.3759669668597356e-001
      -7.5355253334781447e-001 2.1164115420494961e-001
      7.0893157857167777e-001 3.6844596178658690e-001
      -8.7890899582963034e-002 2.6583652232491284e-001
      -2.8733775846362597e-001 2.2075392195684537e-001
      9.2232016170481268e-002 -8.2445461085021088e-001
      8.0255363459662954e-001 -2.4086107328534395e-001
      -3.2701921039572965e-002 2.7284876743618486e-001
      -2.2968010164719269e-001 9.0734555696096875e-001
      3.1963055040072474e-001 -7.7973678025915560e-001
      -9.4618872885327915e-002 3.4968280368741417e-001
      -2.6766652709295530e-001 5.1278868373137410e-001
      7.8909271170307083e-001 -6.4441194000838964e-001
      2.7525148428817608e-001 -1.2293027520148987e-001
      3.6507654172022820e-002 -7.6621416506498938e-002
      5.8111332486182365e-001 -7.3921047498844872e-001
      3.7079992771961723e-001 -8.1933309135524657e-001
      6.2807021578759670e-001 -3.1538044191204201e-001
      1.3325955190286127e+000 1.1251037117155138e-001
      -3.5877487501403384e-002 -8.5726674477538595e-002
      3.5996444599356109e-001 -8.2850953194097465e-001
      -1.7822204060434921e-001 -1.0771894870000689e+000
      1.1520503947918339e+000 3.2546210242219675e-001
      -2.0979959420050016e+000 -2.8103743295694023e-001
      1.6937986827034118e-001 4.3479664017491537e-001
      5.8003345325172140e-001 -6.1213506401860698e-002
      9.4285919266325446e-001 3.7588425533918329e-001
      -6.7937944197970568e-001 4.4488623636792790e-001
      4.1924570905065836e-002 8.8191811474267123e-001
      5.8313873148806339e-001 -6.6024821290663793e-001
      -4.8864824471917656e-001 7.4114502505863344e-001
      -7.4861881627912419e-001 -4.7779128297275889e-002
      -3.9965485176705984e-001 -7.4132702312615117e-001
      5.8971763938298682e-001 7.6715352818066673e-001
      -6.7768391648752535e-001 4.0342904140972957e-001
      -6.1478513118065048e-001 -9.5070329262804412e-002
      -2.9827311790723236e-002 -5.9707382603492523e-002
      4.4664781349661303e-001 -7.0117944800494181e-001
      2.6135044009109842e-001 -2.0291322791560087e-001
      1.9407282694696784e-001 -1.8352760761630701e-001
      -3.2148424197988185e-001 2.1282867388083355e+000
      3.2832878994431403e-001 -1.8542170748699224e-001
      5.9191696564135854e-001 -2.6008831882735606e-002
      7.9780580104141219e-001 8.5896899961601172e-002
      1.6600100375888488e-001 -5.1177276248104553e-001
      4.0615576402613446e-001 -3.7888688905278335e-002
      -3.3680029304527105e-002 -3.5705160843083650e-001
      1.3395912291263040e-001 -3.0635587559929994e-001
      -2.2987530042249116e-001 3.3396780639483642e-001
      3.2327480144752907e-001 6.1911943811576764e-001
      -1.4230484333049373e-001 2.0335094817781724e-001
      -4.5869538116793518e-001 6.2896796213780459e-001
      -1.2486720604332275e+000 -1.4997319541762966e-001
      5.3286010865575595e-001 5.4616656392252980e-002
      -1.0218207245644328e+000 5.4734501742936115e-001
      -6.7141372722743387e-001 -4.4955552421345640e-001
      -3.2396086038831279e-001 -2.4925210740123610e-001
      4.3824372114620908e-001 -1.5106956761774482e-001
      8.0028730259192704e-001 -2.8004078759766854e-001
      -1.0896650834886936e+000 -2.9767098297639555e-001
      -1.8465340265458569e-001 1.1826786331387115e-001
      9.3514634445682421e-001 1.3335038881855137e+000
      -1.9713186004431071e-001 1.2029340583243223e-001
      2.4747303959261715e+000 7.6823395452202486e-002
      -4.4911040462060925e-001 -2.4718418986169094e-001
      -1.2171965799242512e+000 2.5308227133463347e-002
      -2.3081837498979479e-001 -3.8252841208099692e-001
      9.3865584906393418e-001 -3.1069749941507258e-001
      9.8233551929271901e-001 4.3196087974961866e-001
      -3.4895463367715684e-001 9.6319503582171706e-001
      -5.5098372894075065e-001 2.6569682454204580e-001
      -1.4404321009294145e+000 1.4854145216333996e+000
      1.3411263539556035e+000 1.8305853987799006e-001
      8.5136662339978764e-001 -4.3116798694754666e-001
      9.7456012046357995e-002 3.2184000662789380e-001
      -4.1307496936585253e-001 -5.8027952888327095e-001
      -3.8452415743206697e-001 -9.6588258234965696e-001
      -8.6156389093522623e-001 3.0841983449244964e-001
      6.4382798459019652e-001 -7.6393237818172723e-003
      -1.9117306190782915e-001 -2.1133989392170530e-001
      2.0742994942041187e-001 -8.2042834438708268e-001
      -5.5663233786451549e-001 6.9654844823827544e-001
      -1.8415828228950878e-001 -1.2382135070382339e-001
      8.0917927946412882e-001 6.5725220261925565e-001
      1.7623485018530544e-001 3.4944958086895954e-002
      -4.7540703366070930e-001 -6.9837257594779933e-001
      -9.0038239851653457e-001 2.5426184424743625e-001
      3.8992131540787719e-002 -7.5034462102118504e-001
      2.8887397723537916e-001 9.6191105459017678e-001
      -7.6430450656341919e-001 6.3862807644150354e-001
      -1.7736679823178281e-001 1.1152113005095072e+000
      -1.2829776080074318e-001 9.4647357228236217e-001
      -4.5275731894902416e-001 1.7230407521826266e-001
      -5.9799567327560443e-001 1.7044807538744750e-001
      5.1769268674650148e-001 8.3884676779011971e-002
      4.3356785893923733e-001 -3.9963557329894661e-001
      8.5744883398955396e-001 -1.2221742045336168e+000
      -4.6892734491275728e-001 -5.6081859004068302e-001
      -5.8085626198360762e-001 5.5199171086970200e-001
      1.1091671757167045e+000 -2.7310841114219864e-001
      5.5260503897168529e-002 -5.4300389214281364e-001
      7.2524765776851230e-001 4.5225005989023910e-002
      5.9905277257265799e-001 -8.1370822140894583e-001
      6.0340196370115595e-001 4.8923236090444619e-002
      5.9472119463294537e-001 -4.7507972300133050e-001
      7.8556315115557962e-001 -1.0463324443757138e-001
      -2.8791334792824536e-001 -9.6951473299788274e-002
      5.6560424907824891e-001 9.4723183570149666e-002
      -4.6189676579209943e-002 9.9411463495222308e-001
      1.0664658347333787e-001 -1.2533510960910612e+000
      8.3499376673097381e-001 1.1206029872337600e+000
      1.0702383435428646e+000 3.0767952804630433e-001
      -2.6328357433325245e-001 -4.5251063336015723e-001
      -6.1948336553217931e-001 -2.7963046087910254e-001
      2.7913569077197303e-001 1.0562624104128531e+000
      8.8288850990832568e-001 3.7008124694156186e-001
      -2.1996943748636005e-001 -8.2799224292070750e-001
      -3.3392133573533572e-001 3.2587909458706749e-001
      -5.0351199923645373e-001 4.5693364896154320e-001
      1.3884944464492880e-002 -4.4681816811297570e-002
      -1.2052679255004538e-001 -3.4619271112024980e-002
      -1.1527405857291172e-001 7.0241470835383935e-001
      7.5156061260965121e-002 -4.4536138281643151e-001
      -4.2226954197720079e-001 -3.2441647036825266e-001
      3.3205428271122972e-001 -2.3648822339467096e-001
      -6.8378519732365195e-002 1.1266255331479094e-001
      -4.5627838302049101e-001 4.4516631123381181e-002
      8.6095836262801495e-001 5.7181824592990471e-001
      4.1095845590169683e-002 -5.9044843825413751e-001
      5.6584377024338306e-001 6.0203761392753082e-002
      -8.7697825817877317e-001 2.8006553467095130e-001
      1.4977109181461429e-001 -3.5432202434301557e-001
      8.9866937575773687e-001 -9.2944715116824561e-001
      -2.9392954888606804e-001 4.3726836290966220e-001
      1.2476930064087222e+000 -1.5523039014646994e-001
      -1.0771515885554130e+000 -1.2748316163423293e-001
      1.5767086345436598e-001 4.2038399431137718e-001
      -1.6628023567145792e-001 5.7489872770530408e-002
      -2.0418083695017833e-001 -2.1767020966179804e-001
      -5.8574848157454817e-001 -9.4642453850438513e-002
      -9.0460475399819673e-001 5.6599873031517356e-001
      -1.0541832337476265e-001 8.8414796845630833e-002
      -5.2955656511399185e-001 -1.9656930979836465e-001
      -1.0591347304604481e+000 1.1005077804291710e+000
      -1.3132857439064796e+000 2.5772866513539716e-002
      1.5669740184361821e-003 -6.5278278293574277e-001
      3.4778039780789632e-001 -2.4986958823129976e-001
      7.8254348364260540e-001 -5.4759811043086903e-001
      -4.1483217387759885e-001 2.8867485490108885e-001
      7.7125570466647919e-002 6.3827672271107638e-001
      -3.2753314924146326e-001 -5.5883546541198181e-001
      1.7112417773344764e+000 -8.8814160744492654e-001
      3.9855963870794481e-001 -6.9862733952825828e-001
      -6.3632074922301873e-001 -7.3532447353074293e-001
      7.9227484182868912e-001 -1.5360038895227879e-003
      -5.0642146009578559e-001 1.0198454960000815e-001
      4.8426896224286226e-001 1.4534969045856397e-001
      -1.1177160991509754e+000 2.0460518177243949e-002
      -6.4831209058851336e-001 8.5617080558952272e-002
      -3.3862063576860096e-001 2.7563388847487263e-001
      -9.6082810791389389e-002 1.0500862057956981e-001
      1.9763630556522105e-001 1.3268784786023112e-002
      -8.2187192116730412e-001 -5.6924093484317551e-001
      3.2117516585744688e-001 4.3369221098792047e-003
      1.2337517671273646e-001 -4.6602333576615967e-001
      -9.6870295788106986e-001 -7.0538326924479278e-001
      4.1503215023366141e-001 -5.9341861004717600e-001
      2.2074890336084005e-001 -8.2599462822338388e-001
      -4.0009852676496777e-001 2.4708406842284861e-001
      -3.5887080623799483e+000 -1.2727518075787445e-001
      -4.5209843527490055e+000 -7.8609099489014100e-001
      -1.8562984449480247e+000 3.0487012193127394e+000
      2.9907042290700259e-001 2.6926042688059453e+000
      1.2147177752564713e+000 4.4176756339605860e-001
      2.1002285531389611e-001 -1.8615956480252716e+000
      3.0458607858175413e-001 4.9183747598592920e+000
      3.3890793205365344e+000 9.2745066855455838e-001
      1.9341976269873338e+000 -3.0003152745909328e-001
      -4.6931458408113330e-001 -4.4152742547547295e+000
      -6.3750364150331329e-001 4.9416355971579629e+000
      1.5295326155129731e+000 1.2410425432646774e+000
      -2.5141553102140368e-001 3.2330469201870082e+000
      1.6317613345881079e+000 -5.5141756006688372e+000
      2.8063104515874207e+000 -4.4704957678810020e-001
      7.6860654530788635e+000 4.1201564697983066e+000
      8.5659575689916789e-001 -5.5416994859438438e+000
      1.1867600367370015e+000 -9.8512535721792227e-001
      3.2403490579166161e+000 -1.0286465568526848e+000
      3.7402122377916349e+000 -2.9910578687757527e+000
      -8.7372649154999937e-001 2.3947856967224523e-001
      6.2978056369250482e-002 2.8252737299915009e-001
      -9.0461400237240891e-002 -3.6134980055519339e-001
      5.6352267793421718e-001 1.3996177456883321e-001
      7.6113486067815844e-002 -7.0871786134332648e-002
      2.6270209724124510e-001 4.8387282644815871e-001
      2.0406716779495855e+000 -1.8282170264534517e-001
      1.1527422483137807e-001 2.2301926041374617e-001
      -5.5648563968354992e-001 2.9888715870961913e-002
      6.7869459766374318e-001 -3.1128409624079023e-001
      -1.4623265200689539e-001 -3.6892017856514442e-001
      -4.4635254150169229e-001 4.7471175252745405e-002
      1.1482690501043344e-001 1.4985996584023439e-001
      -1.1783232276185318e+000 -2.7415233067607819e-001
      -3.3684540053910794e-001 1.6442767843501305e-001
      -2.3407510367553801e+000 -6.4592344857703532e-001
      3.2050145050396311e-001 3.9151638051998716e-001
      -3.4991524399433471e-001 1.4015767004673943e-001
      -1.4807735774724073e-001 7.6120821929150306e-001
      -5.0926422737447330e-001 -7.6866486893461783e-001
      2.5093832098939961e-001 -6.0825664619791631e-001
      -1.0297893758237475e+000 -9.7467168944123439e-001
      4.7954444593021028e-001 -1.1917372155091674e+000
      -2.0374078540186255e-001 3.9437597129470675e-001
      9.5962857857095227e-002 -6.6946232764853220e-001
      5.6998510232815736e-001 -3.5527700827177038e-002
      1.4125576623732157e+000 2.6319852220350087e-001
      -7.6700042850166128e-001 6.3078910124331489e-001
      -1.9148738088963319e-001 7.8515852412548506e-002
      -6.8073571812191724e-001 -5.4226607993491238e-001
      1.6981705638636518e-001 -8.6572901338826258e-001
      -1.0005356789284417e-001 -8.5245251784829695e-002
      -1.0158856723462568e-001 -1.3539916492050608e+000
      -5.9303431676141861e-002 7.5125204037354856e-002
      -8.6729756152498588e-002 -4.0444639226204127e-001
      -4.3434315520042430e+000 4.5971922565209394e-001
      6.6534972181224072e-001 -2.6066685486671428e+000
      -3.1642798323082832e-001 2.1506442258813339e-002
      4.1801375907262772e-001 -9.9086785209631367e-001
      -6.6232282315956692e-001 1.0476797458381412e-001
      1.8477475376027197e-001 6.1333889365799345e-002
      -2.7721535186290919e-001 4.7160708254529127e-001
      9.3802379538399405e-001 -1.3537669685453968e+000
      2.2644710595345555e-001 9.7788342315870891e-001
      1.6893288418945523e-001 5.8852450522449556e-002
      1.1443890725300031e-001 -4.5567804238099530e-001
      -9.8375990382404344e-001 6.5550926592389799e-002
      -1.6767970768630503e-002 -5.5190540002476740e-001
      4.3516107692388534e-001 -6.5817254674465120e-001
      -2.6234496956155384e-001 2.2265676211974358e-001
      -3.3203142387557555e-001 4.4730402624587740e-001
      7.5456771454928262e-001 -1.7318260603306626e-001
      4.1230131527988279e-001 -2.0692441999109440e-001
      -2.9349423850699660e-002 -3.2216672340408820e-001
      -2.6534393367282566e-001 -4.4962395547594874e-001
      -1.3182900229287280e+000 -5.3549897792156659e-002
      -5.9508461149499325e-001 -8.9535962103325073e-001
      2.0648646408224883e-001 -8.8207440851048047e-001
      -9.9197502503584545e-001 4.9178812415503559e-001
      2.3308213089659503e-002 -4.6323225109152705e-001
      3.8751869989297766e-001 7.1664758752641733e-001
      1.1053817835067503e+000 7.8361065291967391e-001
      5.7314225073736302e-001 -2.5924542627267839e+000
      -7.7500036921251481e-001 -9.6318580651963637e-002
      1.3327379947842053e+000 -1.2544328189488110e+000
      -1.2339422735553676e+000 -4.3619907686854215e-001
      -2.2863298237698744e+000 1.2084948861071760e+000
      -2.4732846271117787e-002 -2.8996679646817808e-001
      -2.3274359889306107e-001 -5.4698408021820788e-001
      -4.3935302948357080e-001 2.9289196734051275e-002
      -6.8407986381396313e-001 -4.7239221238954554e-001
      2.1784060546122022e+000 -1.1799736223650550e+000
      -1.7821024708683777e+000 9.0386117420873024e-001
      -7.6027259918288281e-001 -5.0967205233530533e-001
      -8.3131885939255856e-001 -1.1263487365888711e-001
      1.0934791033534772e+000 -5.2743030217145104e-001
      -1.4597363918707298e+000 1.5512592091248860e+000
      4.6917216396417849e-001 -2.0694116979276935e+000
      -2.7363551129461777e-001 2.8568950673723443e+000
      -4.6327511050684250e-001 -1.8488200516333479e+000
      9.7540475189121165e-002 -9.2705304532999333e-001
      9.3878260568961269e-001 -6.7405356674258177e-001
      -4.2499622680804910e-001 -1.5719322905227004e+000
      3.8213966340527111e-001 -2.3850010678946748e-001
      1.8674916552681828e-001 -7.3656594831000691e-002
      -4.2072116602261123e-001 -1.1800834522202057e+000
      -2.0387955401371743e-001 -8.9795872732966153e-001
      8.8257040682068599e-001 6.5784871507990128e-001
      1.6209868552037447e+000 1.2219603801779797e+000
      6.3356357225121762e-001 -6.1608151545512568e-001
      -5.7585531630295492e-002 1.4758738512142563e-001
      -3.7582913044598508e-002 -1.7827923789706596e-001
      2.2476307039763291e-001 5.0964458312289951e-001
      -2.2282295489507578e-001 -6.7257009477183383e-001
      8.6574652382782935e-001 9.5664566765564985e-001
      1.8310211247870212e+000 -2.5084937420539644e-001
      -2.0585969865121498e+000 7.1997037580383705e-001
      4.2194580138971616e-001 -1.4208685025920800e+000
      -4.6871809158284111e-001 7.2498879765353175e-001
      -9.2716662529448624e-001 -8.7992957267548710e-001
      -4.1770157909037481e-001 -5.6394690541041521e-002
      -1.0491488453366906e+000 -9.7650630337146394e-001
      -1.6361881335134185e-001 -5.1141490849399640e-001
      7.1382989148035314e-001 1.0009315019768525e+000
      5.0861280833938272e-001 4.1290261253553506e-001
      1.1542076960425975e+000 1.4275779543688935e-001
      -9.2955071362562025e-001 -7.4368785909551616e-001
      -1.1786075444403976e+000 8.1015619351797086e-001
      1.3619238412516985e+000 2.8017768559956302e-001
      -1.7462257379753237e+000 -1.9804168100575870e-001
      6.3219336954601968e-001 8.7612406202800319e-001
      -5.6270288328029672e-001 -4.0227738566586269e-001
      1.8377834026881490e-001 -7.3886536999806440e-001
      1.3519574898250710e+000 -2.8832641637900369e-001
      9.5659805163771872e-001 -3.3851599002947186e-001
      -3.5324516846551490e-001 -2.6232110881188969e-001
      5.0774847310506188e-001 -7.8129995416171083e-001
      4.1182428385069214e-001 4.0273183882065738e-001
      3.4768208296864089e-001 -1.0332483848588318e-001
      -5.7325191539661569e-001 -1.4998174765493022e+000
      -7.3131373176137371e-001 1.1353713509024106e-001
      -5.3725347413473268e-001 -1.2960962859867606e+000
      -6.1085013875259986e-001 -5.6475426546440932e-001
      -2.2859715102713368e-001 7.5539333856441160e-001
      -1.1097665837108299e+000 2.1856703868273045e-001
      1.3104359047222318e+000 3.2482666928033699e-001
      8.1357275727343781e-001 -4.3034980633581438e-001
      -8.4996266293297984e-001 4.3294749669617322e-001
      3.9918928584325142e-001 4.0036704772566362e-001
      -1.5156994602478480e+000 -1.4116044136808076e-001
      1.6058736040723274e+000 1.3663476276561728e-001
      7.0952518765593908e-001 -2.8106356268966065e-001
      1.4846792488723587e-001 -1.0671831997559535e+000
      8.2901769346223375e-001 1.4594312523667177e-001
      3.5706656502016881e-001 -3.9704379649749189e-001
      1.4833566193648831e-001 -4.1451167573764874e-001
      5.0144284776139036e-001 4.2057262508867271e-001
      1.6730899696197393e-001 7.4169212806231322e-001
      4.8462752327270037e-001 -5.6766440905480808e-001
      1.1998418666571077e-001 -3.4369808996851553e-001
      -6.2519067392949823e-001 -8.6688076913576306e-001
      -3.5465917982805506e-001 -1.7311779884019252e-001
      -5.9709917819993497e-001 3.0468600226947817e-001
      -6.6427751475252828e-001 1.6282014356619046e-001
      -3.9171774594294984e-001 -7.0960533782193927e-002
      1.0044501550701832e+000 1.9693986030436714e-001
      8.5331419171266754e-001 4.2892982192785267e-001
      -5.5065972344456249e-001 5.6453103682968790e-002
      2.0961144740747917e-001 9.3688570541605365e-001
      -1.0222103829066547e+000 -6.1922486867014015e-001
      6.4405499224026896e-001 -2.2248198151541990e-001
      -2.6885117092748995e-001 -3.3165823894701474e-001
      1.3610375584764496e+000 -2.9423494142146495e-001
      7.1965456267451577e-001 3.7601237847321459e-002
      4.0176385199683584e-001 -1.7347844945456141e+000
      -7.2908761678843492e-001 -1.0083877875167520e+000
      3.0081695275708153e-001 2.7911921871819656e-001
      5.3963241211626629e+000 -7.7042489182585277e-003
      1.7715204991939376e-001 -3.8015885616725809e-001
      -1.2811295416052790e-001 2.3337221636227876e-001
      -3.4986212995484772e-001 -4.5458648686453573e+000
      -7.5592291065810391e-002 -1.1251643916120180e+000
      8.5438073152892605e-003 2.3313275303191738e-001
      5.1384704947686088e-001 1.5681598823344453e-001
      4.3709562046126871e-001 4.7407826003557682e-002
      -1.9537535624079547e-001 3.0998567902782775e-001
      2.1168442030906487e-001 -4.7152340491749607e-002
      1.5108196698138915e-001 2.3873479692670402e-001
      3.2562598238626594e+000 -1.8727095009404681e-002
      1.3877065028318930e-001 -1.7690726190233735e-001
      1.1506385426153287e-001 7.2755436517211086e-002
      8.5348179740458788e-002 -1.2811007485122050e+000
      -5.1167998004039247e-002 1.4670681283395779e+000
      9.2179967017223169e-002 -5.2664097272450222e-002
      -6.4133586932769393e-001 -5.8993105382269775e+000
      1.0534462643329456e-001 1.0627556799735749e-001
      2.0536263352289361e+000 -1.0641203278551192e+000
      1.8307069015719030e+001 -8.9142981881389971e-001
      2.7038143951823645e+000 -3.8175867021395866e-002
      1.1917608981609441e-001 1.0112683733611125e+000
      -4.5419511595723625e+000 -2.6541513752765783e-001
      -5.5767909711251464e+000 -7.7018656452036660e-001
      -2.3049312608510770e+000 3.3912145541235295e+000
      1.2069317484090332e+000 3.2204806194679350e+000
      1.5556084545302518e+000 -6.4175898146098598e-001
      -1.0912591951176600e+000 -2.3218223887323592e+000
      -6.4596728813737611e-002 6.1386810630349347e+000
      4.0700889795157078e+000 5.2591390551815898e-001
      2.2520287275693911e+000 -3.8425115365447077e-001
      -7.8246273995123838e-001 -5.4110185237350894e+000
      -2.6820749132178284e-001 6.0783578907105529e+000
      1.9780845242249023e+000 1.9602602890321370e+000
      5.7046038762729356e-001 3.2085881211482019e+000
      1.7494160469371838e+000 -6.7699040322049306e+000
      3.4073923430463111e+000 -6.9579009510822076e-001
      9.3998238192868957e+000 5.0335284914485499e+000
      1.1590269914830720e+000 -6.8384739729456561e+000
      1.6897722920196716e+000 -1.3195264645217615e+000
      3.1323603067537280e+000 -6.7559053139844638e-001
      4.6119201855720808e+000 -3.6850750660740301e+000
      -8.1744800622951652e-001 9.4527776066412619e-002
      -7.7476447204745869e-001 -2.4310102357533347e-001
      -4.8684285550041928e-001 -4.8337807802362531e-001
      6.5379541225466642e-001 5.6478832830648562e-001
      4.2620327747238413e-003 4.5336332692429493e-001
      -8.3772861054803943e-002 -3.0843014863966767e-001
      1.0100789992241936e+000 5.0502287461383033e-001
      8.3159251614272719e-002 7.2375052028427173e-002
      8.6633156239740591e-002 7.9866798493469082e-001
      -6.0387872283867094e-001 -9.2703356710854656e-001
      -4.0405319517479200e-002 1.1189116193740847e+000
      4.6447614084290428e-001 -6.3029394589762389e-001
      1.5641368220954571e-001 8.4404658683532308e-001
      -5.5316452188778364e-001 5.5907665855407858e-002
      3.6815754554148639e-001 -3.3306944506906022e-001
      -1.4528015545051884e-001 -2.9976819882301464e-001
      5.4106583703916744e-001 -6.8150864983339510e-001
      4.0889645374016614e-001 -3.4402947946379075e-001
      1.1104791097953425e-001 -2.7895063192410641e-001
      1.4800618322947295e-001 -2.0055457128832840e-001
      5.7339321191828507e-001 -5.3395477470959229e-001
      -2.2625366437267014e-001 8.4048870809461751e-001
      -2.6326466086587025e-001 -3.9783841856543506e-001
      1.5146472788455312e+000 7.6178247284113454e-001
      -8.6968170944023671e-001 -3.0380815254296450e-001
      9.3635725567731490e-002 1.1068177763076390e-002
      -1.7628383774375386e-001 4.9035668343634575e-001
      -4.6241448001557778e-001 -7.7985386262255851e-001
      -2.0537188006817911e-001 -4.4589698509186582e-001
      -3.5569305351713620e-001 9.8102271310840827e-001
      -3.3635474316553782e-001 -5.9338511322223522e-002
      9.1934628662982565e-001 -3.8060620833430236e-001
      -7.1702572726365843e-001 -1.7844497037132775e-001
      -5.4008735911849515e-001 1.4528854366097257e-001
      -5.1486971805582149e-001 -3.5340591761086793e-001
      -7.4138872423358482e-001 -6.9252671912699770e-001
      7.2589635206605896e-001 -1.2213980070488299e-001
      1.2507451795761623e-001 -3.3410374976953067e-001
      -4.9643158344674121e-001 -2.9700923584880812e-001
      9.7535140032644518e-001 7.5879239006098997e-001
      2.8379281126457029e-001 -5.6081821895069361e-001
      -2.0460697114999046e-001 7.4640465839671954e-001
      3.1212083865232548e-001 -1.2525999598788913e+000
      2.1202135154128561e+000 4.4523912229779211e-001
      -9.2197240486592191e-001 -2.7895236481348351e-001
      7.8509179202730206e-002 -1.0921833464866461e-001
      -2.0060096878999154e+000 -8.0801595277867277e-001
      -1.4586069193909408e+000 1.6278466324885366e-001
      8.1345003554495143e-001 -1.0850302908549805e+000
      -1.0417426925909583e+000 -3.9389537318643419e-001
      -9.0857050765312541e-001 7.3925594251276472e-001
      4.0111464587030132e-001 -1.0917602672030293e+000
      -2.5075853234375323e-002 1.4429843560322853e+000
      -8.2357256137816026e-001 8.6016152142506075e-001
      -1.1985428825491928e+000 -5.5716147969669261e-001
      4.3389836588816671e-001 4.1371193203778821e-002
      9.4526434691010353e-001 8.9388189853368516e-001
      6.2149449070575213e-001 8.9244180134360501e-002
      -5.4071029215271671e-001 -1.0232592680620596e+000
      1.1067429010180660e+000 6.4972546044648249e-001
      -8.2806056082143042e-001 1.5812081298525207e+000
      2.1505723345218752e-001 -8.1934877881638946e-001
      -3.8895468020708666e-002 -1.1908841766009963e+000
      -8.1009130248746963e-001 1.6980460446991252e-002
      -1.2330753619456363e+000 -7.3315827964188196e-001
      -4.9676668463844359e-001 -4.4557459429508985e-002
      3.2178931319377668e-001 5.5450436403055225e-001
      -1.5231254460228771e-001 1.1508152059797119e+000
      -4.4407279766952007e-001 4.4043471321957312e-001
      -1.5917226522167509e+000 7.5020246644252678e-002
      1.0440633184363829e-001 4.9849890081038128e-001
      1.1441380237805665e+000 7.3050812817107114e-001
      -4.0481945238038769e-001 -1.9659918435158572e-001
      -4.6308308804578008e-001 -5.6139690133161058e-001
      6.2727213159104867e-001 -6.9939568411488989e-002
      -3.6390331560757949e-001 -7.6361287409509970e-001
      3.8379494086950167e-001 8.6320139658994363e-002
      -1.0449930392418119e+000 -1.4383988646384169e-001
      -2.4816655862477710e-001 1.3910861707884886e-001
      4.0975756105210553e-001 -4.4181270297156766e-001
      -2.8958160808296196e-001 -6.5571755374044627e-001
      -2.9517722702009758e-001 -4.9916240899881026e-001
      3.2284101512169550e-001 -1.6000898573523188e+000
      -1.7793579555318200e+000 9.7541231256977057e-001
      1.8527339856238925e-001 6.3453673037289837e-001
      -8.2418426440823001e-001 -1.5385883137167056e+000
      1.0614323818536893e+000 2.6920856519307132e-002
      8.4595067126615964e-002 1.7313976889355098e+000
      -6.6500772118571472e-002 1.3280542098144674e+000
      3.5422177821003202e-002 1.2097633813235212e-001
      5.3401107658405289e-001 2.1167372134687804e-001
      -6.9151927460896645e-001 1.1736183495998427e-001
      4.9087723527457994e-001 -5.4220581898951861e-002
      -4.1083970220258226e-001 3.0478768116379162e-001
      -1.0300713882263270e-001 5.6219032025234372e-001
      -6.2003349713065770e-001 -6.3935446183620770e-001
      -1.5981680721575409e+000 -6.8422810501632403e-001
      2.0451850097806720e-001 -1.0579267210986152e+000
      3.2720718129938819e-001 1.5149917945325895e+000
      -2.6220861993834849e-001 -4.1086294115025027e-002
      1.1047338274342569e-001 -1.4278795658621388e+000
      -2.5952309666103224e-001 2.4730426195638947e-001
      1.1211499816226596e+000 -2.8869845718883758e-001
      -1.9122100756815466e+000 9.4494625195508397e-001
      9.9730905267954384e-001 -6.7802196039418944e-003
      2.9301214868913933e-001 -1.7503646408736058e+000
      9.9214885299466871e-001 8.7960621954926421e-001
      6.1304443828418827e-002 -1.8202818469044995e+000
      1.7450701218114366e+000 1.2386684464925550e+000
      5.3558231499861420e-001 -3.8358497148676431e-003
      3.2240599739019365e-001 -3.4145843406753723e-001
      -6.6904422748835968e-001 6.2966572873965398e-001
      2.4290885065349559e+000 -3.7017916721160488e-001
      9.9164564532602126e-002 -5.2149504378215550e-001
      -1.0279246703136629e+000 -9.3628045363062254e-002
      -3.0215768075324817e-001 4.7984640164668008e-001
      6.0806407329803380e-001 2.8205197619736533e-001
      1.5653623300683870e+000 4.3510199256947424e-001
      -1.0678594121533029e+000 -2.7685191184624862e-002
      5.3155052133156487e-002 1.2096711014288284e+000
      -3.4364868727740172e-001 2.6980157160224322e-001
      -3.9748776991593959e-001 -2.9326947913731076e-002
      3.6418688681836930e-001 -5.2674151470317676e-001
      -2.3114709032270766e+000 3.4436789663021339e-001
      1.3647821004696494e+000 -1.3811334198233487e+000
      1.4198904822584135e-002 -1.3800851622794461e+000
      1.4908960315072342e+000 1.0078688879471636e+000
      3.7981050698439284e-001 -1.6412648033210890e+000
      1.4444190532098398e+000 -1.9217727528712061e-002
      2.9576674024855504e-001 4.8381683506262702e-001
      -6.3418123970721041e-001 -6.3724506074310017e-001
      1.3009070058606395e-001 3.3193539031250274e-001
      2.0098140245481666e-001 -7.5505762402547916e-002
      2.5279484000005492e-001 -6.0816053429171912e-001
      -6.6601182093419509e-001 7.4602128780168564e-001
      -7.3141861205951300e-002 4.9617846330675577e-002
      6.4615233285198714e-001 4.3649192530887448e-001
      2.4545129134702878e-001 1.9342128433807360e-001
      -1.1429375288986918e+000 2.9554934934777644e-001
      4.8369274275154328e-001 1.5240393413901108e+000
      -2.0516375052454450e-001 -5.4691134913663242e-001
      1.5087070035242026e-001 6.9205259675724884e-002
      -7.6424595007004703e-001 -1.2193143437777576e-001
      -1.7602188157127033e-001 5.6932124075293383e-002
      9.2671949031005973e-001 -1.1326960174027083e+000
      2.0635077313275232e-001 -5.1963401574002344e-001
      3.9775849894965698e-001 4.7136302430849186e-001
      6.6533552910153237e-001 -7.5751142268277977e-002
      7.9577304231653190e-001 1.1362808278860150e+000
      6.8845668490413314e-001 1.8421436151119683e-001
      -4.5108765198636713e-001 2.0001725911283630e-001
      2.2242824283351920e-001 -3.6242401826699321e-002
      -1.3591754590309774e-002 -1.5257474077601908e-002
      -1.9707100999254101e-001 -6.3553545180032056e-001
      -1.2485773182778759e-001 -1.1087055464436697e+000
      1.9340942556182794e-001 -4.9516787020093617e-001
      -6.8100438224787799e-002 3.6339894850277193e-001
      4.1880799125017729e+000 -3.3294569882012248e-001
      2.9073913934227025e-001 -6.0038121635528197e-001
      7.6306357175994655e-001 4.2090168183521803e-001
      -3.7770541351612907e-001 -5.0968710645960691e+000
      -8.8026295696949142e-002 -1.5209308345188810e+000
      2.1994764237213610e-002 3.6953850217369877e-001
      -2.1675951222691534e-002 1.5657272665848931e-001
      5.7090903834350426e-001 2.8850687446790080e-001
      -2.2985877188443818e-001 2.8967798777783810e-001
      2.0223460646042757e-001 -4.5807249394889664e-002
      1.8784373260626869e-001 2.4846847443185471e-001
      3.6303124872924690e+000 8.1543746769022929e-002
      1.8113095158684814e-001 -2.1351386477287088e-001
      1.2630313747212307e-001 8.5681618769290993e-002
      8.3171808143407550e-002 -1.4202166219990200e+000
      -4.1723068019985973e-002 1.6551245415811846e+000
      1.7326755647568631e-001 -7.5129438746065189e-002
      -7.1635896854682735e-001 -6.5838982098073924e+000
      1.1061861999721066e-001 1.2519118668767820e-001
      2.2611947708019886e+000 -1.1684033619533600e+000
      2.0417219959300787e+001 -9.8220165819563843e-001
      3.7530473556020665e+000 -8.2486346022072513e-002
      1.4225967063066383e-001 1.1724801610789075e+000
      -4.1623861988636057e-001 4.1078340172869966e-002
      -7.2752495463438238e-001 2.0296830414988456e+000
      -2.2569426407421336e-001 3.1899212736926158e-001
      3.4585925518379035e-001 5.2727321556562046e-001
      1.8451387374875241e+000 4.7776135651129620e-001
      3.5516391153251892e-001 -1.8295793884255998e-001
      1.2601534732048233e-001 6.3883537711340643e-001
      5.1065770014190115e-001 1.0955513321115347e+000
      2.0408207625235508e-001 -5.8292072649504770e-002
      -3.2333731158353113e-001 -7.3448266363172021e-001
      -1.8278615526261138e-001 8.1152351212108176e-001
      1.9142031530364370e-001 4.1413885842714815e-001
      -4.6591916673601762e-002 2.4758275107799627e-001
      2.6113674080086363e-001 -8.5770803226618453e-001
      4.1982161723824357e-001 -3.5213024554193638e-002
      1.2070512355814551e+000 7.2197585495193550e-001
      1.8210298223974597e-001 -8.8931587618862273e-001
      2.9206549797291864e-001 8.9951958240251506e-001
      3.0168988436009847e-001 -7.2164829890206922e-002
      6.2075975111000936e-001 -3.8309802820571909e-001
      -1.4083117080127983e-001 3.9024469606848761e-001
      2.2845528313935962e-001 -5.4728422299908674e-001
      1.8673629154079405e-001 5.5248764820914109e-001
      7.4555113256906291e-001 2.0012017532528087e-001
      -2.7794514233492579e-001 9.9200296478928682e-003
      -4.8327167522956327e-001 -1.5750701449899762e-001
      -5.1559944051122641e-001 4.1721564671323452e-001
      -6.0920932402583373e-002 -6.1773252254691702e-001
      7.5426398027470654e-001 4.5136929080372645e-001
      -1.5340832770803225e-001 -7.6889256399512795e-001
      -1.3656942074021480e-001 5.9342865929325683e-001
      4.5151958988571000e-001 -6.5942803473423428e-001
      -3.4494684906922396e-002 5.3946341218620608e-001
      7.9365599019101873e-001 1.0237471832046163e-001
      -1.1159281380699798e-001 -2.3944021280366717e-001
      1.2008971725731689e-001 -2.8780043865687810e-001
      7.8643496404872587e-002 4.0155863591834337e-003
      1.3140739122184311e+000 3.6413470805346654e-001
      -9.2061661531023775e-001 -7.9502584823796796e-001
      5.4496320505890405e-001 2.9724402666641292e-001
      4.6823948489900999e-002 7.1089810352917060e-001
      -3.5862915347813468e-001 -2.4698566439723940e-001
      9.1865711183401616e-002 4.0513665171567509e-001
      2.3161257996167035e+000 -6.0621284633261385e-002
      -6.7941530409642814e-001 -2.6970509476301779e-001
      -7.4086008468901210e-001 1.8873729851110374e-001
      -1.1492854412091851e+000 -2.1352208207648954e-001
      -9.4654748428457236e-001 -1.7240547826157213e+000
      1.0809973682747662e+000 -1.1844731816230978e+000
      1.8841366575884871e-001 -6.3603968680383527e-001
      -1.9750695101026294e-001 1.4839263628306035e-001
      1.9828769222215831e-001 -8.3289093244108348e-001
      -5.5315014569746779e-001 1.1888479664226379e+000
      8.2797188017266010e-001 -1.8936095099287822e-001
      1.9746242258934157e-001 2.0035901943805331e-002
      1.2695011038392547e+000 1.0127625320327749e-001
      4.9325703428260170e-001 6.3185731723017458e-001
      4.8562398668958395e-001 1.6248846577627514e+000
      -1.2227351722482116e+000 -1.1108740732800355e+000
      5.2485798863429378e-001 5.6602553157132052e-001
      -2.1935475559533055e-001 -1.1362986944165870e-001
      -5.1940448632871235e-002 3.1659908265091380e-001
      1.2049758559458645e+000 -2.5913680482138923e-001
      1.1991938500446304e+000 6.8773997263188580e-001
      -1.5839299844759405e+000 6.1712715510433991e-001
      -3.2658601435606899e-001 -1.1617242053720127e+000
      -2.8491717180807119e-001 -1.0390137854591446e-001
      -1.1477730923411138e+000 -1.8263854181590661e-001
      1.1113378041963301e-001 -1.3518228782405783e+000
      -2.2622129310179709e-001 -7.5615848072264802e-001
      -1.0453275663262354e+000 7.7096707988538205e-001
      -1.3864013367559916e-001 -1.3775641772932626e-001
      5.3887050596630981e-001 8.8156712501912349e-001
      4.7847239859004087e-001 -1.8106030445377216e-001
      -5.4668762288331278e-002 -9.0879757627916768e-001
      -8.6024634778579634e-001 3.9204779507093501e-001
      -1.1814297911923402e+000 -1.5189851104492720e+000
      3.5613593473561511e-001 -1.5235003343944456e-001
      -4.5674073841380347e-001 -6.6087357000636449e-001
      1.4348289602039834e+000 7.1408011990496456e-001
      -2.6066135965900843e-002 1.8290530180707567e+000
      2.5127736165213799e+000 1.8424904587985655e+000
      -1.6120719668155907e+000 5.5770542670580170e-001
      -5.0778087202814293e-001 -6.1548181172082750e-001
      -1.7977804729846183e+000 -2.7225537731338184e-001
      -6.2344757728709188e-001 1.0026717055094267e-001
      1.2562685939859193e+000 1.2857809206319024e+000
      -2.5202011014821590e-001 2.3443734384120094e+000
      -1.0134279676446561e-001 4.8998403416170860e-001
      -8.9900508437688398e-001 -3.8756017360685446e-001
      4.7732891630707025e-001 8.7637261361166219e-001
      3.2319861231607838e-001 7.4105995871165564e-001
      -1.6208329805635637e+000 -5.8484083333563075e-001
      2.0226880048420779e+000 -1.3001185863824559e-003
      -3.5993710929403305e-001 1.5727945782320454e-001
      -6.2630383778372034e-001 4.8759700670602940e-001
      -2.9642663618260929e+000 -1.0962929238803008e+000
      -8.2650822084826669e-001 -1.1844846279091402e-001
      2.6420119265124981e-001 -9.9086355971491125e-001
      7.0353346822042817e-001 4.1871772838876803e-001
      3.8268313159916467e-001 7.2204595525922277e-001
      5.2390730296845844e-001 7.7546229045784332e-001
      5.8555064578122096e-001 1.0297689597388751e+000
      1.1923182568561144e+000 1.9035426373444903e-001
      1.0215446476012109e+000 3.0606172251795571e-001
      -7.9452042933345213e-001 -1.2183188114472363e+000
      -5.1700426319318038e-001 1.6086938642153230e+000
      4.1283254853760337e-001 3.0290050951467622e+000
      -2.5113782161553361e-001 1.2257982571480979e+000
      -5.7032951191398597e-002 -8.4303838827380750e-001
      5.2257240225840074e-001 3.2621193928205269e-002
      -1.2754049802350276e+000 8.5925082283593066e-002
      3.4885773238947393e-001 -1.0668671328126582e+000
      1.8158437625257517e+000 6.1389511179654199e-001
      -1.8425630658941223e+000 4.1214414156096407e-001
      -1.2804183909886180e-001 1.1819039293525204e+000
      8.0446437213791089e-001 1.6192017429367583e-001
      -5.8864179072263667e-001 -2.6203378096077241e+000
      4.9989594850606478e-001 1.5051077839984288e+000
      -1.6042563093405884e+000 -2.0539657852602016e-002
      4.6741452177454473e-001 -7.8273927377136210e-001
      8.0606611666986294e-001 4.0092507003895822e-001
      1.1128216394913799e+000 8.6999781289859768e-001
      4.3117962889070077e-001 5.5278590805218586e-001
      2.1925401478974078e+000 1.1959518541939587e+000
      -1.0233685216935924e+000 -7.6180584945289764e-001
      2.3431522286074084e-002 -1.7149889780590491e-001
      1.7094370993191401e+000 -1.7582586572525547e+000
      7.2500902092269925e-001 3.3432541544121253e-001
      1.7111871248485522e+000 -5.0410126130074762e-001
      1.5965196223181832e-001 -1.2610545590450799e+000
      1.4399544137753612e-001 -7.8044874135368714e-001
      -4.3676188225135963e-002 -5.4768913680368936e-001
      -2.7861388863729175e-001 -5.9640028759248997e-001
      -1.6626153680079838e+000 3.9181009692421959e-001
      7.7120554813742082e-001 2.1829036114906877e-001
      4.8080140555579598e-001 -7.0995764131310646e-001
      7.0733375269448584e-001 -2.4686725957393721e-001
      1.0687299810849860e+000 1.6981820601752096e+000
      -1.7532766267208257e+000 7.5249666787842462e-001
      2.7679388219006346e-001 -4.9442019860944020e-001
      1.4017217978054812e+000 9.5686787175544116e-002
      -1.4542751523352926e+000 -1.3154044134854734e-001
      7.2288826640606185e-001 -3.8333663187396318e-002
      9.7947060449876722e-001 8.3271260803523650e-001
      -1.4207365838058155e+000 -1.7914233373185959e-001
      1.2639404088497630e+000 -1.1894852498054796e-001
      1.3120156309497626e+000 -2.0038490389254777e+000
      -7.5692044598374933e-002 -3.0210699262320373e-001
      1.5161694422743959e+000 -6.5574083825826246e-001
      7.2979675536826560e-001 -5.1541822264925197e-001
      4.0158554675866726e-001 -7.0044860264074871e-001
      -2.3799160326689734e+000 -6.6754898627345804e-001
      6.6789109120549889e-002 -1.3835436839538124e-002
      -2.4360800863308640e-001 -3.5524158828266639e-001
      4.7391998124286394e-001 -5.4689486574705082e-001
      -2.5932759237088415e-001 -1.5155223392557447e-002
      6.1679521136280702e-001 1.4263599789673267e+000
      -1.0241368400387518e+000 7.3809715697788170e-001
      -1.1409032011911906e+000 -1.1122786232293261e-001
      -5.8701338166799948e-002 -6.4506014682156165e-002
      2.1740725067643801e-001 -2.5862186037675200e-001
      -6.3536060463645261e-001 -2.0329376622425496e-001
      8.8987417247066047e-001 3.7616888724585446e-001
      8.0454073937284565e-001 6.8659532624635955e-001
      1.7822197314077962e-001 -3.7287499649235950e-001
      -2.5265544060945022e-001 7.6813936317099252e-001
      4.2268033255037091e-001 -4.1196285960750745e-001
      7.7932755854911762e-001 1.3305682857362793e+000
      2.8551788366711262e-001 -7.3551974875071990e-001
      -1.0474065194269501e-001 1.1823787941654240e+000
      -2.4056616959286592e-001 -1.4424579001296156e+000
      -1.2793677645207571e+000 2.7049006991213903e-001
      -1.3233010519297661e-001 -3.3887673689731801e-001
      -2.0581084750281300e-001 -4.0904897359324244e-001
      1.4835314015500964e-001 4.1378512333929274e-001
      3.2255199850897398e-001 -9.4250766180945511e-001
      3.6342443027092530e+000 4.5533472482596382e-001
      -6.9636624573755579e-001 1.7610911700095091e-003
      -7.3666156189698040e-001 -8.7891073955907784e-001
      -3.4760643704018496e-001 -6.6149425552293515e+000
      7.2339963966236098e-002 2.2594982485762258e-001
      3.0647755823930967e-002 3.9388124843165319e-002
      -5.1857974143349000e-002 1.2979796920720890e-001
      1.3344131850950375e-001 3.1042631305105695e-001
      -9.2863580419680295e-003 2.2719211427694935e-001
      -2.7793658126414905e-002 -3.3995495229691808e-002
      2.1202803876404258e-001 3.6919909414438951e-001
      4.7135642651984799e+000 1.1880543344494188e-001
      5.8971728686745314e-002 -8.9937994329195636e-002
      2.9616109982974349e-002 6.8413863198651920e-002
      1.1305101046857319e-001 -1.7931032882949771e+000
      -8.8732581083179010e-002 2.1962459110711832e+000
      1.8844883305216135e-003 -6.0862195994542623e-002
      -9.3180881862544551e-001 -8.5510852038579177e+000
      2.0324146232652654e-001 1.6747649185290828e-001
      2.9540945880789349e+000 -1.4909168806486341e+000
      2.6420916088334550e+001 -1.2821067889565081e+000
      -8.6845992407020671e-003 -3.6398912790182675e-002
      8.3139134089151939e-002 1.2918549059467277e+000
      -5.4150886747500024e+000 -2.3674720728863083e-001
      -6.5857975028737563e+000 -9.1019262484943086e-001
      -2.7222553808836429e+000 3.7354548397624110e+000
      1.6532892695902375e+000 3.8005514779935248e+000
      1.8509112297946457e+000 -9.5562057482439733e-001
      -1.6244760332626382e+000 -2.8343793645541124e+000
      1.5659237363605590e-002 7.2816076242852166e+000
      4.8269220907546986e+000 2.2210529740257509e-001
      2.4965648732941359e+000 -4.5019320277512354e-001
      -1.0566954604818757e+000 -6.3470456345299491e+000
      8.5863104159779668e-001 7.1580229438663912e+000
      2.3688646948300685e+000 2.7454309879841299e+000
      1.3967450427234920e+000 3.1893622923258431e+000
      1.9186457049033330e+000 -8.0089093088701340e+000
      3.9910897879710507e+000 -8.1949801904765873e-001
      1.1106104800624555e+001 5.8817383228045745e+000
      1.4170763074193526e+000 -8.0722769059670210e+000
      1.7857092723498624e+000 -8.9134241000146053e-001
      2.9598499041432835e+000 -5.9300782768447169e-001
      5.4238613261737578e+000 -4.4344239307020086e+000
      -1.7469416980960617e-001 -6.5491535218129016e-001
      -5.9809169695282050e-002 -7.5107806300268909e-001
      3.7146920631176616e-001 7.9333910453147571e-001
      -3.7335464009386177e-001 3.5281122457252850e-001
      -3.8167704450409029e-001 1.3529157761325514e-001
      -7.4078727100545927e-001 6.4091456500121990e-001
      -6.2574067929842581e-001 1.7213265972962173e+000
      1.0447052287552218e-001 -3.8944465177789246e-002
      -3.6091263140502740e-002 -1.8201768968165016e-001
      8.4083113864569259e-001 -5.2647804913713148e-001
      -4.0028056512620452e-001 5.9792985826726841e-001
      8.8402596246943854e-002 6.4491637064692275e-001
      1.0901298128339156e+000 1.7647065798892689e-001
      6.8764289735381831e-002 -7.7828127509853973e-001
      9.2963427619364075e-002 -8.8812074185541240e-002
      8.3302555617555263e-001 -2.2394009472423665e-001
      -9.8942462404414427e-002 -1.1035984019905900e+000
      6.5664164962048699e-001 4.2710323217824531e-001
      4.9014960181496381e-001 -1.2193217742124798e-001
      1.7739406932944143e-001 -6.0247199986908306e-001
      -7.1019122161689097e-002 -5.7166978634856758e-001
      -6.3732975262722102e-001 -6.5585259640610705e-001
      -4.5629545885107481e-001 -4.2970210363496619e-001
      2.5384338776765287e-002 -1.1534340997164907e+000
      4.1958832071696789e-001 2.6101507187563794e-001
      2.4913089496658161e-001 3.3812549506420364e-001
      -7.0934322416247009e-001 2.6679256138481722e-001
      -4.7071883340970971e-001 -2.5453230030021484e-001
      1.4421618196598454e+000 -6.7267232966990564e-001
      3.8525948940792315e-001 -2.7386119579915652e-001
      -4.7543906081500648e-001 2.7503624161939327e-001
      9.2588236665899618e-002 1.5668921687274662e+000
      1.4770570055136649e+000 4.9986834476790018e-003
      5.3129167530003840e-001 -1.1265528956797088e-002
      1.2145444014463473e-001 4.4746298375904880e-001
      6.0554320132264650e-001 8.4926885744040684e-002
      -3.5391968535794655e-001 4.3675459977449127e-001
      3.9819709629379185e-001 7.5844805340147192e-001
      8.1521257188757246e-002 -9.6899206709945096e-001
      6.1627177158283308e-002 -2.6207837361491487e-001
      9.2058384522916467e-002 1.8442704005607071e-002
      -9.7381995992113901e-001 -4.9823667629646046e-001
      -5.6872597920897683e-001 -1.3818147069232448e-001
      1.0579574106059262e+000 -8.6811405082538562e-001
      -5.5255557490461342e-002 -7.4694341510101556e-002
      -7.2197861658236129e-001 -4.9987391361549544e-001
      1.0206643552041998e+000 -6.3572344323202268e-001
      2.8758065341792399e-001 -6.6971222032287248e-001
      2.2755167779769745e+000 -1.0438062804700650e+000
      8.6369489538932642e-001 3.0396232952412650e-001
      -1.4724826614430286e+000 7.0834661103101926e-001
      -1.7305987415304209e+000 5.3653927924823530e-001
      1.1742691605993866e-001 1.2555349495224113e+000
      4.0496016758452447e-001 -3.5917959639824504e-001
      9.7808167950066449e-001 2.3783623835648643e-001
      -4.7969279082957444e-001 1.5191363042189882e-001
      7.3749087573514394e-001 -2.5548818549478947e-001
      -5.8583170812813323e-001 1.1926355457948559e+000
      6.8376874041699387e-001 -7.5890806548602341e-001
      -1.7261675330928053e-001 -1.5690897203535583e+000
      1.1127573213482760e-001 1.4791573699211187e+000
      1.6862628115728437e+000 2.3293755738136803e+000
      -7.4748268608568413e-001 -1.4733999279560345e-001
      4.5290485788687956e-001 -2.4919805837283640e-001
      -1.0163168579631496e+000 1.5472092420436632e+000
      -1.1428210078151944e+000 -1.0349321716281216e-001
      -1.4863865155867804e+000 -6.1195146759713315e-001
      1.1191582804100297e+000 1.4462167249194582e+000
      1.0209074196413501e+000 8.8146017983400582e-001
      -1.9659483850534351e-001 8.6651120885811700e-002
      -2.5591054518376610e-001 -1.9479456589698962e-001
      1.9884921562527932e-001 -3.6626187358756573e-001
      8.0123846409398225e-001 7.3571131960537522e-002
      1.0535111565379758e+000 -6.0689169071827956e-003
      -8.4178529207764008e-001 -1.7215056623220537e-001
      -4.9410519781335971e-001 3.1023152431693302e-001
      5.8145442692154305e-002 -1.5215220904901647e-001
      -1.8671353311169077e+000 1.1536111744017341e+000
      -1.0670151671858956e+000 1.1380277250824569e-001
      6.2110015047778655e-001 -4.6968430905172209e-001
      2.3582362127662029e-001 7.3823189398220435e-001
      -3.6653588457818093e-001 1.6260779527135520e+000
      3.3953497946130146e-001 1.9488228984238426e-001
      -9.5390430454365172e-001 -2.9381504224927624e-001
      1.2994623315363276e+000 -1.4940737067287052e-001
      -1.7819746347549817e-001 3.8774528015096815e-001
      -1.0253908770460727e+000 9.2796387260235935e-001
      3.6953069094039565e-001 1.2246266581131220e+000
      8.2536002597521829e-001 4.1300252459015063e-001
      -8.9613931730856011e-001 3.0021785870116807e-001
      1.0652341321232313e+000 -6.8841974595062327e-001
      -5.4074447739150278e-001 2.1540309825890058e-001
      -2.2978098455271467e-001 -1.6965559023499859e+000
      5.3506575049759697e-002 4.8220916752710521e-002
      -1.7252905302957106e-002 1.8707625901048800e-002
      -9.9849818403474951e-003 5.0990050278967158e-001
      3.2438324917871714e-001 3.3244992508266957e-001
      -1.1654224487452083e+000 6.9751292986434021e-001
      -6.8932511116724748e-001 7.4590750554512431e-001
      -2.5407346481357906e-001 -1.7333960670712272e+000
      1.4486573862368171e-001 8.5696736164679155e-001
      7.6640542979741588e-001 8.7039159898399598e-001
      -5.8967416528247230e-001 -4.4858614310710604e-001
      1.9966069832964304e+000 -6.8371709980950857e-001
      3.5671789120342479e+000 -4.5237087631035328e-001
      -1.1487790776961389e+000 2.5963690258193373e-001
      -1.7989526684877273e+000 -1.2453239024552996e-001
      1.2447160172843075e+000 -3.2269859457149008e-001
      -1.1031661837168156e+000 -5.9772747024241762e-002
      -2.6752135400278845e-003 -2.4334237937917841e-001
      -7.2686555576246381e-001 -7.0236877374422357e-001
      -1.2122226325883242e-001 4.9799179586454168e-001
      -1.2419842062619342e+000 -1.4093548104903308e-001
      -1.2366045203638711e-001 -4.5422688057410543e-001
      1.2100153471404416e+000 -6.2323913182048551e-001
      3.1347836433068821e-001 -2.2445667974243191e-001
      8.9565038033216582e-001 -1.3591035995877221e+000
      3.5514910768716323e-001 -1.1059348640587348e+000
      2.0313386765249035e+000 1.4989956186652126e-001
      -1.8169241567412737e+000 -6.4627401574205967e-001
      2.0086636057755236e-001 1.2995382739540797e+000
      5.4922990079015865e-001 5.9048123949081444e-001
      -1.0696422912727312e+000 -3.0264228993397119e-001
      2.1274027737918799e+000 -7.2578724759836410e-001
      2.6992724043479583e+000 -9.0734040544872718e-002
      -2.2640867589762936e+000 -3.7916663237608650e-001
      -1.9434944777077685e+000 -1.5901719885827153e-002
      4.1544921191289141e-001 9.6537224341486716e-001
      -1.0622371984824381e+000 -4.3674816709618919e-001
      4.7063227953299236e-001 1.5096239900951836e-001
      -8.5641466898965268e-001 -5.1018692903000540e-001
      6.3139998200307867e-001 1.9793041712207798e-001
      -5.2056665737275565e-001 2.4504700633553375e-001
      5.0024746482863280e-001 -2.2617699813389233e-001
      3.7811170910401204e-001 -2.6089206986328844e-001
      -1.8377768986001783e-002 1.2327069756188903e-002
      9.2861250584603539e-001 5.6621486775006580e-001
      5.3075238936839597e-001 -1.3418483951030358e+000
      6.0376299555510611e-002 9.5624845381012091e-001
      -2.0746173211569507e+000 -6.4110607687152710e-001
      -1.3948133788538411e-001 -3.6173251043914983e-001
      2.9461300550760289e-001 4.0845129599812818e-001
      -5.1666552086427786e-001 2.8149104874655828e-001
      3.3776715404867624e-001 -4.8348949957659809e-001
      6.7684094207328183e-001 1.1075472717685180e-002
      -9.3466458874103997e-001 1.9627024939223095e-001
      5.5623772253988457e-001 1.1748928689530893e+000
      3.4799879443466786e-001 -1.4188989104178795e-001
      -2.9119344105344680e-001 7.6605573931733562e-001
      4.0357178810127869e-001 2.5169431010655147e-001
      2.9625474351490155e-001 5.1610352922732394e-001
      4.6690771787254964e-001 3.6762322266561676e-001
      6.8055308022644856e-001 6.4611923921503300e-001
      1.1621061567854141e+000 -7.4989110403092551e-001
      1.1777416172571313e-001 -6.9726455556516453e-001
      -4.1357864914437731e-001 -4.0387939894938724e-001
      2.5619170753916615e-001 -2.3654376383549028e-001
      3.7658539311905019e+000 2.2555651345421737e-001
      -1.2079521325221130e+000 3.3190940582380585e-001
      -8.6025654208675506e-001 -6.4245748183479789e-001
      -1.2655750446791758e-001 -6.3356895707972880e+000
      2.0362098397031234e-001 4.3213569062039198e-001
      7.3820381095939741e-003 3.4389654133483702e-002
      -8.7360754368304663e-002 1.0905590561015724e-001
      4.7296929717206573e-002 5.7167363292122332e-002
      -5.0578288953485144e-002 1.1782221274851504e-001
      4.2142769898858612e-001 -5.2734947797844885e-002
      2.3725009437058203e-001 3.4755670890996071e-001
      4.5216830280560742e+000 9.7509551902986033e-002
      8.7097029953266368e-003 -9.4129907778490077e-002
      7.9490575748010633e-003 6.8855195986733689e-002
      1.2030534777465736e-001 -1.2875445388556901e+000
      2.0798345693955453e+000 2.0863657443190071e+000
      1.6143527939941543e-001 -5.2829755415271205e-002
      -8.3884203528412660e-001 -8.2131187072941731e+000
      2.9556320703068789e-001 1.9475694477816127e-001
      2.8380414153029543e+000 -1.4368050040033922e+000
      2.5375790867714958e+001 -1.2326044481387279e+000
      7.0251997441455952e-002 -1.9711284668145652e-002
      1.0714318827999746e-001 1.1790153400633736e+000
      -8.7189164772779160e-001 -4.9875403570740474e-002
      -1.2550994359076590e+000 -4.1386572057589638e-001
      -4.7842401128082956e-001 7.0099807999511754e-001
      4.4909530893161231e-001 8.9135658923760741e-001
      8.7701773182003095e-001 4.2979824213718926e-001
      -4.6578620517203384e-001 -6.6013365254635603e-001
      1.6685404859768416e-001 1.2884204365604401e+000
      9.5057125105510365e-001 -3.9468260708164747e-002
      1.4232976868937441e-001 -9.3713872291890085e-002
      -4.6745270834923519e-001 -1.2807405336153901e+000
      1.1890404050969619e-002 1.4263340436852741e+000
      4.2943844694596700e-001 9.5894977946757565e-001
      1.4421715828565975e+000 5.3774081344070601e-001
      4.2652461139198067e-001 -1.5408178931116365e+000
      6.9646631429898820e-001 -1.3518614778162164e-001
      2.1513178694637571e+000 1.1958511999759720e+000
      3.1639274539391860e-001 -1.5968844323128693e+000
      4.9838736017785112e-001 -3.3926339657500770e-001
      9.8739869162807692e-001 -1.2471792606650792e-001
      1.0854301332060583e+000 -7.6487888593680153e-001
      -1.6405479610203305e-001 -1.3625118629613703e-001
      6.1281173411072021e-001 -8.3290915076154645e-002
      2.0440291150797232e-001 -1.1616134737896566e+000
      -2.1898995354286541e-001 1.1462787183447262e-001
      3.9344969011185185e-002 -8.7403632637391454e-002
      -4.8008904477345356e-002 -1.1677466976829920e-001
      -8.3490916809418114e-001 2.8415209096167154e-001
      -1.0025647818881225e+000 1.3520358102170063e+000
      -2.9308748157218178e-002 -8.9553277835040898e-002
      5.9248346179203781e-001 2.8265571740273798e-001
      -4.9276292261639076e-001 5.9765315898375726e-001
      2.3101220581388066e-001 1.2748153393490544e-001
      5.6405790805199352e-001 1.3336337849458826e-001
      -5.8973230007310062e-001 -6.7399105348265231e-001
      2.5547915170495653e-002 1.7695456296783724e-001
      -4.5172106167392678e-001 -1.1294670519480138e-001
      -2.2384843633278478e-001 -8.7662064056679501e-001
      4.7334473051068843e-001 3.0612105889728836e-001
      -9.9112697453830501e-002 -4.9328258218887383e-001
      -4.8836321444949149e-002 -2.8644105479144405e-001
      5.5826812245594867e-002 -4.7230439022826398e-001
      1.1377818799930572e-001 -5.8635218695039448e-001
      -2.2822516795177944e-001 -8.5308094323144890e-001
      -9.4392274275546584e-001 2.9806753255356361e-001
      -3.9299381505092967e-001 -6.1067524607672188e-002
      4.9283795912627444e-002 -3.1419780798015474e-002
      2.9259885669692860e-002 3.0846206582634583e-001
      -2.7008978463474187e+000 1.7876113578394071e+000
      1.2183198003032838e+000 -2.7735390485078198e-001
      2.4742383909195176e-001 2.5751543333994237e-001
      -3.9430326394040444e-001 -2.8431389705229665e-001
      -2.3664737618750656e-001 1.0276579158371366e+000
      1.0685250298112230e+000 2.1304418798581657e+000
      -7.4177929037472345e-001 -8.4270671746009329e-002
      1.3650066748855669e+000 -6.8906525070567848e-001
      -1.2512394015172174e-001 6.1543118629488625e-001
      -3.6422568852979292e-001 -6.3155741864672355e-001
      -2.7120797067848401e-001 1.6903606218053806e+000
      -1.3737831402285985e+000 -1.3043745609013908e+000
      -3.9852581646687694e-002 3.6193098203646912e-001
      -1.8536936870850526e-001 -2.8134052890862604e-001
      -6.5519480068584324e-001 1.3822973782277759e-001
      -4.6761705607117349e-001 2.0542557245900754e+000
      -1.5387907120483417e+000 1.2901951300450103e+000
      1.5519313404314067e-001 -4.9539054242473274e-001
      3.6134507333391580e-001 -4.9944328345008879e-002
      1.0346609627906864e+000 -4.0394594121142408e-001
      -2.2163756753851419e-001 -1.9648355377472157e-001
      1.7434199616226831e+000 -9.8321583722175987e-001
      2.3281449316688094e-001 -2.0727700004750371e-001
      -8.2292733018630182e-001 7.3243823903280714e-001
      -6.8017261978601185e-001 4.5554868170108292e-001
      8.9592018467526258e-001 2.9041548649709363e+000
      -6.7957710627064638e-001 1.8466201987424591e-001
      1.5256575173668001e+000 1.3462787502819720e-001
      6.8139181508225422e-001 -3.2011215035099710e-001
      -7.2919574353261529e-001 -6.4601410201762355e-001
      -4.1653557128892665e-001 2.0094434793844100e+000
      -1.4590102395525704e+000 -7.7480608549870078e-001
      -1.0680976433726055e-002 -9.0765217693295464e-001
      -4.6140524127723048e-001 1.1867164741366587e+000
      -2.2808375152002178e-001 1.7318896861005892e-001
      -4.0381581596250105e-001 2.2110073145352520e+000
      1.8922860742631187e-001 3.6553063861739460e-001
      5.4647423531401085e-001 1.4201912499595677e+000
      1.0864408627593019e+000 1.6060891965860127e+000
      -1.6391625250937383e+000 -1.1156898483199060e+000
      1.8813035970532510e+000 -5.8707722660937567e-001
      5.9227123579521446e-001 8.5494027814162898e-001
      -1.9218703541410422e+000 -8.2916135751528008e-001
      1.1190015821045529e-001 -5.6746939137822705e-001
      8.1675122662651545e-001 -1.1249067566058997e+000
      8.1347292660039050e-001 -1.5759364520735461e-001
      8.5795011885147010e-001 5.3732141713246651e-001
      1.3503508154580772e+000 1.8302159629650025e-001
      2.6257069062165556e-001 9.9750202061159837e-002
      -1.1123372105484941e+000 -4.9537987804841216e-001
      -8.1478773036834318e-001 2.4828358372219184e-001
      -1.0965344150383576e-002 -1.2041914615805509e+000
      -5.1343940205812777e-001 2.9803644373763533e-001
      2.1151175799759409e-001 -1.2517832630013661e+000
      -6.5507557304397279e-001 -1.3893217218114000e+000
      1.4102692114185608e-001 1.6461651748647403e+000
      1.3988305877358003e+000 5.9234681287835478e-001
      1.5096139982057037e+000 3.3378672561078027e-001
      5.1942105214260925e-001 2.1660926077395026e-001
      -5.7951913021561741e-001 8.5121017649268083e-001
      5.3582339562221237e-001 -2.4617797448117820e+000
      -7.2907196900745674e-001 4.1558962097261692e-001
      -1.9668524316965559e+000 5.6287484941986682e-002
      1.9626916829075647e+000 2.6189088030866775e-001
      -3.5601948915152243e-001 -1.2025780616325503e+000
      -7.8384498909538558e-001 -1.5858430611492889e+000
      -1.7836956844080647e+000 -8.6851344773087827e-002
      3.4937442851587681e+000 -3.1715145887434920e-001
      -5.3390054531450215e-001 2.8434800673699684e-001
      -2.5325672728421583e-001 9.3061558385747242e-002
      -1.5485801208397134e+000 -1.0317816802098889e+000
      8.4439959785009533e-001 -1.8136762712699017e+000
      7.3924888439326342e-001 -9.8154857930501438e-001
      6.1567672888310898e-001 -1.1721883899181551e+000
      -9.3179233354312149e-002 -3.8319004296857034e-001
      7.3756382780507390e-001 8.5249482155973910e-001
      5.5139177021199526e-001 5.6187481365792635e-001
      1.4685026339099356e+000 -5.9201072642179209e-001
      6.8294419065453782e-001 1.6655752433676432e-001
      6.6634492146811752e-001 -3.1366148669233962e-001
      -1.9843416437474359e+000 1.4947759905390356e-001
      -2.1709420765346583e+000 1.3384673211413886e-001
      4.3078310768551387e-001 -6.7593211816386467e-001
      -4.9202617247724240e-001 2.6100582402680866e-001
      7.5750359056695404e-001 -7.8905156833509335e-002
      -1.1223489546287566e+000 4.3756430463110207e-001
      -5.7675405498457033e-001 6.5005612332183871e-001
      2.1449791401769738e+000 -4.6732550104945769e-001
      2.2410743019257034e-001 -1.8396509625021790e-001
      5.1457052480077092e-001 8.6369314180700429e-001
      -6.5599317261121337e-001 -8.6588970070896143e-001
      6.7261901975325167e-001 2.0900956084959976e-001
      1.9524123871948965e-001 1.2194186858002601e-001
      -4.8901588817943054e-001 -4.5273742954264351e-001
      9.1635004530287278e-002 1.9823457628819669e-002
      -4.9763505825012172e-001 -1.8709054058791733e-001
      -1.5996923978154035e-001 5.8265213916470826e-001
      1.1433479466252212e+000 4.3641673596260783e-001
      -4.2797207271962671e-002 3.1879758112850665e-001
      -1.1705836089264876e+000 -8.3605856434741543e-001
      -2.3361806957376521e+000 8.4801035237270828e-001
      -7.0758276187927260e-001 4.5622750450937077e-001
      1.3215159087126940e-001 1.3430709381281487e-004
      -1.3976400074242357e+000 2.3881052752103193e-001
      7.8180088222416144e-001 4.5668057525808625e-001
      4.2168865449299750e-002 5.4886090217615280e-001
      -1.0985019406094869e+000 8.1138173054936547e-001
      2.1522873432181094e-001 -7.6349667593340642e-001
      -8.4859066944742112e-001 4.4295338535501438e-001
      -1.6421226694273575e-001 -1.3162788801589984e-001
      -1.2271587449957861e-002 -6.9858721845377703e-001
      6.2708978400994497e-001 7.2959049244714769e-001
      3.4402915200517448e-001 1.7536554339894466e+000
      -2.8914230738782065e-001 -7.7127875266986701e-001
      -2.1173929920417123e-001 1.4812356505345481e-001
      -7.6575205195343932e-001 -3.9029943689888158e-001
      3.5837900755314084e-001 5.8326680987861079e-001
      6.0687116930120144e-001 -5.6828528146594925e-001
      -6.5681622530427786e-001 -5.4177960552972360e-001
      -6.0309195336870874e-002 6.4721801727966621e-001
      -1.8623397107467403e+000 -1.0064412378772931e-001
      -2.8733075742145281e-001 1.2467489315280509e+000
      -3.5218350188181691e-001 1.1206562473540691e+000
      -4.5936464709570968e-001 7.5380234404865110e-001
      -8.7948554975898166e-002 -4.3002268011642580e-001
      -3.4212513442852904e-001 1.1799080212975404e+000
      -5.1461001707941034e-001 -8.9771133990121987e-001
      1.3893065069379182e-001 -1.0631888430176060e+000
      -1.7099030595533993e-001 3.7019380786796940e-001
      4.5640775208795659e-001 -5.6672838174127049e-001
      4.6665042305366997e+000 -1.4241832211802116e-001
      7.0249400277839680e-001 1.7941021425869230e-001
      -5.3176690489234624e-001 7.3136566238869938e-001
      -9.0908107201113017e-002 -5.2259092085151817e+000
      7.4149068652823794e-002 -4.8661585676937527e-002
      1.8348727316998967e-002 1.7202333324344642e-002
      -2.1014822063797102e-002 1.2112463371295729e-001
      -6.7864404247482083e-003 -4.3068687345963461e-002
      -1.0550135008307356e-001 -2.9874906849806371e-001
      -1.5478475404482991e-001 -3.0353929030993997e-002
      2.3719279889790576e-001 2.9573489738046760e-001
      3.7083736949854127e+000 3.9255570023061254e-003
      4.7206925977909264e-003 -1.0306823906956945e-001
      -4.2435499149864296e-003 6.5940979951940606e-002
      1.1090623185124074e-001 -1.6052235737727025e+000
      1.7972874165180408e+000 1.7172953172783911e+000
      2.8917407611388384e-002 -6.9283391527359670e-002
      -7.8392047790210651e-001 -6.7652349913351326e+000
      2.6025653810528770e-001 9.0552319510470825e-002
      2.3482161835078692e+000 -1.1891642296350671e+000
      2.0961956908574056e+001 -1.0268172464515934e+000
      6.0841168095963669e-002 -2.5008635442481941e-002
      6.4369160636106315e-002 8.4550017563318292e-001
      4.2106945437798728e-003 -1.9753747184083397e+000
      -1.9443015175467449e-001 6.0659113144394072e-001
      3.3385556265869954e-003 9.6151766061850150e-002
      -2.1990283926086004e-001 3.0582194628747283e-001
      6.7458434874983575e-001 6.4777693370062039e-001
      -2.0295689864956226e-001 -3.5309174457394388e-001
      2.9392849687112288e-001 -3.4021999921687800e-002
      2.2664859924687819e-001 2.9256010608731842e-001
      -5.3025977266514146e-001 1.8529220708830965e+000
      -9.1165171621897315e-002 -2.6957800555536948e-001
      -4.1981704006007703e-001 1.9316103737240833e-001
      9.8501988100237692e-002 -6.4943197142261405e-002
      6.3679253324390994e-001 2.2537917274527985e-001
      -5.5324144118501006e-002 -1.7342921552607402e-001
      3.5212865230554642e-003 -2.4110447861242790e+000
      2.9376078644056391e-001 2.4795046872205057e-001
      2.7417367142399129e-001 -1.5477332512851305e-001
      -9.1047445148286568e-002 -7.9479833486324580e-001
      2.0369759298715906e-001 -6.2969520021183305e+000
      5.2492334254584876e-002 -4.1137040232100164e-001
      -6.8289401080959689e-001 3.6150122311769495e-001
      -1.0946919084394666e-001 7.4429253399706477e-002
      6.6133109889900665e-001 -5.0674621033149148e-001
      8.9174834895653990e-002 4.5677134760361732e-001
      -2.2379553755734991e-001 6.9211375337008141e-001
      -2.3712772005074875e-001 -1.2599181073035115e-001
      9.9584276309892561e-001 7.8205908639008770e-001
      -6.8922434955440492e-001 7.7193196043650825e-001
      -1.5406345036322580e+000 -4.0476900177702541e-001
      8.9455222523631628e-001 1.0845032599128290e+000
      2.2731679085713846e-001 1.5884814701637264e+000
      4.2897200157840504e-001 -4.6469884690101121e-001
      -1.0814997649451710e+000 2.2949619450883760e-001
      2.7143691630293310e-001 -6.0482920795293571e-001
      6.0316858221926462e-001 -3.4043946450399171e-001
      1.3734749934831805e+000 4.7770474134968771e-001
      -1.2678565842736181e-001 -1.6365946873745325e+000
      -1.2896332978755804e-002 -4.4722608657011864e-001
      -5.6772283343470420e-001 -7.0893819079383196e-003
      -3.5306781029305201e-001 3.1703823316302890e-003
      -7.3753669012662049e-001 1.2649060339133602e+000
      -1.9265152490068038e-001 2.4765763325903514e-001
      -4.3733627940697753e-002 2.8484646851900142e-001
      -3.7797097877875291e-001 1.0067108949606940e+000
      6.1931676672642078e-001 9.1056287208148712e-001
      -3.9222738087885933e-001 -7.0178312775786833e-001
      5.8716294759717025e-001 -2.1052894890740062e-001
      -1.5290122695374477e+000 2.4533329073963297e-002
      -4.1066050109668312e-001 -7.5644595191230601e-001
      6.9201054795180617e-001 8.4941751827768996e-001
      -1.0910221139412582e-001 3.0469093074773218e-001
      -1.2435153139372188e+000 -7.4019999788390689e-001
      6.4807383296800816e-002 1.1228917459537131e+000
      1.5339891220681440e-001 1.0109976669891602e-001
      1.5016403307120052e+000 1.6590119018658539e-001
      1.2137496363007225e+000 1.7262221334892469e-001
      1.4979445047159537e-001 -9.9741279202699740e-001
      -1.3132017875598542e-001 -9.3797645798963658e-002
      -8.6457248690022226e-001 5.8808601096754252e-002
      -3.4579076396841524e-001 2.8468902920281858e-001
      -1.2487614091640917e-001 9.8198313734990528e-001
      -8.7311930724326747e-001 2.5646286307875604e-001
      -1.4063250200966719e+000 1.3110812004328249e+000
      -1.2170316541383026e-001 6.9980669068727819e-001
      1.8126918643658652e+000 7.2083438160355534e-002
      2.9181000921514316e-001 -5.6893091312602062e-001
      7.8618593776556867e-001 -3.1321115134388444e-001
      -1.1367216111669995e-001 3.9098032408736155e-001
      -1.1607220918949621e+000 -7.0686271025013003e-001
      -4.7337000786411998e-001 -3.8250014850233510e-001
      5.9389750280797060e-001 -2.0350697576225205e-001
      5.1476843486030888e-001 7.1770540506623470e-001
      5.5210083953663835e-001 7.4571573386368195e-001
      1.1564319576847446e+000 -4.0337488359069423e-001
      2.3820369175219955e+000 -1.9905211716405066e-001
      3.0981800183019220e-001 -4.5637156536074702e-001
      9.6831956148161799e-002 1.3321953582620580e-001
      -9.8871445391365265e-001 -2.8670597539318599e-001
      -5.4411993405269010e-001 -1.7407127372761497e-001
      -7.5106082006841912e-001 -8.8890310220305224e-001
      3.0565281893740270e-001 5.7285514880554977e-001
      -5.6212394484805486e-002 -5.2127630077262221e-001
      -7.1059347549434093e-001 1.6795880205396729e+000
      1.7855845219877159e-001 9.8902206947881122e-001
      1.2500347560436345e+000 -8.7423872337347730e-001
      1.0092818197768814e+000 1.1554862605784311e+000
      -2.6259848191872420e-001 -3.0533515514062692e-001
      9.2163846860997889e-001 -1.9849554971393899e+000
      8.8084144116674123e-001 4.3858756534971288e-001
      -1.5313735213407126e-001 -3.7541171250152855e-001
      -1.4481371596545565e+000 -1.0510438188910485e+000
      1.8008150844747628e+000 7.3464237271542943e-001
      -1.2159432350206774e+000 6.9568285038062627e-001
      2.6300799996630775e+000 -8.2360455050105932e-002
      9.5569232877907295e-001 8.8696651494191991e-001
      9.9796153730586992e-002 3.2243005867237989e-001
      9.1625062747698632e-002 1.3030257418663505e+000
      -1.3620138488173053e-001 -9.4286554772621067e-001
      -1.4205644646954056e+000 -1.5844241849755041e+000
      -6.6557957848095317e-001 -1.1117665472200773e+000
      1.6172701864063860e-001 -1.2976003768011475e+000
      2.1310503583074270e-001 -1.3454670753428903e+000
      -2.7075185859483486e-001 1.3011262618656434e+000
      5.3195288631920290e-001 -4.2270976504343499e-001
      1.6731509619850773e+000 -1.1698486134948161e+000
      3.7194283303066150e-001 7.4481936867968238e-002
      9.8233031203772048e-001 -5.1349529528095250e-001
      1.0376537091377298e+000 -2.2537168257199736e+000
      -1.5540275559683103e-001 9.0608454266109861e-001
      7.4999603110847379e-001 8.5013513075871253e-002
      7.1275643034643024e-002 -1.1756187941514792e-001
      2.6889608378908880e-001 8.9145225807020290e-001
      4.1909461728911968e-001 -1.0789998877272602e+000
      6.9226122047000693e-001 -5.2705681646784408e-001
      9.7765987897079121e-001 -5.0117752692685213e-001
      -3.8595634026238751e-001 -9.7697349596344962e-002
      -1.2818997269509300e-001 3.4895637094138968e-002
      3.6295198586144078e-002 -5.4507300646874535e-001
      -3.7376639375792708e-001 -3.0374095885096857e+000
      6.0743781084634374e-001 -7.9183638409123444e-002
      6.9504592893591149e-002 -1.1015031640833044e+000
      5.5118430416299147e-001 -8.7283840577800154e-001
      -9.2492995011838208e-001 1.3251790570394009e+000
      5.4906804831424565e-002 -6.1119079261114206e-001
      -1.2684634065627129e+000 2.0776600837153861e-001
      -1.1606102202142986e-001 -6.5568114622811063e-002
      -1.3497184680985281e+000 -8.8700890829513368e-001
      -6.6431443268628199e-001 7.3910102222763618e-001
      -8.0193681865985056e-001 1.0546638239366175e+000
      1.7762642827583344e-001 -6.5797270791029783e-001
      -3.8031385663398903e-001 7.0134984376374193e-002
      -1.2050333570722234e+000 5.1796332208441775e-001
      1.7532860027941495e+000 -6.1486813426864773e-001
      -1.1883549268014344e+000 1.8815029292666652e-001
      -4.5772906878085262e-001 -4.5364188849654213e-001
      -4.1174912199640124e-001 -5.3708767343700548e-001
      -1.6187138846101232e+000 -2.9771874123576364e-001
      -1.2309124346347696e-002 6.7988272657441484e-001
      5.9106587924162524e-001 -2.9783262289583554e+000
      2.0414093911682701e-001 8.6048169192660418e-001
      -1.6594667630735255e-001 -5.5653006733287547e-001
      5.4014134497772182e-001 -3.9736763562857585e-001
      -4.2456630403722379e-001 6.2565811788897796e-001
      1.1243182123572715e+000 3.4325685784424959e-001
      -7.6740695474231435e-001 5.2579259890488728e-001
      6.6445567290292629e-001 6.0247925720169015e-001
      -1.0284194020742827e+000 -5.4745691162575250e-001
      -9.1678216249492750e-001 -6.3764446781335665e-002
      -8.7690918485247216e-001 3.3227686964641323e-001
      -2.0777247908106877e-001 4.9490463032696519e-001
      4.9712095006228502e-002 -6.2142428969610763e-001
      -8.4077708065294507e-002 1.0435021650135440e-001
      1.0121143674294693e+000 -2.6359971161067249e-002
      -7.7629109827587151e-001 1.5776189160631010e-001
      -2.0856035277753054e-001 4.7822672378220153e-002
      -3.8819807468359585e-001 4.4342218821933227e-001
      -8.0286320775664177e-001 -2.4337300999396808e-001
      -2.2792468565194776e-001 -5.8667505347769189e-001
      1.5791597512944235e+000 -5.2789520287732283e-001
      9.1558943107045954e-001 1.9028131101712220e-001
      -6.0849256333679236e-001 -6.1740300135269355e-001
      4.5078996908623803e-001 2.1889586195826374e-001
      -1.0606808994168551e+000 4.7021487734026597e-002
