<?xml version="1.0"?>
<opencv_storage>
<opencv_ml_svm>
  <format>3</format>
  <svmType>C_SVC</svmType>
  <kernel>
    <type>RBF</type>
    <gamma>1.0000000000000001e-001</gamma></kernel>
  <C>1.</C>
  <term_criteria><iterations>100000</iterations></term_criteria>
  <var_count>172</var_count>
  <class_count>2</class_count>
  <class_labels type_id="opencv-matrix">
    <rows>2</rows>
    <cols>1</cols>
    <dt>i</dt>
    <data>
      0 1</data></class_labels>
  <sv_total>1142</sv_total>
  <support_vectors>
    <_>
      5.00000000e-001 5.00000000e-001 5.00000000e-001 5.00000000e-001
      5.00000000e-001 5.00000000e-001 5.00000000e-001 5.00000000e-001
      5.00000000e-001 5.00000000e-001 5.00000000e-001 5.00000000e-001
      5.00000000e-001 5.00000000e-001 5.00000000e-001 5.00000000e-001
      5.00000000e-001 5.00000000e-001 5.00000000e-001 5.00000000e-001
      5.00000000e-001 5.00000000e-001 5.00000000e-001 5.00000000e-001
      5.00000000e-001 5.00000000e-001 5.00000000e-001 5.00000000e-001
      5.00000000e-001 5.00000000e-001 5.00000000e-001 5.00000000e-001
      5.00000000e-001 5.00000000e-001 5.00000000e-001 5.00000000e-001
      5.00000000e-001 5.00000000e-001 5.00000000e-001 5.00000000e-001
      5.00000000e-001 5.00000000e-001 5.00000000e-001 5.00000000e-001
      5.00000000e-001 5.00000000e-001 5.00000000e-001 5.00000000e-001
      5.00000000e-001 5.00000000e-001 5.00000000e-001 5.00000000e-001
      5.00000000e-001 5.00000000e-001 5.00000000e-001 5.00000000e-001
      5.00000000e-001 5.00000000e-001 5.00000000e-001 5.00000000e-001
      5.00000000e-001 5.00000000e-001 5.00000000e-001 5.00000000e-001
      5.00000000e-001 5.00000000e-001 5.00000000e-001 5.00000000e-001
      5.00000000e-001 5.00000000e-001 5.00000000e-001 5.00000000e-001
      5.00000000e-001 5.00000000e-001 5.00000000e-001 5.00000000e-001
      5.00000000e-001 5.00000000e-001 5.00000000e-001 5.00000000e-001
      5.00000000e-001 5.00000000e-001 5.00000000e-001 5.00000000e-001
      5.00000000e-001 5.00000000e-001 5.00000000e-001 5.00000000e-001
      5.00000000e-001 5.00000000e-001 5.00000000e-001 5.00000000e-001
      5.00000000e-001 5.00000000e-001 5.00000000e-001 5.00000000e-001
      5.00000000e-001 5.00000000e-001 5.00000000e-001 5.00000000e-001 1.
      1. 5.00000000e-001 5.00000000e-001 5.00000000e-001 5.00000000e-001
      5.00000000e-001 5.00000000e-001 5.00000000e-001 5.00000000e-001
      5.00000000e-001 5.00000000e-001 5.00000000e-001 5.00000000e-001
      5.00000000e-001 5.00000000e-001 5.00000000e-001 5.00000000e-001
      5.00000000e-001 5.00000000e-001 5.00000000e-001 5.00000000e-001
      5.00000000e-001 0. 0. 0. 0. 0. 0. 0. 0. 0. 0. 0. 0. 0.
      9.99999940e-001 1.62601620e-002 0. 0. 0. 0. 0. 0. 0. 0. 0. 0. 0.
      0. 0. 0. 0. 0. 0. 0. 0. 0. 0. 0. 0. 0. 0. 0. 0. 0. 0. 0. 0. 0. 0.
      0.</_>
    <_>
      0. 0. 1. 1. 1. 1. 1. 1. 1. 1. 1. 1. 1. 1. 1. 1. 1. 1. 1. 1.
      6.94444478e-001 0. 0. 0. 0. 0. 0. 0. 0. 0. 1. 1. 1. 1. 1. 1. 1. 1.
      1. 1. 1. 1. 1. 1. 1. 1. 1. 0. 0. 0. 0. 0. 0. 0. 0. 0. 0. 0. 0. 0.
      0. 0. 0. 0. 0. 1. 1. 1. 1. 1. 1. 1. 0. 0. 0. 0. 0. 0. 0. 0. 0. 0.
      0. 0. 0. 0. 0. 0. 0. 0. 0. 0. 0. 0. 0. 0. 0. 0. 0. 0. 0. 0. 0. 0.
      0. 0. 0. 0. 0. 0. 0. 0. 0. 0. 0. 0. 0. 0. 0. 0. 0. 0. 0.
      8.88888896e-001 1. 1. 1. 1. 0. 0. 0. 0. 0. 0. 0. 0.
      9.79166687e-001 9.79166687e-001 9.79166687e-001 9.79166687e-001 1.
      1. 9.79166687e-001 9.79166687e-001 9.79166687e-001 1. 1. 1. 1. 1.
      1. 1. 1. 1. 1. 1. 1. 1. 1. 1. 1. 1. 1. 1. 1. 1. 1. 1.
      9.58333373e-001 9.58333373e-001 9.58333373e-001 9.58333373e-001</_>
    <_>
      0. 0. 0. 0. 0. 0. 0. 0. 0. 0. 0. 1.11111112e-001 8.05555582e-001
      8.88888896e-001 8.33333313e-001 6.66666687e-001 3.88888896e-001
      4.44444448e-001 7.50000000e-001 7.77777791e-001 7.50000000e-001
      7.22222209e-001 5.27777791e-001 1.66666672e-001 1.66666672e-001
      1.66666672e-001 1.38888896e-001 1.11111112e-001 1.11111112e-001
      3.61111104e-001 7.22222209e-001 7.77777791e-001 8.61111104e-001
      8.05555582e-001 7.77777791e-001 6.94444478e-001 5.27777791e-001
      3.33333343e-001 3.05555552e-001 3.33333343e-001 3.33333343e-001
      4.44444448e-001 5.55555582e-001 7.77777791e-001 1. 1. 1. 1. 1.
      9.16666687e-001 8.88888896e-001 8.88888896e-001 7.77777791e-001
      6.66666687e-001 6.66666687e-001 5.83333313e-001 5.55555582e-001
      5.83333313e-001 6.38888896e-001 8.05555582e-001 8.61111104e-001
      8.61111104e-001 8.61111104e-001 8.61111104e-001 8.88888896e-001
      9.16666687e-001 8.61111104e-001 8.88888896e-001 6.94444478e-001
      5.27777791e-001 5.83333313e-001 6.94444478e-001 7.77777791e-001
      8.61111104e-001 9.44444478e-001 9.44444478e-001 1. 1. 1. 1.
      9.44444478e-001 8.88888896e-001 8.33333313e-001 5.00000000e-001
      3.61111104e-001 4.72222239e-001 5.83333313e-001 6.11111104e-001
      5.27777791e-001 5.27777791e-001 5.55555582e-001 5.83333313e-001
      5.83333313e-001 6.11111104e-001 5.83333313e-001 5.83333313e-001
      5.55555582e-001 2.77777791e-001 1.38888896e-001 1.11111112e-001
      1.11111112e-001 1.11111112e-001 8.33333358e-002 1.11111112e-001
      3.33333343e-001 3.88888896e-001 4.44444448e-001 5.27777791e-001
      5.55555582e-001 5.55555582e-001 5.27777791e-001 2.50000000e-001 0.
      0. 0. 1.66666672e-001 6.66666687e-001 9.44444478e-001 1. 1. 1. 1.
      7.22222209e-001 2.77777791e-001 0. 0. 0. 0. 0. 0. 0. 0. 0. 0. 0.
      0. 6.09195411e-001 6.32183909e-001 6.43678188e-001 6.09195411e-001
      6.78160906e-001 6.66666687e-001 6.55172408e-001 5.40229857e-001
      4.82758611e-001 5.97701132e-001 6.43678188e-001 6.78160906e-001
      8.04597676e-001 8.04597676e-001 7.70114958e-001 7.58620679e-001
      8.39080453e-001 9.08045948e-001 9.77011502e-001 9.77011502e-001
      9.65517223e-001 9.54023004e-001 9.54023004e-001 9.19540226e-001
      8.39080453e-001 7.93103456e-001 7.93103456e-001 7.58620679e-001
      7.70114958e-001 8.16091955e-001 8.39080453e-001 9.08045948e-001
      9.88505721e-001 1. 9.42528725e-001 9.31034505e-001</_>
    <_>
      7.81250000e-001 6.87500000e-001 5.93750000e-001 4.06250000e-001
      3.12500000e-002 0. 0. 0. 0. 0. 0. 0. 0. 0. 0. 0. 3.43750000e-001
      7.81250000e-001 1. 7.18750000e-001 3.12500000e-001 2.18750000e-001
      2.18750000e-001 1.87500000e-001 2.81250000e-001 5.93750000e-001
      4.37500000e-001 1.25000000e-001 1.25000000e-001 1.25000000e-001
      1.25000000e-001 1.87500000e-001 6.25000000e-001 5.00000000e-001
      9.37500000e-002 9.37500000e-002 9.37500000e-002 6.25000000e-002
      9.37500000e-002 5.62500000e-001 5.31250000e-001 3.12500000e-002
      3.12500000e-002 3.12500000e-002 3.12500000e-002 3.12500000e-002
      5.62500000e-001 9.37500000e-001 3.12500000e-002 3.12500000e-002
      3.12500000e-002 0. 0. 4.37500000e-001 9.37500000e-001 0. 0. 0. 0.
      0. 9.37500000e-002 6.87500000e-001 3.12500000e-002 9.37500000e-002
      1.25000000e-001 1.87500000e-001 1.87500000e-001 3.12500000e-002
      5.62500000e-001 2.18750000e-001 1.56250000e-001 1.87500000e-001
      1.25000000e-001 9.37500000e-002 0. 6.56250000e-001 3.75000000e-001
      0. 3.12500000e-002 3.12500000e-002 3.12500000e-002 3.12500000e-002
      8.75000000e-001 5.00000000e-001 9.37500000e-002 3.12500000e-002
      3.12500000e-002 3.12500000e-002 3.12500000e-002 5.93750000e-001
      6.25000000e-001 1.87500000e-001 6.25000000e-002 6.25000000e-002
      6.25000000e-002 6.25000000e-002 5.31250000e-001 5.62500000e-001
      2.50000000e-001 9.37500000e-002 9.37500000e-002 9.37500000e-002
      9.37500000e-002 4.37500000e-001 6.25000000e-001 3.75000000e-001
      1.25000000e-001 1.25000000e-001 1.25000000e-001 1.87500000e-001
      5.00000000e-001 5.31250000e-001 4.68750000e-001 2.18750000e-001
      1.87500000e-001 2.18750000e-001 2.50000000e-001 5.31250000e-001
      9.68750000e-001 8.43750000e-001 6.56250000e-001 2.81250000e-001 0.
      0. 0. 0. 0. 0. 0. 0. 0. 0. 0. 3.12500000e-002 4.37500000e-001
      5.93750000e-001 1. 6.71428561e-001 5.28571427e-001 5.00000000e-001
      4.85714287e-001 5.00000000e-001 4.42857146e-001 4.57142860e-001
      4.14285719e-001 4.42857146e-001 3.85714293e-001 4.00000006e-001
      4.00000006e-001 4.14285719e-001 3.85714293e-001 5.00000000e-001
      5.42857170e-001 4.85714287e-001 4.28571433e-001 4.14285719e-001
      3.57142866e-001 3.71428579e-001 3.71428579e-001 3.57142866e-001
      3.57142866e-001 3.28571439e-001 3.28571439e-001 3.28571439e-001
      3.14285725e-001 2.85714298e-001 2.28571430e-001 2.28571430e-001
      1.85714290e-001 1.28571436e-001 1.57142863e-001 3.57142866e-001</_>
    <_>
      0. 0. 0. 0. 0. 0. 0. 0. 0. 0. 0. 0. 0. 0. 0. 0. 0. 0. 0. 0. 0. 0.
      0. 5.00000000e-001 1. 1. 1. 1. 1. 1. 1. 1. 1. 1. 1. 1. 1. 1. 1. 1.
      1. 1. 1. 1. 1. 1. 1. 1. 1. 1. 1. 1. 1. 1. 1. 1. 1. 1. 1. 1. 1. 1.
      1. 1. 1. 1. 1. 1. 1. 1. 1. 1. 1. 1. 1. 1. 1. 1. 1. 1. 1. 1. 1. 1.
      1. 1. 1. 1. 1. 1. 1. 1. 1. 1. 1. 1. 1. 1. 1. 1. 1. 1. 1. 1. 1. 1.
      1. 1. 5.00000000e-001 0. 0. 0. 0. 0. 0. 0. 0. 0. 0. 0. 0. 0. 0. 0.
      0. 0. 0. 0. 0. 0. 0. 0. 0. 0. 0. 0. 1. 9.76744175e-001 0. 0. 0. 0.
      0. 0. 0. 0. 0. 0. 0. 0. 0. 0. 0. 0. 0. 0. 0. 0. 0. 0. 0. 0. 0. 0.
      0. 0. 0. 0. 0. 0. 0. 0.</_>
    <_>
      0. 0. 0. 0. 0. 0. 4.34782617e-002 4.34782617e-002 0.
      1.30434781e-001 1.73913047e-001 2.17391312e-001 5.21739125e-001
      8.69565248e-001 1. 1. 9.56521749e-001 8.26086998e-001
      4.78260875e-001 4.78260875e-001 4.78260875e-001 5.21739125e-001
      5.65217376e-001 5.65217376e-001 6.08695686e-001 6.08695686e-001
      6.08695686e-001 5.65217376e-001 3.91304344e-001 1.73913047e-001 0.
      0. 1.30434781e-001 1.73913047e-001 1.73913047e-001 1.73913047e-001
      1.30434781e-001 4.34782617e-002 0. 0. 0. 0. 0. 0. 0. 0. 0. 0. 0.
      0. 0. 0. 0. 0. 0. 0. 0. 0. 0. 0. 0. 0. 0. 0. 0. 0. 8.69565234e-002
      1.73913047e-001 1.73913047e-001 1.73913047e-001 2.60869563e-001
      2.17391312e-001 3.47826093e-001 4.78260875e-001 7.82608688e-001
      7.39130437e-001 6.95652187e-001 6.95652187e-001 6.08695686e-001
      4.78260875e-001 3.91304344e-001 3.47826093e-001 3.91304344e-001
      4.34782624e-001 3.91304344e-001 3.04347843e-001 4.34782617e-002 0.
      0. 0. 0. 0. 0. 0. 0. 0. 0. 0. 0. 0. 0. 0. 0. 0. 4.34782617e-002
      1.73913047e-001 2.17391312e-001 2.17391312e-001 2.60869563e-001
      3.04347843e-001 2.60869563e-001 2.60869563e-001 3.04347843e-001
      3.47826093e-001 3.04347843e-001 3.04347843e-001 2.60869563e-001
      2.60869563e-001 1.73913047e-001 0. 0. 1.30434781e-001
      2.17391312e-001 2.17391312e-001 2.17391312e-001 2.17391312e-001
      1.73913047e-001 0. 0. 0. 0. 0. 0. 0. 0. 0. 0. 9.09090936e-002
      1.51515156e-001 1.81818187e-001 2.42424250e-001 2.12121218e-001
      3.03030312e-001 3.33333343e-001 3.63636374e-001 4.54545468e-001
      4.84848499e-001 5.15151501e-001 5.45454562e-001 6.36363626e-001
      5.45454562e-001 5.45454562e-001 6.36363626e-001 7.27272749e-001
      6.96969748e-001 7.27272749e-001 9.09090936e-001 9.09090936e-001 1.
      9.39393997e-001 8.78787875e-001 9.09090936e-001 9.69696999e-001
      8.78787875e-001 6.06060624e-001 4.84848499e-001 4.84848499e-001
      3.93939406e-001 1.51515156e-001 3.03030312e-002 0. 0.</_>
    <_>
      6.89655170e-002 2.41379306e-001 4.13793087e-001 6.55172408e-001
      7.93103456e-001 8.96551728e-001 6.20689631e-001 1.37931034e-001 0.
      0. 0. 0. 0. 0. 0. 0. 0. 0. 3.79310340e-001 5.86206913e-001
      3.79310340e-001 2.06896544e-001 0. 1.03448272e-001 2.41379306e-001
      2.06896544e-001 2.41379306e-001 1.37931034e-001 2.06896544e-001
      3.10344815e-001 2.41379306e-001 1.03448272e-001 1.03448272e-001
      1.37931034e-001 6.89655170e-002 6.89655170e-002 6.89655170e-002 0.
      0. 1.03448272e-001 2.06896544e-001 4.48275864e-001 6.55172408e-001
      8.27586174e-001 8.62068951e-001 5.86206913e-001 2.06896544e-001
      1.37931034e-001 4.48275864e-001 6.89655185e-001 7.24137902e-001
      6.89655185e-001 6.55172408e-001 6.20689631e-001 7.58620679e-001
      8.27586174e-001 7.93103456e-001 6.20689631e-001 6.20689631e-001
      6.55172408e-001 7.24137902e-001 8.27586174e-001 8.27586174e-001
      8.96551728e-001 7.58620679e-001 5.86206913e-001 4.82758611e-001
      4.82758611e-001 4.13793087e-001 5.17241359e-001 5.51724136e-001
      4.82758611e-001 4.48275864e-001 3.10344815e-001 3.44827592e-001
      3.44827592e-001 3.44827592e-001 5.17241359e-001 5.17241359e-001
      4.82758611e-001 5.51724136e-001 4.48275864e-001 2.75862068e-001
      1.37931034e-001 1.72413796e-001 1.37931034e-001 1.72413796e-001
      2.41379306e-001 2.41379306e-001 2.41379306e-001 2.06896544e-001
      1.37931034e-001 1.72413796e-001 2.41379306e-001 2.41379306e-001
      2.06896544e-001 1.72413796e-001 1.72413796e-001 6.89655170e-002
      1.72413796e-001 2.75862068e-001 2.75862068e-001 3.10344815e-001
      2.41379306e-001 3.79310340e-001 5.86206913e-001 6.20689631e-001
      6.89655185e-001 7.24137902e-001 5.86206913e-001 5.86206913e-001
      6.20689631e-001 5.86206913e-001 5.51724136e-001 4.13793087e-001
      4.48275864e-001 4.82758611e-001 5.51724136e-001 6.20689631e-001
      6.89655185e-001 9.31034505e-001 1. 8.96551728e-001 8.62068951e-001
      6.89655185e-001 5.51724136e-001 4.82758611e-001 5.17241359e-001
      4.48275864e-001 2.75862068e-001 2.41379306e-001 2.41379306e-001
      1.03448272e-001 0. 0. 6.89655170e-002 6.92307711e-001
      6.46153867e-001 4.15384620e-001 2.15384617e-001 2.30769232e-001
      3.07692319e-001 4.92307693e-001 8.00000012e-001 1. 9.69230771e-001
      8.30769241e-001 7.38461554e-001 6.92307711e-001 5.38461566e-001
      5.38461566e-001 7.38461554e-001 8.76923084e-001 9.07692313e-001
      8.30769241e-001 7.53846169e-001 7.69230783e-001 8.00000012e-001
      8.00000012e-001 7.23076940e-001 5.38461566e-001 4.76923078e-001
      5.53846180e-001 6.76923096e-001 8.15384626e-001 7.38461554e-001
      9.69230771e-001 8.46153855e-001 7.23076940e-001 5.84615409e-001
      2.30769232e-001 0.</_>
    <_>
      0. 0. 0. 1.11111112e-001 2.77777791e-001 1.11111112e-001 0. 0.
      3.88888896e-001 5.55555582e-001 6.11111104e-001 6.66666687e-001
      5.55555582e-001 6.11111104e-001 6.11111104e-001 6.11111104e-001
      6.11111104e-001 5.00000000e-001 5.00000000e-001 4.44444448e-001
      4.44444448e-001 5.55555582e-001 6.11111104e-001 7.77777791e-001
      8.33333313e-001 8.33333313e-001 8.33333313e-001 7.22222209e-001
      6.11111104e-001 5.55555582e-001 5.00000000e-001 6.11111104e-001
      6.11111104e-001 6.66666687e-001 7.22222209e-001 7.77777791e-001
      7.22222209e-001 7.22222209e-001 7.77777791e-001 7.22222209e-001
      6.11111104e-001 5.55555582e-001 6.11111104e-001 6.11111104e-001
      6.66666687e-001 7.77777791e-001 9.44444478e-001 1. 1.
      8.88888896e-001 6.66666687e-001 6.11111104e-001 6.11111104e-001
      6.66666687e-001 7.22222209e-001 7.77777791e-001 7.77777791e-001
      7.77777791e-001 7.22222209e-001 6.66666687e-001 6.66666687e-001
      6.66666687e-001 7.22222209e-001 7.77777791e-001 7.22222209e-001
      7.22222209e-001 7.77777791e-001 7.77777791e-001 7.22222209e-001
      6.66666687e-001 6.11111104e-001 5.55555582e-001 6.11111104e-001
      5.55555582e-001 6.11111104e-001 6.11111104e-001 6.11111104e-001
      5.55555582e-001 6.11111104e-001 6.11111104e-001 5.55555582e-001
      6.11111104e-001 6.11111104e-001 6.11111104e-001 6.11111104e-001
      6.11111104e-001 6.11111104e-001 6.11111104e-001 6.11111104e-001
      6.11111104e-001 5.55555582e-001 6.11111104e-001 6.11111104e-001
      6.66666687e-001 6.11111104e-001 6.11111104e-001 6.11111104e-001
      6.11111104e-001 6.11111104e-001 5.55555582e-001 6.11111104e-001
      6.11111104e-001 6.11111104e-001 6.11111104e-001 6.11111104e-001
      5.55555582e-001 5.55555582e-001 5.00000000e-001 5.00000000e-001
      5.00000000e-001 5.00000000e-001 5.55555582e-001 5.55555582e-001
      6.11111104e-001 6.11111104e-001 6.11111104e-001 6.11111104e-001
      6.11111104e-001 5.55555582e-001 5.00000000e-001 4.44444448e-001
      5.00000000e-001 5.55555582e-001 5.55555582e-001 6.66666687e-001
      6.66666687e-001 6.66666687e-001 6.66666687e-001 6.11111104e-001
      6.11111104e-001 5.55555582e-001 4.44444448e-001 3.88888896e-001
      2.22222224e-001 0. 0. 0. 5.63380271e-002 1.69014081e-001
      2.67605633e-001 2.95774639e-001 3.80281687e-001 4.36619699e-001
      5.07042229e-001 5.91549277e-001 6.05633795e-001 7.74647892e-001
      7.04225361e-001 6.90140843e-001 6.90140843e-001 6.61971807e-001
      7.74647892e-001 7.74647892e-001 7.88732409e-001 7.74647892e-001
      8.30985904e-001 8.30985904e-001 8.02816868e-001 8.73239398e-001 1.
      9.71830964e-001 8.87323916e-001 7.46478856e-001 7.32394338e-001
      6.05633795e-001 5.49295783e-001 4.22535211e-001 3.52112681e-001
      2.67605633e-001 1.97183102e-001 1.12676054e-001 7.04225302e-002</_>
    <_>
      1.00000001e-001 1.00000001e-001 1.00000001e-001 1.00000001e-001
      2.00000003e-001 2.00000003e-001 1.00000001e-001 1.00000001e-001
      1.00000001e-001 2.00000003e-001 2.00000003e-001 2.00000003e-001
      1.00000001e-001 1.00000001e-001 0. 2.00000003e-001 3.00000012e-001
      4.00000006e-001 5.00000000e-001 5.00000000e-001 5.00000000e-001
      5.00000000e-001 3.00000012e-001 2.00000003e-001 2.00000003e-001
      1.00000001e-001 2.00000003e-001 2.00000003e-001 2.00000003e-001
      2.00000003e-001 1.00000001e-001 1.00000001e-001 1.00000001e-001
      1.00000001e-001 1.00000001e-001 0. 0. 0. 0. 0. 0. 0. 0. 0. 0. 0.
      0. 0. 0. 0. 0. 0. 0. 0. 0. 0. 0. 0. 0. 0. 0. 0. 0. 0. 0. 0. 0. 0.
      0. 0. 0. 0. 0. 0. 0. 0. 0. 0. 2.00000003e-001 1.00000001e-001
      1.00000001e-001 4.00000006e-001 3.00000012e-001 4.00000006e-001
      6.99999988e-001 6.00000024e-001 5.00000000e-001 5.00000000e-001
      6.00000024e-001 6.00000024e-001 6.00000024e-001 6.99999988e-001 1.
      5.00000000e-001 5.00000000e-001 4.00000006e-001 6.00000024e-001
      6.99999988e-001 8.00000012e-001 8.00000012e-001 9.00000036e-001
      6.99999988e-001 6.99999988e-001 6.99999988e-001 8.00000012e-001
      9.00000036e-001 6.99999988e-001 6.00000024e-001 4.00000006e-001 0.
      0. 0. 0. 0. 0. 0. 0. 0. 0. 0. 0. 0. 0. 0. 0. 0. 0. 0. 0. 0. 0. 0.
      0. 0. 0. 0. 9.28571463e-001 1. 7.14285731e-001 9.28571463e-001
      9.28571463e-001 4.28571463e-001 2.85714298e-001 3.57142866e-001
      2.85714298e-001 0. 0. 7.14285746e-002 2.85714298e-001
      2.14285731e-001 4.28571463e-001 4.28571463e-001 5.00000000e-001
      7.85714328e-001 7.14285731e-001 5.71428597e-001 6.42857194e-001
      8.57142925e-001 6.42857194e-001 6.42857194e-001 8.57142925e-001
      8.57142925e-001 6.42857194e-001 4.28571463e-001 5.00000000e-001
      4.28571463e-001 2.85714298e-001 0. 2.85714298e-001 5.00000000e-001
      3.57142866e-001 0.</_>
    <_>
      4.73684222e-001 4.73684222e-001 4.21052635e-001 5.26315808e-001
      4.73684222e-001 4.73684222e-001 5.78947365e-001 5.26315808e-001
      4.21052635e-001 5.26315808e-001 5.26315808e-001 4.73684222e-001
      4.21052635e-001 5.26315808e-001 3.68421048e-001 4.21052635e-001
      4.73684222e-001 4.21052635e-001 5.26315808e-001 4.73684222e-001
      4.21052635e-001 3.68421048e-001 2.63157904e-001 3.15789461e-001
      2.63157904e-001 2.10526317e-001 3.68421048e-001 4.21052635e-001
      5.78947365e-001 8.42105269e-001 8.94736826e-001 8.42105269e-001
      7.89473712e-001 7.89473712e-001 7.89473712e-001 7.36842096e-001
      5.26315808e-001 4.73684222e-001 4.21052635e-001 1.57894731e-001
      1.57894731e-001 1.57894731e-001 1.57894731e-001 2.10526317e-001
      2.10526317e-001 1.57894731e-001 2.10526317e-001 1.57894731e-001
      2.10526317e-001 2.10526317e-001 2.10526317e-001 2.10526317e-001
      2.10526317e-001 1.57894731e-001 2.10526317e-001 1.57894731e-001
      1.57894731e-001 2.63157904e-001 2.63157904e-001 4.21052635e-001
      4.73684222e-001 3.15789461e-001 1.57894731e-001 4.21052635e-001
      4.21052635e-001 6.84210539e-001 7.89473712e-001 8.94736826e-001 1.
      8.42105269e-001 7.89473712e-001 7.89473712e-001 6.31578922e-001
      5.26315808e-001 5.26315808e-001 5.78947365e-001 6.31578922e-001
      5.78947365e-001 4.73684222e-001 2.10526317e-001 2.63157904e-001
      2.10526317e-001 2.10526317e-001 1.05263159e-001 0. 0. 0. 0.
      1.05263159e-001 1.57894731e-001 1.57894731e-001 1.05263159e-001
      1.05263159e-001 1.05263159e-001 5.26315793e-002 5.26315793e-002
      1.05263159e-001 3.68421048e-001 5.26315808e-001 6.31578922e-001
      4.21052635e-001 5.26315808e-001 4.73684222e-001 3.68421048e-001
      4.21052635e-001 7.36842096e-001 7.36842096e-001 3.68421048e-001 0.
      5.26315793e-002 1.05263159e-001 0. 0. 0. 1.05263159e-001
      2.10526317e-001 2.10526317e-001 3.68421048e-001 2.63157904e-001
      2.10526317e-001 3.68421048e-001 4.73684222e-001 2.63157904e-001
      1.05263159e-001 2.10526317e-001 2.10526317e-001 1.57894731e-001
      1.05263159e-001 1.05263159e-001 1.05263159e-001 1.05263159e-001
      2.63157904e-001 3.68421048e-001 1.57894731e-001 0. 0.
      8.33333358e-002 1.04166672e-001 1.04166672e-001 3.33333343e-001
      4.16666687e-001 5.62500000e-001 7.50000000e-001 7.70833373e-001
      9.79166687e-001 1. 8.95833373e-001 8.75000000e-001 7.91666687e-001
      7.91666687e-001 7.70833373e-001 7.91666687e-001 7.29166687e-001
      7.08333373e-001 6.45833373e-001 7.91666687e-001 8.75000000e-001
      5.00000000e-001 4.58333343e-001 4.58333343e-001 6.87500000e-001
      6.04166687e-001 3.33333343e-001 2.70833343e-001 2.50000000e-001
      2.08333343e-001 1.45833343e-001 1.87500000e-001 1.25000000e-001
      2.50000000e-001 3.33333343e-001 2.91666687e-001</_>
    <_>
      9.44444478e-001 9.44444478e-001 9.44444478e-001 8.61111104e-001
      4.16666657e-001 0. 0. 0. 0. 0. 2.77777780e-002 2.77777780e-002
      3.33333343e-001 6.38888896e-001 7.77777791e-001 8.05555582e-001
      8.05555582e-001 8.05555582e-001 8.05555582e-001 8.05555582e-001
      8.05555582e-001 7.77777791e-001 7.77777791e-001 7.77777791e-001
      7.77777791e-001 8.05555582e-001 8.05555582e-001 8.05555582e-001
      8.05555582e-001 8.05555582e-001 7.77777791e-001 7.77777791e-001
      8.33333313e-001 9.16666687e-001 9.72222209e-001 9.72222209e-001
      9.72222209e-001 9.72222209e-001 9.72222209e-001 9.72222209e-001
      9.72222209e-001 9.72222209e-001 9.72222209e-001 9.72222209e-001
      9.72222209e-001 9.72222209e-001 9.72222209e-001 9.72222209e-001
      9.72222209e-001 9.72222209e-001 9.72222209e-001 9.72222209e-001
      9.72222209e-001 9.72222209e-001 9.72222209e-001 9.72222209e-001
      8.88888896e-001 7.77777791e-001 7.22222209e-001 6.11111104e-001
      5.83333313e-001 4.72222239e-001 3.88888896e-001 3.33333343e-001
      3.05555552e-001 3.88888896e-001 4.16666657e-001 5.83333313e-001
      6.38888896e-001 6.66666687e-001 6.66666687e-001 6.66666687e-001
      6.38888896e-001 6.11111104e-001 5.55555582e-001 3.88888896e-001
      2.77777791e-001 2.77777780e-002 0. 5.55555560e-002 8.33333358e-002
      1.11111112e-001 1.38888896e-001 2.50000000e-001 3.88888896e-001
      5.27777791e-001 5.27777791e-001 5.27777791e-001 5.27777791e-001
      3.88888896e-001 2.77777791e-001 2.50000000e-001 1.94444448e-001
      1.94444448e-001 1.94444448e-001 1.94444448e-001 2.50000000e-001
      2.77777791e-001 3.33333343e-001 4.72222239e-001 5.00000000e-001
      5.00000000e-001 4.44444448e-001 4.16666657e-001 3.33333343e-001
      1.94444448e-001 1.94444448e-001 1.94444448e-001 1.94444448e-001
      1.94444448e-001 1.94444448e-001 2.22222224e-001 5.27777791e-001
      6.11111104e-001 6.11111104e-001 6.94444478e-001 7.77777791e-001
      8.05555582e-001 8.88888896e-001 9.16666687e-001 9.44444478e-001 1.
      9.72222209e-001 9.72222209e-001 9.72222209e-001 9.72222209e-001
      9.72222209e-001 9.44444478e-001 9.44444478e-001 8.33333313e-001
      8.05555582e-001 7.77777791e-001 7.50000000e-001 8.05555582e-001
      7.50000000e-001 7.50000000e-001 1. 9.14062500e-001 8.82812500e-001
      8.51562500e-001 8.43750000e-001 5.93750000e-001 6.09375000e-001
      6.17187500e-001 6.17187500e-001 6.32812500e-001 9.29687500e-001
      9.14062500e-001 7.57812500e-001 6.32812500e-001 4.68750000e-001
      4.84375000e-001 4.84375000e-001 5.70312500e-001 5.31250000e-001
      5.54687500e-001 7.18750000e-001 7.18750000e-001 5.39062500e-001
      5.46875000e-001 5.62500000e-001 5.70312500e-001 5.70312500e-001
      7.03125000e-001 7.50000000e-001 7.42187500e-001 7.34375000e-001
      7.50000000e-001 6.71875000e-001 6.01562500e-001 4.84375000e-001
      5.46875000e-002</_>
    <_>
      1. 9.44444478e-001 9.16666687e-001 8.88888896e-001 8.61111104e-001
      7.77777791e-001 6.66666687e-001 5.83333313e-001 5.00000000e-001
      4.16666657e-001 3.88888896e-001 4.16666657e-001 4.16666657e-001
      4.16666657e-001 3.61111104e-001 3.33333343e-001 2.77777791e-001
      2.50000000e-001 2.22222224e-001 1.94444448e-001 1.94444448e-001
      3.05555552e-001 3.33333343e-001 3.33333343e-001 3.61111104e-001
      5.55555582e-001 6.94444478e-001 8.05555582e-001 8.33333313e-001
      8.33333313e-001 8.61111104e-001 8.88888896e-001 9.16666687e-001 1.
      1. 1. 1. 1. 1. 1. 1. 1. 1. 1. 1. 1. 1. 1. 1. 1. 1. 1. 1. 1.
      9.16666687e-001 8.88888896e-001 8.61111104e-001 8.33333313e-001
      6.66666687e-001 6.11111104e-001 5.27777791e-001 4.16666657e-001
      3.61111104e-001 3.88888896e-001 4.16666657e-001 4.16666657e-001
      3.88888896e-001 2.77777791e-001 2.77777791e-001 2.77777791e-001
      2.50000000e-001 2.22222224e-001 1.94444448e-001 2.50000000e-001
      3.61111104e-001 3.33333343e-001 3.61111104e-001 5.00000000e-001
      6.66666687e-001 7.50000000e-001 7.77777791e-001 8.33333313e-001
      8.05555582e-001 8.33333313e-001 8.88888896e-001 9.44444478e-001
      9.16666687e-001 9.16666687e-001 9.16666687e-001 9.16666687e-001
      9.16666687e-001 9.16666687e-001 9.16666687e-001 9.16666687e-001
      9.16666687e-001 9.16666687e-001 9.16666687e-001 9.16666687e-001
      9.16666687e-001 9.16666687e-001 9.16666687e-001 9.16666687e-001
      9.16666687e-001 9.16666687e-001 8.88888896e-001 8.05555582e-001
      7.77777791e-001 7.77777791e-001 7.22222209e-001 5.83333313e-001
      5.27777791e-001 4.16666657e-001 3.33333343e-001 2.77777791e-001
      3.05555552e-001 3.05555552e-001 3.05555552e-001 3.05555552e-001
      3.33333343e-001 3.33333343e-001 3.05555552e-001 2.77777791e-001
      2.50000000e-001 2.22222224e-001 1.94444448e-001 1.66666672e-001
      2.22222224e-001 4.16666657e-001 5.83333313e-001 6.66666687e-001
      7.22222209e-001 7.22222209e-001 7.50000000e-001 7.77777791e-001
      8.33333313e-001 8.61111104e-001 4.77941185e-001 4.77941185e-001
      5.44117630e-001 6.76470578e-001 7.57352948e-001 7.86764681e-001
      7.42647052e-001 6.39705896e-001 3.89705896e-001 3.38235289e-001
      3.67647052e-001 4.19117659e-001 4.63235289e-001 5.00000000e-001
      5.44117630e-001 5.88235319e-001 6.39705896e-001 6.69117630e-001
      6.83823526e-001 6.83823526e-001 6.83823526e-001 6.54411793e-001
      6.47058845e-001 6.47058845e-001 6.47058845e-001 6.54411793e-001
      6.98529422e-001 7.20588267e-001 7.50000000e-001 7.94117630e-001
      8.23529422e-001 8.60294104e-001 8.89705896e-001 9.19117630e-001
      9.70588267e-001 1.</_>
    <_>
      1. 9.72222209e-001 9.16666687e-001 9.16666687e-001 8.88888896e-001
      8.88888896e-001 8.61111104e-001 8.61111104e-001 8.33333313e-001
      7.77777791e-001 6.94444478e-001 6.38888896e-001 5.83333313e-001
      5.00000000e-001 4.72222239e-001 4.16666657e-001 3.88888896e-001
      3.88888896e-001 4.16666657e-001 4.16666657e-001 4.16666657e-001
      3.88888896e-001 3.33333343e-001 2.77777791e-001 2.22222224e-001
      2.50000000e-001 2.50000000e-001 2.50000000e-001 2.22222224e-001
      2.22222224e-001 1.94444448e-001 2.22222224e-001 3.05555552e-001
      3.61111104e-001 3.88888896e-001 3.88888896e-001 3.61111104e-001
      3.61111104e-001 3.33333343e-001 4.44444448e-001 5.55555582e-001
      6.11111104e-001 7.22222209e-001 8.05555582e-001 8.33333313e-001
      8.33333313e-001 8.61111104e-001 8.88888896e-001 8.88888896e-001
      9.16666687e-001 9.16666687e-001 9.44444478e-001 1. 1. 1. 1. 1. 1.
      1. 1. 1. 1. 1. 1. 1. 1. 1. 1. 1. 1. 1. 1. 1. 1. 1. 1. 1. 1. 1. 1.
      1. 1. 1. 9.72222209e-001 9.16666687e-001 9.16666687e-001
      8.88888896e-001 8.88888896e-001 8.61111104e-001 8.61111104e-001
      8.33333313e-001 7.77777791e-001 6.94444478e-001 6.38888896e-001
      5.83333313e-001 5.27777791e-001 4.72222239e-001 4.16666657e-001
      3.88888896e-001 4.16666657e-001 4.16666657e-001 4.16666657e-001
      4.16666657e-001 3.88888896e-001 3.61111104e-001 2.77777791e-001
      2.50000000e-001 2.50000000e-001 2.50000000e-001 2.50000000e-001
      2.50000000e-001 2.22222224e-001 1.94444448e-001 2.22222224e-001
      2.50000000e-001 3.33333343e-001 3.61111104e-001 3.88888896e-001
      3.61111104e-001 3.33333343e-001 3.33333343e-001 4.16666657e-001
      5.00000000e-001 5.83333313e-001 6.66666687e-001 7.77777791e-001
      8.05555582e-001 8.33333313e-001 8.61111104e-001 8.61111104e-001
      8.88888896e-001 8.88888896e-001 9.16666687e-001 9.44444478e-001 1.
      1. 9.17293251e-001 9.09774482e-001 8.87218058e-001 8.79699290e-001
      8.79699290e-001 8.57142866e-001 8.49624097e-001 8.42105269e-001
      8.19548905e-001 5.63909769e-001 2.63157904e-001 2.70676702e-001
      3.08270693e-001 3.68421048e-001 4.28571433e-001 4.66165423e-001
      5.26315808e-001 5.86466193e-001 6.31578982e-001 6.69172943e-001
      6.76691771e-001 6.76691771e-001 6.61654174e-001 6.46616578e-001
      6.31578982e-001 6.31578982e-001 6.09022558e-001 6.61654174e-001
      6.91729367e-001 7.29323328e-001 7.66917288e-001 8.04511309e-001
      8.34586501e-001 8.64661694e-001 9.09774482e-001 1.</_>
    <_>
      0. 0. 0. 0. 0. 0. 0. 0. 0. 0. 0. 0. 0. 0. 0. 0. 0. 0. 0. 0. 0. 0.
      0. 0. 0. 0. 0. 0. 0. 0. 0. 0. 0. 2.10526317e-001 3.15789461e-001
      6.31578922e-001 5.78947365e-001 1.57894731e-001 2.10526317e-001
      4.21052635e-001 9.47368443e-001 1. 1. 5.78947365e-001
      4.21052635e-001 2.10526317e-001 1.57894731e-001 5.26315808e-001
      5.26315808e-001 3.68421048e-001 2.63157904e-001 0. 0. 0.
      1.57894731e-001 2.63157904e-001 2.63157904e-001 1.05263159e-001 0.
      0. 0. 0. 0. 0. 0. 0. 0. 0. 0. 0. 0. 2.10526317e-001
      2.63157904e-001 3.15789461e-001 5.78947365e-001 5.78947365e-001 0.
      0. 0. 0. 0. 3.15789461e-001 4.73684222e-001 4.21052635e-001 0. 0.
      1.57894731e-001 3.15789461e-001 5.26315808e-001 6.84210539e-001
      6.84210539e-001 6.84210539e-001 4.73684222e-001 3.68421048e-001
      2.63157904e-001 2.10526317e-001 2.10526317e-001 2.10526317e-001
      2.63157904e-001 1.57894731e-001 4.21052635e-001 6.31578922e-001
      4.73684222e-001 3.15789461e-001 4.73684222e-001 4.73684222e-001
      3.15789461e-001 1.05263159e-001 0. 0. 0. 0. 0. 0. 0. 0. 0. 0. 0.
      0. 0. 0. 0. 0. 0. 0. 0. 0. 0. 0. 0. 0. 0. 0. 0. 0. 0. 0.
      8.82352963e-002 1.47058830e-001 2.35294119e-001 2.64705896e-001
      3.23529422e-001 4.41176474e-001 5.58823526e-001 5.00000000e-001
      5.29411793e-001 6.76470578e-001 7.94117630e-001 8.23529422e-001
      9.70588267e-001 1. 9.41176474e-001 8.52941155e-001 8.23529422e-001
      5.88235319e-001 4.41176474e-001 3.23529422e-001 1.47058830e-001
      1.47058830e-001 5.88235296e-002 0. 0. 0. 0. 0. 0. 0. 0. 0. 0. 0.</_>
    <_>
      6.66666701e-002 6.66666701e-002 1.33333340e-001 2.66666681e-001
      2.66666681e-001 2.66666681e-001 5.33333361e-001 5.33333361e-001
      6.00000024e-001 3.33333343e-001 4.00000036e-001 4.66666698e-001
      4.66666698e-001 4.66666698e-001 5.33333361e-001 5.33333361e-001
      6.00000024e-001 6.00000024e-001 5.33333361e-001 4.00000036e-001
      2.66666681e-001 1.33333340e-001 1.33333340e-001 2.00000018e-001
      1.33333340e-001 2.00000018e-001 3.33333343e-001 2.66666681e-001
      4.66666698e-001 7.33333349e-001 6.66666687e-001 4.66666698e-001
      2.00000018e-001 0. 1.33333340e-001 1.33333340e-001 1.33333340e-001
      6.66666701e-002 0. 0. 0. 0. 0. 1.33333340e-001 2.00000018e-001
      5.33333361e-001 6.00000024e-001 7.33333349e-001 9.33333397e-001
      5.33333361e-001 6.66666687e-001 6.66666687e-001 8.00000072e-001
      9.33333397e-001 6.66666687e-001 5.33333361e-001 5.33333361e-001
      2.66666681e-001 6.66666701e-002 0. 0. 6.66666701e-002
      1.33333340e-001 6.66666701e-002 0. 2.00000018e-001 1.33333340e-001
      1.33333340e-001 1.33333340e-001 4.00000036e-001 5.33333361e-001
      6.00000024e-001 8.00000072e-001 4.66666698e-001 5.33333361e-001
      6.66666687e-001 6.00000024e-001 8.00000072e-001 7.33333349e-001
      8.66666734e-001 1. 6.66666687e-001 6.00000024e-001 6.00000024e-001
      3.33333343e-001 1.33333340e-001 6.66666701e-002 6.66666701e-002
      6.66666701e-002 6.66666701e-002 0. 6.66666701e-002 1.33333340e-001
      2.00000018e-001 2.66666681e-001 4.00000036e-001 6.00000024e-001
      3.33333343e-001 4.00000036e-001 2.66666681e-001 4.66666698e-001
      4.66666698e-001 3.33333343e-001 2.66666681e-001 0. 0. 0. 0. 0. 0.
      0. 0. 0. 0. 0. 0. 6.66666701e-002 6.66666701e-002 2.00000018e-001
      1.33333340e-001 1.33333340e-001 0. 0. 0. 0. 0. 0. 0. 0.
      6.66666701e-002 1.33333340e-001 1.33333340e-001 2.00000018e-001
      6.66666701e-002 6.66666701e-002 0. 1.51515156e-001 3.33333343e-001
      3.33333343e-001 6.96969748e-001 6.06060624e-001 4.84848499e-001
      4.84848499e-001 2.72727281e-001 3.03030312e-002 9.09090936e-002
      3.33333343e-001 4.54545468e-001 6.36363626e-001 5.75757623e-001
      5.15151501e-001 3.33333343e-001 2.72727281e-001 2.72727281e-001
      3.03030312e-002 3.33333343e-001 5.75757623e-001 4.84848499e-001
      3.93939406e-001 4.24242437e-001 6.06060624e-001 8.78787875e-001 1.
      9.69696999e-001 5.45454562e-001 6.96969748e-001 4.84848499e-001
      5.45454562e-001 7.87878811e-001 9.09090936e-001 7.27272749e-001
      2.12121218e-001</_>
    <_>
      0. 5.00000000e-001 6.56250000e-001 6.87500000e-001 3.43750000e-001
      3.12500000e-001 4.06250000e-001 3.75000000e-001 3.75000000e-001
      3.43750000e-001 3.43750000e-001 3.12500000e-001 4.68750000e-001
      7.18750000e-001 7.18750000e-001 6.87500000e-001 5.00000000e-001
      4.68750000e-001 3.43750000e-001 3.12500000e-001 5.00000000e-001
      5.93750000e-001 6.25000000e-001 7.18750000e-001 7.18750000e-001
      6.87500000e-001 5.93750000e-001 4.68750000e-001 3.75000000e-001
      2.81250000e-001 3.75000000e-001 4.68750000e-001 5.93750000e-001
      6.25000000e-001 6.87500000e-001 6.87500000e-001 5.93750000e-001
      3.43750000e-001 2.81250000e-001 3.43750000e-001 3.75000000e-001
      5.62500000e-001 5.00000000e-001 4.37500000e-001 5.93750000e-001
      6.87500000e-001 6.87500000e-001 6.87500000e-001 6.25000000e-001
      6.87500000e-001 6.87500000e-001 6.87500000e-001 5.93750000e-001
      2.81250000e-001 2.18750000e-001 5.31250000e-001 6.87500000e-001
      6.25000000e-001 5.93750000e-001 6.56250000e-001 5.00000000e-001
      4.06250000e-001 6.25000000e-001 1. 8.75000000e-001 7.18750000e-001
      4.68750000e-001 6.25000000e-001 5.62500000e-001 6.87500000e-001
      6.56250000e-001 9.06250000e-001 9.06250000e-001 5.31250000e-001
      3.75000000e-001 6.56250000e-001 7.18750000e-001 3.75000000e-001
      5.00000000e-001 8.12500000e-001 7.81250000e-001 6.56250000e-001
      4.37500000e-001 4.06250000e-001 2.81250000e-001 2.18750000e-001
      2.50000000e-001 6.25000000e-001 6.56250000e-001 3.43750000e-001
      2.18750000e-001 3.43750000e-001 2.81250000e-001 2.18750000e-001
      2.81250000e-001 6.25000000e-001 6.25000000e-001 6.25000000e-001
      5.00000000e-001 2.18750000e-001 1.56250000e-001 2.18750000e-001
      6.25000000e-001 3.43750000e-001 1.56250000e-001 1.25000000e-001
      9.37500000e-002 1.25000000e-001 1.56250000e-001 3.12500000e-001
      9.37500000e-002 3.12500000e-002 3.12500000e-002 3.12500000e-002
      3.12500000e-002 5.00000000e-001 7.81250000e-001 5.93750000e-001
      3.43750000e-001 1.56250000e-001 2.81250000e-001 3.43750000e-001
      4.06250000e-001 3.12500000e-001 4.06250000e-001 6.56250000e-001
      7.18750000e-001 5.93750000e-001 4.68750000e-001 1.87500000e-001
      1.25000000e-001 1.56250000e-001 4.68750000e-001 5.93750000e-001
      4.37500000e-001 0. 1.75000012e-001 2.25000009e-001 2.50000000e-001
      2.25000009e-001 2.00000018e-001 1.91666678e-001 1.75000012e-001
      1.58333346e-001 7.50000030e-002 9.16666687e-002 7.50000030e-002
      5.83333373e-002 2.50000022e-002 1.91666678e-001 4.83333349e-001
      7.50000060e-001 9.08333361e-001 1. 9.50000048e-001 5.75000048e-001
      4.33333367e-001 4.58333343e-001 5.50000012e-001 5.75000048e-001
      5.33333361e-001 4.91666704e-001 5.00000000e-001 5.83333373e-001
      5.58333337e-001 5.33333361e-001 5.41666687e-001 6.66666687e-001
      8.50000024e-001 9.16666687e-001 9.66666698e-001 9.66666698e-001</_>
    <_>
      0. 0. 0. 0. 0. 0. 0. 0. 0. 0. 0. 0. 0. 0. 0. 0. 0. 0. 0. 0. 0. 0.
      0. 0. 0. 0. 0. 0. 0. 0. 0. 0. 0. 0. 0. 0. 0. 0. 0. 5.26315793e-002
      1.57894731e-001 0. 0. 0. 4.73684222e-001 6.31578922e-001
      7.36842096e-001 9.47368443e-001 1. 9.47368443e-001 7.89473712e-001
      4.21052635e-001 3.15789461e-001 2.63157904e-001 3.15789461e-001
      5.78947365e-001 7.36842096e-001 7.89473712e-001 6.31578922e-001
      6.84210539e-001 6.84210539e-001 6.31578922e-001 5.26315808e-001
      3.68421048e-001 0. 0. 0. 0. 0. 0. 0. 0. 0. 0. 0. 0. 0. 0. 0. 0. 0.
      0. 0. 0. 0. 0. 0. 0. 0. 1.05263159e-001 3.15789461e-001
      5.26315808e-001 5.26315808e-001 3.68421048e-001 3.68421048e-001
      3.68421048e-001 2.10526317e-001 1.57894731e-001 0. 0.
      2.10526317e-001 5.26315808e-001 7.89473712e-001 9.47368443e-001
      8.94736826e-001 3.15789461e-001 2.10526317e-001 1.05263159e-001
      3.68421048e-001 4.21052635e-001 3.15789461e-001 1.57894731e-001
      2.10526317e-001 2.63157904e-001 6.84210539e-001 7.36842096e-001
      3.15789461e-001 3.68421048e-001 3.68421048e-001 3.15789461e-001
      4.73684222e-001 5.26315808e-001 4.21052635e-001 2.10526317e-001 0.
      0. 0. 0. 0. 0. 0. 0. 0. 1.05263159e-001 5.26315793e-002
      5.26315793e-002 7.89473653e-002 1.57894731e-001 2.36842111e-001
      2.89473683e-001 2.89473683e-001 2.63157904e-001 2.63157904e-001
      1.84210524e-001 2.89473683e-001 4.47368413e-001 5.26315808e-001
      5.78947365e-001 5.78947365e-001 8.68421078e-001 9.73684192e-001 1.
      9.21052635e-001 8.94736826e-001 8.42105269e-001 7.10526347e-001
      5.78947365e-001 5.26315808e-001 4.73684222e-001 3.68421048e-001
      3.68421048e-001 2.10526317e-001 5.26315793e-002 0. 0. 0. 0. 0.
      2.63157897e-002 0. 0. 0.</_>
    <_>
      0. 1.29032254e-001 3.54838699e-001 1.61290318e-001 6.45161271e-002
      9.67741907e-002 3.22580636e-001 3.87096763e-001 3.54838699e-001
      3.54838699e-001 3.54838699e-001 3.54838699e-001 4.19354826e-001
      5.16129017e-001 5.48387051e-001 4.83870953e-001 4.51612890e-001
      5.16129017e-001 6.77419305e-001 8.06451559e-001 9.67741907e-001
      9.67741907e-001 9.67741907e-001 1. 1. 9.67741907e-001
      9.67741907e-001 8.38709652e-001 7.09677398e-001 7.09677398e-001
      7.41935492e-001 5.48387051e-001 4.51612890e-001 4.51612890e-001
      4.51612890e-001 4.19354826e-001 3.54838699e-001 3.54838699e-001
      5.48387051e-001 5.16129017e-001 4.19354826e-001 3.54838699e-001
      3.87096763e-001 4.83870953e-001 5.16129017e-001 5.16129017e-001
      5.16129017e-001 5.48387051e-001 6.77419305e-001 7.74193525e-001
      6.77419305e-001 6.45161271e-001 7.41935492e-001 9.03225780e-001
      9.67741907e-001 9.67741907e-001 9.35483813e-001 9.35483813e-001 1.
      1. 9.35483813e-001 9.03225780e-001 7.74193525e-001 7.09677398e-001
      7.09677398e-001 7.74193525e-001 8.38709652e-001 7.09677398e-001
      6.45161271e-001 7.09677398e-001 7.74193525e-001 7.41935492e-001
      7.41935492e-001 8.06451559e-001 8.38709652e-001 7.41935492e-001
      7.74193525e-001 7.74193525e-001 6.77419305e-001 6.77419305e-001
      6.12903237e-001 6.45161271e-001 6.77419305e-001 7.09677398e-001
      6.77419305e-001 6.45161271e-001 6.77419305e-001 7.74193525e-001
      7.41935492e-001 7.09677398e-001 8.06451559e-001 8.38709652e-001
      8.06451559e-001 6.45161271e-001 5.80645144e-001 3.54838699e-001
      3.22580636e-001 4.51612890e-001 5.16129017e-001 6.12903237e-001
      6.77419305e-001 7.41935492e-001 7.09677398e-001 7.09677398e-001
      6.45161271e-001 5.80645144e-001 5.48387051e-001 5.80645144e-001
      6.77419305e-001 7.41935492e-001 6.77419305e-001 5.80645144e-001
      6.77419305e-001 6.45161271e-001 5.16129017e-001 3.54838699e-001
      3.22580636e-001 2.58064508e-001 4.51612890e-001 6.45161271e-001
      6.77419305e-001 4.19354826e-001 4.19354826e-001 4.19354826e-001
      4.51612890e-001 4.19354826e-001 4.19354826e-001 4.19354826e-001
      4.19354826e-001 3.87096763e-001 3.87096763e-001 3.54838699e-001
      2.90322572e-001 1.93548381e-001 0. 0. 0. 5.40540554e-002
      9.90990996e-002 2.52252251e-001 2.79279292e-001 6.84684694e-001
      9.81981993e-001 1. 9.27927971e-001 6.57657683e-001 4.14414436e-001
      3.60360384e-001 8.91891897e-001 9.36936975e-001 9.72972989e-001
      9.27927971e-001 6.30630672e-001 4.50450450e-001 6.48648679e-001
      6.57657683e-001 6.03603601e-001 6.21621609e-001 6.39639676e-001
      7.47747779e-001 7.65765786e-001 7.56756783e-001 7.02702701e-001
      7.65765786e-001 8.19819868e-001 8.46846879e-001 8.01801801e-001
      6.12612605e-001 5.49549580e-001 6.30630672e-001 4.23423439e-001
      4.32432443e-001</_>
    <_>
      5.00000000e-001 6.87500000e-001 9.06250000e-001 7.50000000e-001
      6.87500000e-001 3.75000000e-001 6.25000000e-001 5.93750000e-001
      7.50000000e-001 1. 1. 9.68750000e-001 7.18750000e-001
      8.12500000e-001 9.37500000e-001 8.75000000e-001 3.75000000e-001
      2.81250000e-001 2.50000000e-001 3.43750000e-001 4.06250000e-001
      4.37500000e-001 4.06250000e-001 2.81250000e-001 3.12500000e-001
      4.06250000e-001 5.00000000e-001 5.00000000e-001 4.37500000e-001
      1.25000000e-001 1.56250000e-001 1.25000000e-001 3.12500000e-001
      3.75000000e-001 3.43750000e-001 1.87500000e-001 1.87500000e-001
      1.56250000e-001 1.56250000e-001 9.37500000e-002 1.25000000e-001
      2.50000000e-001 2.81250000e-001 4.06250000e-001 5.31250000e-001
      5.00000000e-001 4.37500000e-001 5.31250000e-001 6.25000000e-001
      5.93750000e-001 7.18750000e-001 8.75000000e-001 8.43750000e-001
      6.56250000e-001 4.37500000e-001 6.56250000e-001 7.18750000e-001
      7.18750000e-001 6.87500000e-001 6.56250000e-001 6.25000000e-001
      5.62500000e-001 5.31250000e-001 5.00000000e-001 4.06250000e-001
      4.06250000e-001 5.00000000e-001 5.31250000e-001 6.56250000e-001
      6.56250000e-001 5.62500000e-001 6.25000000e-001 6.25000000e-001
      5.93750000e-001 6.25000000e-001 5.00000000e-001 2.50000000e-001
      3.43750000e-001 4.37500000e-001 5.31250000e-001 4.37500000e-001
      2.50000000e-001 2.81250000e-001 4.06250000e-001 3.43750000e-001
      2.81250000e-001 5.00000000e-001 2.81250000e-001 2.18750000e-001
      1.87500000e-001 2.18750000e-001 1.25000000e-001 9.37500000e-002
      9.37500000e-002 1.87500000e-001 1.87500000e-001 2.18750000e-001
      1.25000000e-001 1.25000000e-001 1.56250000e-001 2.81250000e-001
      2.81250000e-001 3.43750000e-001 2.81250000e-001 1.25000000e-001
      6.25000000e-002 6.25000000e-002 0. 0. 0. 0. 0. 1.25000000e-001
      1.56250000e-001 3.12500000e-001 2.50000000e-001 2.18750000e-001
      2.18750000e-001 1.56250000e-001 3.12500000e-001 4.37500000e-001
      3.75000000e-001 2.50000000e-001 1.25000000e-001 1.25000000e-001
      1.56250000e-001 1.25000000e-001 1.25000000e-001 1.25000000e-001
      9.37500000e-002 1.25000000e-001 9.37500000e-002 3.12500000e-002
      6.25000000e-002 9.37500000e-002 6.25000000e-002 2.19780222e-001
      1.20879121e-001 1.64835170e-001 1.53846160e-001 1.09890111e-001
      1.31868139e-001 1.53846160e-001 1.97802201e-001 3.95604402e-001
      6.15384638e-001 7.25274742e-001 7.91208804e-001 7.47252762e-001
      6.81318700e-001 6.48351669e-001 5.93406618e-001 4.39560443e-001
      3.95604402e-001 2.85714298e-001 2.63736278e-001 2.63736278e-001
      2.19780222e-001 4.17582422e-001 6.59340680e-001 8.79120886e-001
      9.78021979e-001 9.56043959e-001 9.23076928e-001 9.01098907e-001
      9.34065938e-001 1. 8.90109897e-001 6.59340680e-001 3.95604402e-001
      9.89011005e-002 5.49450554e-002</_>
    <_>
      0. 5.71428575e-002 2.28571430e-001 4.85714287e-001 9.14285719e-001
      9.71428573e-001 9.71428573e-001 6.85714304e-001 4.57142860e-001
      3.71428579e-001 5.42857170e-001 8.00000012e-001 9.71428573e-001
      8.85714293e-001 8.85714293e-001 9.14285719e-001 9.42857146e-001
      9.14285719e-001 9.42857146e-001 8.85714293e-001 8.85714293e-001
      8.57142866e-001 8.85714293e-001 8.85714293e-001 8.85714293e-001
      8.85714293e-001 8.85714293e-001 9.14285719e-001 9.42857146e-001
      9.14285719e-001 8.85714293e-001 8.85714293e-001 9.71428573e-001
      9.71428573e-001 9.71428573e-001 1. 1. 1. 9.42857146e-001
      9.71428573e-001 1. 1. 9.71428573e-001 9.71428573e-001
      9.71428573e-001 1. 9.71428573e-001 9.42857146e-001 9.42857146e-001
      9.14285719e-001 8.57142866e-001 9.42857146e-001 9.71428573e-001
      5.14285743e-001 5.71428575e-002 0. 0. 0. 0. 0. 0. 0. 0. 0.
      2.85714287e-002 1.14285715e-001 1.42857149e-001 2.28571430e-001
      1.42857149e-001 0. 0. 0. 0. 0. 0. 0. 0. 0. 0. 5.71428575e-002
      8.57142881e-002 2.85714287e-002 0. 0. 0. 0. 0. 0. 0. 0. 0. 0.
      2.85714287e-002 5.71428575e-002 5.71428575e-002 0. 2.85714287e-002
      5.71428575e-002 5.71428575e-002 8.57142881e-002 1.42857149e-001
      1.71428576e-001 3.14285725e-001 4.00000006e-001 4.57142860e-001
      5.42857170e-001 7.42857158e-001 8.85714293e-001 8.28571439e-001
      8.57142866e-001 8.85714293e-001 8.28571439e-001 7.14285731e-001
      6.85714304e-001 7.42857158e-001 7.71428585e-001 7.42857158e-001
      6.28571451e-001 5.42857170e-001 4.57142860e-001 4.85714287e-001
      6.28571451e-001 5.71428597e-001 4.28571433e-001 3.14285725e-001
      2.28571430e-001 1.42857149e-001 3.14285725e-001 4.28571433e-001
      4.57142860e-001 3.71428579e-001 2.28571430e-001 2.57142872e-001
      1.71428576e-001 1.14285715e-001 8.57142881e-002 1.52777776e-001
      7.77777791e-001 9.16666687e-001 9.86111104e-001 8.61111104e-001
      7.08333313e-001 7.50000000e-001 7.22222209e-001 7.77777791e-001
      7.36111104e-001 9.44444478e-001 9.72222209e-001 9.58333313e-001
      9.44444478e-001 9.58333313e-001 9.30555582e-001 9.86111104e-001 1.
      9.58333313e-001 9.16666687e-001 8.88888896e-001 9.30555582e-001
      9.16666687e-001 9.44444478e-001 9.72222209e-001 1. 9.72222209e-001
      9.58333313e-001 8.05555582e-001 9.44444478e-001 1. 9.86111104e-001
      9.72222209e-001 9.30555582e-001 7.63888896e-001 2.50000000e-001</_>
    <_>
      2.69230783e-001 3.84615391e-001 3.84615391e-001 3.46153855e-001
      3.46153855e-001 3.46153855e-001 2.30769247e-001 1.92307696e-001
      2.30769247e-001 2.30769247e-001 1.92307696e-001 2.30769247e-001
      2.30769247e-001 2.30769247e-001 2.30769247e-001 1.92307696e-001
      1.53846160e-001 1.15384623e-001 0. 0. 0. 0. 1.15384623e-001
      3.07692319e-001 6.92307711e-001 8.46153855e-001 6.15384638e-001
      3.84615391e-001 2.30769247e-001 1.92307696e-001 2.30769247e-001
      1.53846160e-001 1.92307696e-001 1.53846160e-001 1.53846160e-001
      1.53846160e-001 2.30769247e-001 4.23076928e-001 7.30769277e-001
      6.92307711e-001 4.61538494e-001 3.07692319e-001 1.53846160e-001
      1.15384623e-001 0. 0. 0. 0. 0. 0. 2.30769247e-001 5.38461566e-001
      8.46153855e-001 7.30769277e-001 5.38461566e-001 2.69230783e-001
      1.92307696e-001 1.92307696e-001 1.92307696e-001 2.30769247e-001
      2.69230783e-001 8.46153855e-001 5.76923072e-001 4.23076928e-001
      3.84615391e-001 2.69230783e-001 2.30769247e-001 1.92307696e-001
      1.92307696e-001 3.07692319e-001 2.69230783e-001 2.30769247e-001
      1.92307696e-001 3.07692319e-001 5.76923072e-001 8.07692349e-001
      7.69230783e-001 5.38461566e-001 2.69230783e-001 1.92307696e-001
      1.53846160e-001 0. 0. 0. 0. 0. 1.53846160e-001 2.30769247e-001
      3.46153855e-001 4.61538494e-001 4.23076928e-001 4.61538494e-001
      5.38461566e-001 5.00000000e-001 3.84615391e-001 3.46153855e-001
      3.46153855e-001 3.07692319e-001 2.69230783e-001 3.07692319e-001
      3.84615391e-001 9.61538494e-001 1. 1. 3.07692319e-001 0. 0. 0. 0.
      0. 0. 0. 0. 0. 7.69230798e-002 3.46153855e-001 7.30769277e-001
      7.30769277e-001 4.61538494e-001 2.30769247e-001 2.30769247e-001
      2.69230783e-001 4.23076928e-001 3.84615391e-001 3.07692319e-001
      3.84615391e-001 5.00000000e-001 5.38461566e-001 5.76923072e-001
      5.00000000e-001 3.84615391e-001 6.53846204e-001 5.38461566e-001
      3.07692319e-001 1.53846160e-001 1.15384623e-001 3.33333343e-001
      4.50980395e-001 5.68627477e-001 5.49019635e-001 7.25490212e-001
      7.45098054e-001 6.47058845e-001 9.01960790e-001 9.80392218e-001 1.
      9.01960790e-001 8.03921580e-001 6.27451003e-001 6.07843161e-001
      5.68627477e-001 5.49019635e-001 5.09803951e-001 5.49019635e-001
      5.68627477e-001 5.68627477e-001 5.29411793e-001 5.49019635e-001
      6.07843161e-001 5.68627477e-001 5.29411793e-001 6.86274529e-001
      7.45098054e-001 7.84313738e-001 7.25490212e-001 5.49019635e-001
      4.70588267e-001 2.94117659e-001 3.13725501e-001 2.54901975e-001
      2.35294133e-001 2.15686277e-001</_>
    <_>
      0. 0. 0. 0. 0. 0. 2.00000003e-001 3.00000012e-001 4.00000006e-001
      5.00000000e-001 4.00000006e-001 0. 0. 4.00000006e-001
      6.00000024e-001 8.00000012e-001 8.00000012e-001 1. 9.00000036e-001
      1. 9.00000036e-001 9.00000036e-001 9.00000036e-001 9.00000036e-001
      9.00000036e-001 8.00000012e-001 8.00000012e-001 8.00000012e-001
      8.00000012e-001 8.00000012e-001 3.00000012e-001 2.00000003e-001 0.
      0. 0. 0. 0. 0. 0. 0. 1.00000001e-001 1.00000001e-001
      1.00000001e-001 0. 0. 0. 1.00000001e-001 2.00000003e-001
      2.00000003e-001 3.00000012e-001 3.00000012e-001 3.00000012e-001
      1.00000001e-001 0. 0. 0. 0. 0. 0. 0. 0. 0. 0. 0. 0. 0. 0.
      1.00000001e-001 1.00000001e-001 0. 1.00000001e-001 4.00000006e-001
      4.00000006e-001 4.00000006e-001 4.00000006e-001 6.00000024e-001
      6.00000024e-001 8.00000012e-001 8.00000012e-001 9.00000036e-001
      8.00000012e-001 8.00000012e-001 8.00000012e-001 8.00000012e-001
      8.00000012e-001 6.99999988e-001 6.99999988e-001 6.00000024e-001 0.
      0. 0. 0. 0. 0. 0. 0. 0. 0. 0. 0. 0. 0. 0. 0. 0. 0. 0. 0. 0. 0. 0.
      0. 0. 0. 0. 0. 0. 0. 0. 0. 0. 0. 0. 0. 0. 0. 0. 0. 0. 0. 0. 0. 0.
      0. 0. 0. 0. 0. 2.14285731e-001 1.78571433e-001 3.21428597e-001
      3.21428597e-001 3.92857164e-001 5.35714328e-001 4.28571463e-001
      6.07142866e-001 8.57142925e-001 1. 9.64285731e-001 8.57142925e-001
      7.85714328e-001 6.07142866e-001 6.07142866e-001 4.64285731e-001
      5.35714328e-001 3.21428597e-001 2.50000000e-001 1.07142866e-001 0.
      0. 1.78571433e-001 7.14285746e-002 0. 0. 0. 0. 0. 0. 0. 0. 0. 0.</_>
    <_>
      0. 0. 0. 6.25000000e-002 0. 0. 0. 0. 0. 0. 0. 0. 1.87500000e-001
      3.12500000e-001 3.75000000e-001 3.12500000e-001 3.12500000e-001
      3.12500000e-001 3.12500000e-001 3.12500000e-001 3.12500000e-001
      3.12500000e-001 5.00000000e-001 3.75000000e-001 6.25000000e-002
      2.50000000e-001 3.75000000e-001 6.25000000e-001 6.25000000e-001
      6.25000000e-001 6.25000000e-001 6.87500000e-001 6.25000000e-001
      6.87500000e-001 6.87500000e-001 7.50000000e-001 6.87500000e-001
      6.87500000e-001 8.75000000e-001 8.12500000e-001 5.62500000e-001
      4.37500000e-001 4.37500000e-001 4.37500000e-001 5.00000000e-001
      5.00000000e-001 6.25000000e-001 7.50000000e-001 8.75000000e-001 1.
      8.75000000e-001 8.75000000e-001 8.12500000e-001 8.12500000e-001
      8.75000000e-001 7.50000000e-001 6.87500000e-001 6.87500000e-001
      7.50000000e-001 6.87500000e-001 5.62500000e-001 3.75000000e-001
      4.37500000e-001 4.37500000e-001 5.00000000e-001 5.62500000e-001
      5.62500000e-001 8.12500000e-001 7.50000000e-001 5.00000000e-001
      4.37500000e-001 3.75000000e-001 3.12500000e-001 3.12500000e-001
      3.12500000e-001 3.12500000e-001 1.87500000e-001 1.25000000e-001
      1.25000000e-001 2.50000000e-001 3.75000000e-001 4.37500000e-001
      4.37500000e-001 5.00000000e-001 4.37500000e-001 3.12500000e-001
      3.12500000e-001 1.87500000e-001 0. 0. 0. 0. 0. 0. 0.
      6.25000000e-002 1.87500000e-001 2.50000000e-001 3.12500000e-001
      4.37500000e-001 3.75000000e-001 3.75000000e-001 3.75000000e-001
      3.75000000e-001 5.00000000e-001 5.00000000e-001 5.00000000e-001
      4.37500000e-001 3.75000000e-001 5.00000000e-001 6.25000000e-001
      5.00000000e-001 5.62500000e-001 4.37500000e-001 3.12500000e-001
      1.87500000e-001 6.25000000e-002 0. 1.25000000e-001 1.87500000e-001
      5.62500000e-001 5.00000000e-001 5.00000000e-001 5.00000000e-001
      3.75000000e-001 1.87500000e-001 1.87500000e-001 1.87500000e-001 0.
      0. 0. 0. 0. 0. 0. 0. 7.69230798e-002 2.56410271e-001
      5.64102590e-001 4.61538464e-001 1.02564104e-001 2.56410260e-002
      1.53846160e-001 4.10256416e-001 7.43589759e-001 1. 8.97435904e-001
      6.92307711e-001 5.38461566e-001 4.35897440e-001 4.10256416e-001
      6.66666687e-001 9.74358976e-001 8.71794879e-001 6.15384638e-001
      7.94871807e-001 5.89743614e-001 6.41025662e-001 6.15384638e-001
      6.15384638e-001 6.41025662e-001 6.41025662e-001 7.69230783e-001
      7.69230783e-001 7.94871807e-001 8.46153855e-001 7.17948735e-001
      9.23076928e-001 7.94871807e-001 4.35897440e-001 2.05128208e-001 0.</_>
    <_>
      0. 0. 0. 2.27272734e-001 3.18181813e-001 4.09090936e-001
      2.72727281e-001 1.81818187e-001 1.36363640e-001 4.54545468e-002 0.
      0. 0. 0. 0. 0. 0. 0. 0. 0. 0. 0. 1.81818187e-001 2.27272734e-001
      2.27272734e-001 2.72727281e-001 2.72727281e-001 2.27272734e-001
      2.27272734e-001 1.81818187e-001 1.81818187e-001 1.81818187e-001
      9.09090936e-002 0. 0. 0. 0. 0. 0. 0. 0. 0. 0. 0. 0. 0. 0. 0.
      2.27272734e-001 5.45454562e-001 5.00000000e-001 4.54545468e-001
      2.27272734e-001 9.09090936e-002 0. 0. 0. 0. 0. 4.54545468e-002
      1.36363640e-001 3.18181813e-001 3.18181813e-001 5.45454562e-001
      8.18181872e-001 9.54545498e-001 8.63636374e-001 7.72727311e-001
      4.09090936e-001 3.18181813e-001 6.36363626e-001 8.18181872e-001
      8.63636374e-001 6.81818187e-001 7.27272749e-001 6.81818187e-001
      6.36363626e-001 6.81818187e-001 5.90909123e-001 5.45454562e-001
      3.63636374e-001 3.63636374e-001 3.63636374e-001 3.63636374e-001
      3.63636374e-001 3.63636374e-001 4.09090936e-001 6.36363626e-001
      7.72727311e-001 9.09090936e-001 1. 9.54545498e-001 8.63636374e-001
      7.72727311e-001 6.81818187e-001 5.90909123e-001 5.45454562e-001
      3.63636374e-001 1.81818187e-001 1.81818187e-001 3.18181813e-001
      4.54545468e-001 5.45454562e-001 4.54545468e-001 7.27272749e-001
      6.81818187e-001 6.36363626e-001 5.45454562e-001 4.09090936e-001
      2.72727281e-001 4.09090936e-001 3.63636374e-001 3.18181813e-001
      4.09090936e-001 6.36363626e-001 5.45454562e-001 4.54545468e-001
      5.00000000e-001 5.00000000e-001 6.81818187e-001 6.36363626e-001
      7.27272749e-001 3.63636374e-001 3.18181813e-001 2.27272734e-001
      3.18181813e-001 5.45454562e-001 6.36363626e-001 8.18181872e-001
      8.63636374e-001 3.63636374e-001 9.09090936e-002 0. 0. 0. 0.
      6.38297871e-002 8.51063803e-002 1.70212761e-001 2.97872335e-001
      4.04255301e-001 5.31914890e-001 4.89361674e-001 4.25531894e-001
      4.68085080e-001 5.31914890e-001 5.53191483e-001 4.89361674e-001
      4.46808487e-001 5.95744669e-001 7.02127635e-001 7.23404229e-001
      8.29787195e-001 7.02127635e-001 7.23404229e-001 7.44680822e-001
      8.08510602e-001 7.65957415e-001 7.65957415e-001 7.65957415e-001
      8.72340381e-001 9.99999940e-001 8.72340381e-001 7.44680822e-001
      7.87234008e-001 9.14893568e-001 9.14893568e-001 7.65957415e-001
      6.38297856e-001 2.97872335e-001 1.70212761e-001 4.25531901e-002</_>
    <_>
      1.25000000e-001 3.12500000e-001 2.81250000e-001 3.43750000e-001
      1.87500000e-001 0. 0. 0. 0. 6.25000000e-002 2.18750000e-001
      3.75000000e-001 4.06250000e-001 5.00000000e-001 5.00000000e-001
      5.31250000e-001 5.31250000e-001 5.31250000e-001 5.31250000e-001
      5.62500000e-001 5.93750000e-001 6.25000000e-001 4.68750000e-001
      4.37500000e-001 4.37500000e-001 2.50000000e-001 1.56250000e-001
      1.25000000e-001 2.81250000e-001 3.12500000e-001 3.75000000e-001
      3.43750000e-001 5.31250000e-001 6.56250000e-001 6.87500000e-001
      6.56250000e-001 7.18750000e-001 7.50000000e-001 9.06250000e-001
      8.75000000e-001 8.75000000e-001 8.43750000e-001 5.93750000e-001
      5.93750000e-001 5.93750000e-001 5.62500000e-001 5.00000000e-001
      4.37500000e-001 5.00000000e-001 5.62500000e-001 6.56250000e-001
      6.25000000e-001 6.56250000e-001 7.50000000e-001 7.50000000e-001
      8.12500000e-001 7.50000000e-001 5.00000000e-001 5.00000000e-001
      7.18750000e-001 7.81250000e-001 7.81250000e-001 7.18750000e-001
      7.81250000e-001 8.12500000e-001 7.50000000e-001 5.93750000e-001
      5.00000000e-001 4.37500000e-001 3.75000000e-001 3.75000000e-001
      3.43750000e-001 4.68750000e-001 5.31250000e-001 6.25000000e-001
      5.00000000e-001 5.93750000e-001 4.68750000e-001 6.25000000e-001
      3.43750000e-001 3.75000000e-001 2.81250000e-001 2.81250000e-001
      2.81250000e-001 2.18750000e-001 2.50000000e-001 2.50000000e-001
      1.25000000e-001 6.25000000e-002 9.37500000e-002 1.87500000e-001
      4.68750000e-001 1. 9.37500000e-001 8.12500000e-001 8.12500000e-001
      7.81250000e-001 7.18750000e-001 6.56250000e-001 5.62500000e-001
      5.62500000e-001 5.93750000e-001 5.62500000e-001 5.62500000e-001
      5.31250000e-001 5.31250000e-001 5.31250000e-001 4.68750000e-001
      5.31250000e-001 4.68750000e-001 4.68750000e-001 4.68750000e-001
      5.00000000e-001 5.31250000e-001 5.62500000e-001 5.93750000e-001
      6.25000000e-001 6.25000000e-001 4.37500000e-001 3.43750000e-001
      3.12500000e-001 9.37500000e-002 6.25000000e-002 0. 0. 0. 0.
      2.50000000e-001 7.50000000e-001 9.37500000e-001 9.37500000e-001
      7.18750000e-001 6.56250000e-001 6.56250000e-001 5.00000000e-001
      4.06250000e-001 6.51162803e-001 7.32558131e-001 7.20930219e-001
      8.37209284e-001 8.37209284e-001 8.72093022e-001 8.60465109e-001
      8.72093022e-001 7.90697694e-001 7.32558131e-001 6.86046481e-001
      7.55813956e-001 6.97674394e-001 7.79069781e-001 8.72093022e-001
      9.65116262e-001 1. 8.95348847e-001 8.48837197e-001 6.97674394e-001
      6.86046481e-001 7.20930219e-001 8.48837197e-001 8.60465109e-001
      8.60465109e-001 8.13953459e-001 7.67441869e-001 6.62790716e-001
      5.58139563e-001 4.65116262e-001 3.95348847e-001 3.60465109e-001
      3.02325577e-001 1.39534891e-001 1.04651161e-001 2.32558139e-002</_>
    <_>
      7.22222209e-001 8.33333313e-001 1. 1. 1. 1. 1. 1.66666672e-001 0.
      0. 0. 8.33333313e-001 8.88888896e-001 8.88888896e-001
      8.88888896e-001 8.88888896e-001 8.88888896e-001 8.33333313e-001
      8.33333313e-001 7.50000000e-001 0. 2.77777780e-002 1.38888896e-001
      5.00000000e-001 1. 1. 1. 1. 9.72222209e-001 8.88888896e-001
      8.88888896e-001 8.88888896e-001 9.44444478e-001 1. 1. 1.
      9.44444478e-001 7.77777791e-001 6.94444478e-001 6.66666687e-001
      7.22222209e-001 7.22222209e-001 7.22222209e-001 6.38888896e-001
      5.83333313e-001 5.83333313e-001 5.00000000e-001 4.72222239e-001
      3.88888896e-001 2.22222224e-001 3.33333343e-001 5.27777791e-001
      7.77777791e-001 1. 1. 1. 1. 1. 1. 1. 1. 1. 1. 6.66666687e-001 0.
      0. 0. 8.61111104e-001 1. 1. 1. 1. 1. 1. 1. 1. 1. 1.
      2.77777791e-001 1.11111112e-001 2.77777780e-002 0. 7.22222209e-001
      8.05555582e-001 8.33333313e-001 8.61111104e-001 8.61111104e-001
      8.61111104e-001 8.05555582e-001 7.77777791e-001 4.72222239e-001
      2.77777780e-002 5.55555560e-002 1.66666672e-001 6.11111104e-001 1.
      1. 1. 1. 6.66666687e-001 4.44444448e-001 3.33333343e-001
      3.05555552e-001 3.88888896e-001 3.88888896e-001 5.27777791e-001
      5.55555582e-001 5.27777791e-001 5.83333313e-001 5.83333313e-001
      5.55555582e-001 4.16666657e-001 5.00000000e-001 6.38888896e-001
      7.50000000e-001 1. 1. 1. 1. 1. 6.11111104e-001 3.05555552e-001
      2.50000000e-001 2.50000000e-001 5.83333313e-001 6.94444478e-001
      7.22222209e-001 7.22222209e-001 6.94444478e-001 6.66666687e-001
      6.66666687e-001 5.27777791e-001 3.05555552e-001 3.88888896e-001
      4.72222239e-001 6.11111104e-001 6.28571451e-001 6.57142878e-001
      8.95238101e-001 1. 9.90476251e-001 9.90476251e-001 9.80952442e-001
      9.71428633e-001 9.90476251e-001 9.80952442e-001 1. 9.80952442e-001
      9.04761910e-001 8.66666675e-001 7.90476203e-001 7.71428585e-001
      7.80952394e-001 8.47619057e-001 8.95238101e-001 8.85714293e-001
      9.42857206e-001 9.42857206e-001 9.71428633e-001 9.90476251e-001
      9.71428633e-001 9.71428633e-001 9.52381015e-001 8.95238101e-001
      8.85714293e-001 8.57142866e-001 8.38095248e-001 8.19047630e-001
      7.52380967e-001 6.66666687e-001 6.66666687e-001 7.42857158e-001</_>
    <_>
      0. 0. 0. 0. 5.26315793e-002 5.26315793e-002 0. 0. 0. 0.
      5.26315793e-002 5.26315793e-002 5.26315793e-002 3.15789461e-001
      4.21052635e-001 4.21052635e-001 6.84210539e-001 8.42105269e-001
      5.26315808e-001 4.73684222e-001 3.68421048e-001 2.10526317e-001
      2.10526317e-001 3.68421048e-001 5.26315808e-001 6.84210539e-001
      4.73684222e-001 2.10526317e-001 5.26315808e-001 7.89473712e-001
      8.94736826e-001 9.47368443e-001 1. 9.47368443e-001 6.84210539e-001
      6.31578922e-001 7.89473712e-001 6.31578922e-001 5.78947365e-001
      7.36842096e-001 7.36842096e-001 4.73684222e-001 4.21052635e-001
      3.68421048e-001 2.10526317e-001 2.10526317e-001 1.57894731e-001
      1.57894731e-001 1.57894731e-001 1.57894731e-001 2.10526317e-001
      2.10526317e-001 1.57894731e-001 1.05263159e-001 2.10526317e-001
      2.10526317e-001 2.10526317e-001 2.63157904e-001 1.57894731e-001
      1.57894731e-001 1.57894731e-001 4.73684222e-001 4.73684222e-001
      4.21052635e-001 5.26315808e-001 7.36842096e-001 9.47368443e-001
      6.84210539e-001 7.36842096e-001 4.73684222e-001 5.78947365e-001
      6.31578922e-001 5.78947365e-001 5.26315808e-001 2.63157904e-001
      2.10526317e-001 3.68421048e-001 3.15789461e-001 1.57894731e-001
      1.57894731e-001 1.57894731e-001 3.15789461e-001 3.68421048e-001
      5.78947365e-001 6.84210539e-001 8.42105269e-001 8.42105269e-001
      6.84210539e-001 9.47368443e-001 9.47368443e-001 4.73684222e-001
      3.68421048e-001 2.10526317e-001 1.57894731e-001 2.10526317e-001
      1.05263159e-001 5.26315793e-002 1.57894731e-001 4.21052635e-001
      3.68421048e-001 3.68421048e-001 3.15789461e-001 4.73684222e-001
      4.21052635e-001 2.10526317e-001 2.10526317e-001 1.57894731e-001
      2.10526317e-001 5.78947365e-001 6.31578922e-001 6.31578922e-001
      7.89473712e-001 1. 9.47368443e-001 9.47368443e-001 7.89473712e-001
      6.31578922e-001 6.84210539e-001 3.68421048e-001 3.68421048e-001
      3.15789461e-001 1.05263159e-001 2.10526317e-001 2.63157904e-001
      3.15789461e-001 2.63157904e-001 2.63157904e-001 2.10526317e-001
      2.10526317e-001 1.05263159e-001 1.05263159e-001 2.10526317e-001
      1.05263159e-001 1.05263159e-001 0. 0. 1.42857149e-001
      3.01587313e-001 1.58730164e-001 2.22222239e-001 3.33333343e-001
      3.33333343e-001 3.80952418e-001 3.96825433e-001 5.07936537e-001
      5.39682567e-001 6.66666687e-001 6.82539701e-001 6.19047642e-001
      4.76190507e-001 5.39682567e-001 5.07936537e-001 4.28571463e-001
      4.12698448e-001 3.80952418e-001 3.17460328e-001 3.80952418e-001
      3.65079373e-001 3.33333343e-001 2.85714298e-001 2.38095254e-001
      2.22222239e-001 3.01587313e-001 3.96825433e-001 3.65079373e-001
      4.28571463e-001 6.98412716e-001 1. 9.68254030e-001 6.03174627e-001
      6.50793672e-001 3.80952418e-001</_>
    <_>
      0. 0. 7.14285746e-002 7.14285746e-002 1.78571433e-001
      3.57142866e-001 3.92857164e-001 3.92857164e-001 5.35714328e-001
      6.42857194e-001 6.07142866e-001 5.00000000e-001 4.28571463e-001
      3.57142866e-001 4.28571463e-001 4.64285731e-001 4.64285731e-001
      5.35714328e-001 5.35714328e-001 6.42857194e-001 6.07142866e-001
      6.07142866e-001 6.42857194e-001 7.14285731e-001 7.50000060e-001
      7.50000060e-001 6.78571463e-001 6.78571463e-001 5.71428597e-001
      5.35714328e-001 4.28571463e-001 3.92857164e-001 3.21428597e-001
      2.85714298e-001 1.42857149e-001 2.50000000e-001 2.50000000e-001
      2.50000000e-001 2.14285731e-001 3.21428597e-001 2.85714298e-001
      2.85714298e-001 4.28571463e-001 4.64285731e-001 6.07142866e-001
      6.78571463e-001 6.42857194e-001 5.00000000e-001 5.35714328e-001
      4.28571463e-001 4.28571463e-001 3.92857164e-001 3.92857164e-001
      3.21428597e-001 3.57142866e-001 3.92857164e-001 4.64285731e-001
      5.00000000e-001 7.14285731e-001 5.35714328e-001 5.35714328e-001
      6.07142866e-001 6.07142866e-001 6.78571463e-001 6.78571463e-001
      6.78571463e-001 7.85714328e-001 6.78571463e-001 6.78571463e-001
      7.50000060e-001 7.85714328e-001 8.21428597e-001 7.50000060e-001
      6.42857194e-001 4.64285731e-001 3.57142866e-001 5.71428597e-001
      5.71428597e-001 5.00000000e-001 5.35714328e-001 6.42857194e-001
      6.78571463e-001 7.14285731e-001 6.78571463e-001 6.78571463e-001
      6.78571463e-001 6.78571463e-001 7.14285731e-001 8.21428597e-001
      7.85714328e-001 7.14285731e-001 7.14285731e-001 7.14285731e-001
      6.78571463e-001 6.42857194e-001 6.42857194e-001 6.42857194e-001
      6.78571463e-001 7.14285731e-001 9.28571463e-001 9.28571463e-001 1.
      1. 7.85714328e-001 6.78571463e-001 6.42857194e-001 7.14285731e-001
      5.71428597e-001 4.64285731e-001 5.00000000e-001 4.64285731e-001
      4.28571463e-001 3.57142866e-001 1.42857149e-001 1.42857149e-001
      1.42857149e-001 3.21428597e-001 3.57142866e-001 3.21428597e-001
      1.42857149e-001 1.42857149e-001 1.07142866e-001 7.14285746e-002
      3.57142873e-002 1.42857149e-001 1.78571433e-001 2.85714298e-001
      3.21428597e-001 3.21428597e-001 1.78571433e-001 1.42857149e-001
      1.42857149e-001 1.42857149e-001 1.07142866e-001 7.14285746e-002
      3.57142873e-002 0. 4.59770113e-002 6.89655170e-002 6.89655170e-002
      1.03448272e-001 3.79310340e-001 5.17241359e-001 5.63218415e-001
      5.63218415e-001 5.40229857e-001 5.86206913e-001 6.32183909e-001
      7.70114958e-001 9.31034505e-001 1. 9.54023004e-001 8.50574732e-001
      8.96551728e-001 9.31034505e-001 9.19540226e-001 7.70114958e-001
      6.43678188e-001 5.97701132e-001 5.74712634e-001 4.94252861e-001
      5.28735638e-001 6.32183909e-001 8.73563230e-001 8.85057449e-001
      7.81609178e-001 7.47126460e-001 6.89655185e-001 5.86206913e-001
      4.82758611e-001 3.10344815e-001 2.29885057e-001</_>
    <_>
      0. 0. 0. 0. 0. 0. 0. 0. 0. 0. 0. 0. 0. 0. 0. 0. 0. 0. 0. 0.
      5.00000007e-002 5.00000007e-002 3.00000012e-001 6.00000024e-001
      6.50000036e-001 8.50000024e-001 8.50000024e-001 7.50000000e-001
      7.50000000e-001 8.00000012e-001 7.50000000e-001 7.50000000e-001
      8.50000024e-001 8.50000024e-001 8.50000024e-001 8.00000012e-001
      8.50000024e-001 8.00000012e-001 9.00000036e-001 8.50000024e-001
      9.00000036e-001 8.50000024e-001 6.99999988e-001 6.00000024e-001
      6.99999988e-001 8.50000024e-001 8.00000012e-001 6.99999988e-001
      7.50000000e-001 9.00000036e-001 8.50000024e-001 6.99999988e-001
      6.00000024e-001 5.50000012e-001 2.00000003e-001 5.00000007e-002
      5.00000007e-002 3.49999994e-001 6.00000024e-001 8.00000012e-001
      9.49999988e-001 9.49999988e-001 9.49999988e-001 8.50000024e-001
      8.50000024e-001 8.50000024e-001 9.00000036e-001 9.00000036e-001
      8.50000024e-001 8.50000024e-001 1. 8.00000012e-001 6.99999988e-001
      8.00000012e-001 9.00000036e-001 8.50000024e-001 8.00000012e-001
      6.50000036e-001 7.50000000e-001 9.49999988e-001 1. 1.
      9.00000036e-001 9.00000036e-001 8.50000024e-001 8.00000012e-001
      8.00000012e-001 1. 1. 9.00000036e-001 8.00000012e-001
      5.50000012e-001 3.00000012e-001 5.00000007e-002 0. 0. 0. 0. 0. 0.
      0. 0. 0. 0. 1.00000001e-001 1.00000001e-001 2.00000003e-001
      3.00000012e-001 3.49999994e-001 3.49999994e-001 3.49999994e-001
      2.50000000e-001 4.00000006e-001 3.49999994e-001 4.50000018e-001
      5.00000000e-001 4.50000018e-001 4.00000006e-001 3.00000012e-001
      1.00000001e-001 1.00000001e-001 3.00000012e-001 4.00000006e-001
      3.49999994e-001 4.00000006e-001 1.50000006e-001 2.50000000e-001
      3.00000012e-001 3.00000012e-001 3.00000012e-001 2.50000000e-001
      2.50000000e-001 2.50000000e-001 1.00000001e-001 0. 0.
      4.76190522e-002 1.11111119e-001 1.90476209e-001 2.22222239e-001
      9.52381045e-002 2.06349224e-001 3.65079373e-001 5.71428597e-001
      8.73015940e-001 9.04761970e-001 8.57142925e-001 5.55555582e-001
      4.60317492e-001 4.12698448e-001 5.71428597e-001 9.20634985e-001 1.
      9.84127045e-001 9.52381015e-001 9.84127045e-001 9.52381015e-001
      9.84127045e-001 1. 8.57142925e-001 7.14285731e-001 6.50793672e-001
      5.07936537e-001 4.92063522e-001 3.96825433e-001 3.65079373e-001
      3.49206358e-001 4.28571463e-001 5.07936537e-001 3.65079373e-001
      1.42857149e-001 0.</_>
    <_>
      0. 0. 0. 0. 0. 0. 0. 1.00000009e-001 1.33333340e-001
      1.33333340e-001 1.33333340e-001 1.66666672e-001 2.33333349e-001
      3.66666675e-001 5.33333361e-001 5.66666722e-001 5.66666722e-001
      5.66666722e-001 4.66666698e-001 5.66666722e-001 7.00000048e-001
      7.33333349e-001 8.00000072e-001 9.00000036e-001 9.33333397e-001
      9.33333397e-001 9.33333397e-001 9.66666698e-001 9.66666698e-001
      9.33333397e-001 9.33333397e-001 1. 1. 9.66666698e-001
      9.66666698e-001 9.00000036e-001 8.33333373e-001 7.33333349e-001
      6.33333385e-001 4.33333367e-001 4.66666698e-001 5.00000000e-001
      2.66666681e-001 1.66666672e-001 1.00000009e-001 0. 0. 0.
      3.33333351e-002 1.00000009e-001 2.33333349e-001 2.33333349e-001
      3.00000012e-001 2.33333349e-001 1.66666672e-001 1.33333340e-001
      2.00000018e-001 4.66666698e-001 5.66666722e-001 6.66666687e-001
      4.66666698e-001 1.00000009e-001 6.66666701e-002 0. 0. 0. 0.
      1.00000009e-001 2.00000018e-001 3.33333343e-001 5.33333361e-001
      5.66666722e-001 6.66666687e-001 8.33333373e-001 8.33333373e-001
      9.33333397e-001 8.33333373e-001 7.00000048e-001 7.00000048e-001
      7.66666710e-001 8.66666734e-001 9.00000036e-001 9.33333397e-001
      9.66666698e-001 9.66666698e-001 9.00000036e-001 8.33333373e-001
      8.00000072e-001 7.33333349e-001 7.00000048e-001 6.66666687e-001
      6.33333385e-001 4.33333367e-001 1.66666672e-001 1.00000009e-001
      1.00000009e-001 1.00000009e-001 1.00000009e-001 6.66666701e-002 0.
      0. 0. 0. 0. 0. 0. 0. 0. 0. 0. 1.00000009e-001 1.00000009e-001
      1.33333340e-001 1.33333340e-001 1.66666672e-001 2.00000018e-001
      2.00000018e-001 2.00000018e-001 2.66666681e-001 2.66666681e-001
      2.33333349e-001 2.00000018e-001 1.33333340e-001 1.00000009e-001
      6.66666701e-002 0. 0. 0. 0. 0. 0. 0. 0. 0. 0. 0. 0.
      1.03448272e-001 5.51724136e-001 8.10344815e-001 1. 9.13793087e-001
      8.96551728e-001 9.13793087e-001 9.65517223e-001 9.82758641e-001
      9.31034505e-001 9.13793087e-001 9.82758641e-001 9.48275864e-001
      9.13793087e-001 8.62068951e-001 7.41379321e-001 8.62068951e-001
      8.62068951e-001 8.10344815e-001 6.03448272e-001 5.17241359e-001
      6.37931049e-001 6.72413766e-001 8.27586174e-001 9.48275864e-001
      8.96551728e-001 7.24137902e-001 5.68965495e-001 5.86206913e-001
      5.51724136e-001 4.82758611e-001 4.82758611e-001 3.79310340e-001
      2.06896544e-001 1.20689653e-001</_>
    <_>
      0. 0. 0. 0. 0. 0. 0. 0. 0. 1.76470593e-001 2.94117659e-001
      3.52941185e-001 3.52941185e-001 4.70588237e-001 5.29411793e-001
      5.88235319e-001 3.52941185e-001 3.52941185e-001 4.11764711e-001
      5.29411793e-001 6.47058845e-001 4.70588237e-001 4.11764711e-001
      5.88235319e-001 7.05882370e-001 8.82352948e-001 7.05882370e-001
      7.05882370e-001 8.23529422e-001 7.64705896e-001 7.64705896e-001
      5.29411793e-001 3.52941185e-001 2.35294119e-001 3.52941185e-001
      2.94117659e-001 4.11764711e-001 4.70588237e-001 4.70588237e-001
      4.11764711e-001 2.94117659e-001 1.76470593e-001 0. 0. 0. 0.
      1.17647059e-001 2.35294119e-001 3.52941185e-001 3.52941185e-001
      3.52941185e-001 2.94117659e-001 2.35294119e-001 5.88235296e-002 0.
      0. 0. 0. 0. 1.76470593e-001 2.35294119e-001 2.35294119e-001
      2.94117659e-001 2.94117659e-001 2.35294119e-001 1.17647059e-001 0.
      0. 0. 0. 1.17647059e-001 2.35294119e-001 2.94117659e-001
      3.52941185e-001 3.52941185e-001 3.52941185e-001 3.52941185e-001
      2.35294119e-001 0. 1.76470593e-001 1.76470593e-001 1.76470593e-001
      1.76470593e-001 2.94117659e-001 3.52941185e-001 5.88235319e-001
      6.47058845e-001 7.05882370e-001 7.05882370e-001 5.88235319e-001
      2.94117659e-001 6.47058845e-001 4.70588237e-001 7.05882370e-001
      7.05882370e-001 7.64705896e-001 7.05882370e-001 1. 6.47058845e-001
      7.05882370e-001 6.47058845e-001 6.47058845e-001 6.47058845e-001
      6.47058845e-001 4.70588237e-001 3.52941185e-001 2.94117659e-001
      2.35294119e-001 2.35294119e-001 2.35294119e-001 2.94117659e-001
      2.35294119e-001 1.76470593e-001 1.76470593e-001 1.76470593e-001
      2.35294119e-001 2.35294119e-001 2.94117659e-001 2.94117659e-001
      2.35294119e-001 0. 0. 0. 0. 0. 0. 0. 5.88235296e-002
      1.76470593e-001 2.35294119e-001 2.94117659e-001 2.35294119e-001
      1.17647059e-001 0. 0. 0. 0. 2.34042540e-001 2.97872335e-001
      5.74468076e-001 7.44680822e-001 6.38297856e-001 4.68085080e-001
      4.68085080e-001 5.53191483e-001 4.46808487e-001 3.40425521e-001
      2.97872335e-001 2.76595742e-001 2.97872335e-001 4.46808487e-001
      3.40425521e-001 3.40425521e-001 4.04255301e-001 4.89361674e-001
      4.04255301e-001 4.04255301e-001 3.61702114e-001 4.46808487e-001
      6.59574449e-001 8.29787195e-001 8.51063788e-001 9.99999940e-001
      9.36170161e-001 7.44680822e-001 3.82978708e-001 1.06382973e-001 0.
      0. 0. 0. 0.</_>
    <_>
      0. 2.50000000e-001 5.00000000e-001 5.00000000e-001 5.41666687e-001
      5.41666687e-001 5.83333373e-001 5.83333373e-001 5.00000000e-001
      3.75000000e-001 3.33333343e-001 3.33333343e-001 3.33333343e-001
      3.33333343e-001 3.33333343e-001 3.33333343e-001 3.33333343e-001
      3.33333343e-001 2.91666687e-001 3.75000000e-001 3.75000000e-001
      3.33333343e-001 3.75000000e-001 4.58333343e-001 8.75000000e-001
      8.75000000e-001 8.75000000e-001 8.75000000e-001 4.16666687e-001
      2.91666687e-001 0. 0. 0. 0. 0. 0. 0. 0. 3.75000000e-001
      8.75000000e-001 9.16666687e-001 1. 1. 1. 6.66666687e-001
      5.00000000e-001 4.58333343e-001 4.58333343e-001 4.58333343e-001
      4.58333343e-001 4.58333343e-001 4.58333343e-001 4.58333343e-001
      5.00000000e-001 4.58333343e-001 4.16666687e-001 4.58333343e-001
      5.41666687e-001 5.00000000e-001 4.58333343e-001 4.58333343e-001
      4.16666687e-001 3.33333343e-001 2.91666687e-001 1.66666672e-001
      4.16666679e-002 0. 0. 0. 0. 0. 0. 0. 0. 8.33333358e-002
      8.33333358e-002 1.25000000e-001 4.58333343e-001 5.00000000e-001
      5.00000000e-001 5.00000000e-001 5.00000000e-001 4.58333343e-001
      5.00000000e-001 5.00000000e-001 5.00000000e-001 4.58333343e-001
      4.58333343e-001 4.58333343e-001 4.58333343e-001 4.58333343e-001
      4.58333343e-001 5.00000000e-001 5.00000000e-001 8.33333373e-001
      8.75000000e-001 9.16666687e-001 1. 9.58333373e-001 5.00000000e-001
      0. 0. 0. 0. 0. 0. 0. 0. 2.91666687e-001 7.50000000e-001
      8.75000000e-001 9.16666687e-001 8.75000000e-001 8.75000000e-001
      5.41666687e-001 6.25000000e-001 5.83333373e-001 5.00000000e-001
      4.16666687e-001 4.16666687e-001 4.16666687e-001 4.16666687e-001
      4.16666687e-001 4.58333343e-001 4.58333343e-001 4.58333343e-001
      4.58333343e-001 3.75000000e-001 3.75000000e-001 3.75000000e-001
      4.16666687e-001 5.41666687e-001 5.00000000e-001 2.91666687e-001
      8.33333358e-002 0. 0. 1.94174759e-002 2.91262139e-002
      2.91262139e-002 8.73786435e-002 2.62135923e-001 4.56310689e-001
      5.53398073e-001 7.08737850e-001 9.80582535e-001 1. 9.90291297e-001
      9.41747606e-001 8.34951460e-001 7.47572839e-001 5.82524300e-001
      4.66019422e-001 2.71844655e-001 2.33009711e-001 2.03883499e-001
      1.84466019e-001 1.84466019e-001 1.84466019e-001 1.84466019e-001
      2.33009711e-001 2.33009711e-001 1.84466019e-001 3.39805841e-001
      4.17475730e-001 4.56310689e-001 2.33009711e-001 3.30097079e-001
      2.03883499e-001 4.85436916e-002 1.94174759e-002 4.85436916e-002</_>
    <_>
      1. 1. 1. 1. 1. 7.50000000e-001 1. 1. 1. 9.44444478e-001
      8.33333313e-001 8.33333313e-001 9.44444478e-001 9.44444478e-001
      9.44444478e-001 9.44444478e-001 9.44444478e-001 9.44444478e-001
      9.44444478e-001 9.44444478e-001 9.44444478e-001 9.44444478e-001
      9.44444478e-001 1. 1. 1. 1. 1. 7.50000000e-001 1. 1. 1.
      9.72222209e-001 1. 1. 1. 1. 1. 1. 7.77777791e-001 7.77777791e-001
      1. 1. 1. 1. 1. 1. 9.72222209e-001 9.44444478e-001 8.88888896e-001
      1. 1. 1. 1. 7.50000000e-001 1. 1. 1. 1. 1. 7.50000000e-001 1. 1.
      1. 1. 9.72222209e-001 9.44444478e-001 1. 1. 1. 1. 8.33333313e-001
      8.33333313e-001 9.44444478e-001 9.44444478e-001 9.44444478e-001
      9.44444478e-001 9.44444478e-001 9.44444478e-001 9.44444478e-001
      9.44444478e-001 9.44444478e-001 9.44444478e-001 9.44444478e-001
      8.33333313e-001 8.33333313e-001 8.88888896e-001 9.44444478e-001
      9.44444478e-001 9.44444478e-001 1. 1. 1. 1. 1. 1. 1. 1. 1.
      9.16666687e-001 8.61111104e-001 8.61111104e-001 8.88888896e-001
      9.44444478e-001 9.72222209e-001 1. 1. 1. 1. 1. 1. 1. 1. 1. 1. 1.
      1. 1. 1. 8.88888896e-001 9.16666687e-001 9.44444478e-001
      9.44444478e-001 9.44444478e-001 9.44444478e-001 9.44444478e-001
      9.44444478e-001 9.44444478e-001 9.16666687e-001 9.44444478e-001
      9.44444478e-001 9.44444478e-001 9.44444478e-001 8.88888896e-001
      8.88888896e-001 1. 9.92647052e-001 9.92647052e-001 1. 1. 1.
      9.70588267e-001 9.92647052e-001 9.92647052e-001 9.92647052e-001
      9.92647052e-001 1. 1. 1. 1. 1. 1. 1. 9.92647052e-001 1. 1. 1. 1.
      1. 1. 1. 1. 1. 9.55882370e-001 9.19117630e-001 9.19117630e-001
      7.79411793e-001 7.79411793e-001 7.05882370e-001 7.20588267e-001
      8.67647052e-001 8.52941155e-001</_>
    <_>
      9.52380970e-002 1.42857149e-001 1.42857149e-001 3.80952388e-001
      2.38095239e-001 4.28571433e-001 8.57142866e-001 8.09523821e-001
      7.14285731e-001 6.19047642e-001 5.23809552e-001 5.23809552e-001
      4.76190478e-001 1.90476194e-001 1.42857149e-001 1.42857149e-001
      1.90476194e-001 2.38095239e-001 3.33333343e-001 3.80952388e-001
      5.23809552e-001 5.23809552e-001 5.23809552e-001 5.71428597e-001
      5.71428597e-001 4.76190478e-001 3.80952388e-001 3.80952388e-001
      4.28571433e-001 4.28571433e-001 5.71428597e-001 8.09523821e-001
      9.52380955e-001 8.09523821e-001 7.14285731e-001 7.14285731e-001
      6.19047642e-001 7.61904776e-001 9.04761910e-001 9.04761910e-001
      8.57142866e-001 5.71428597e-001 5.71428597e-001 5.71428597e-001
      4.76190478e-001 4.76190478e-001 5.23809552e-001 5.23809552e-001
      4.76190478e-001 2.38095239e-001 2.85714298e-001 3.33333343e-001
      3.80952388e-001 3.80952388e-001 2.85714298e-001 2.38095239e-001
      1.42857149e-001 4.76190485e-002 9.52380970e-002 2.38095239e-001
      3.80952388e-001 5.23809552e-001 7.14285731e-001 6.19047642e-001
      6.19047642e-001 7.14285731e-001 7.14285731e-001 4.28571433e-001
      3.80952388e-001 3.33333343e-001 4.76190485e-002 0. 0.
      9.52380970e-002 0. 4.76190485e-002 4.76190485e-002 0. 0. 0.
      9.52380970e-002 9.52380970e-002 4.76190485e-002 0. 0. 0. 0.
      4.76190485e-002 3.33333343e-001 1.90476194e-001 4.76190485e-002
      1.90476194e-001 3.80952388e-001 4.28571433e-001 3.33333343e-001
      2.85714298e-001 2.38095239e-001 4.76190485e-002 0. 0.
      1.90476194e-001 0. 0. 0. 4.76190485e-002 1.42857149e-001
      2.38095239e-001 1.42857149e-001 1.42857149e-001 3.33333343e-001
      4.76190478e-001 5.23809552e-001 4.76190478e-001 5.23809552e-001
      5.71428597e-001 7.14285731e-001 7.61904776e-001 8.09523821e-001
      7.61904776e-001 8.57142866e-001 1. 9.52380955e-001 1.
      9.04761910e-001 7.14285731e-001 7.61904776e-001 8.57142866e-001
      8.57142866e-001 9.04761910e-001 9.52380955e-001 8.09523821e-001
      8.57142866e-001 9.04761910e-001 9.52380955e-001 9.04761910e-001
      8.09523821e-001 2.50000000e-001 3.33333343e-001 6.16666675e-001
      7.16666698e-001 7.00000048e-001 6.50000036e-001 5.16666710e-001
      6.00000024e-001 3.50000024e-001 2.00000018e-001 0. 1.16666675e-001
      2.66666681e-001 4.50000018e-001 6.33333385e-001 7.16666698e-001
      8.16666722e-001 8.16666722e-001 9.00000036e-001 8.33333373e-001
      5.83333373e-001 2.00000018e-001 6.66666701e-002 8.33333358e-002
      2.66666681e-001 4.83333349e-001 7.16666698e-001 7.83333361e-001
      8.50000024e-001 9.50000048e-001 1. 8.83333385e-001 1.
      9.66666698e-001 6.83333397e-001 3.50000024e-001</_>
    <_>
      1. 1. 9.72222209e-001 1. 1. 1. 9.72222209e-001 9.72222209e-001
      9.44444478e-001 9.72222209e-001 9.72222209e-001 9.72222209e-001
      9.72222209e-001 9.72222209e-001 1. 9.72222209e-001 9.44444478e-001
      9.16666687e-001 9.16666687e-001 9.16666687e-001 9.44444478e-001
      9.44444478e-001 9.72222209e-001 9.44444478e-001 9.72222209e-001 1.
      8.05555582e-001 3.88888896e-001 1.38888896e-001 0. 0. 0. 0. 0. 0.
      0. 0. 0. 0. 0. 0. 2.77777780e-002 1.11111112e-001 1.94444448e-001
      1.94444448e-001 2.50000000e-001 2.22222224e-001 1.11111112e-001 0.
      0. 0. 0. 0. 0. 0. 0. 0. 0. 0. 2.77777780e-002 5.55555560e-002
      5.55555560e-002 5.55555560e-002 5.55555560e-002 0. 0. 0. 0. 0. 0.
      0. 0. 0. 0. 0. 0. 2.77777780e-002 5.55555560e-002 8.33333358e-002
      8.33333358e-002 1.38888896e-001 8.33333358e-002 5.55555560e-002 0.
      0. 0. 5.55555560e-002 8.33333358e-002 1.38888896e-001
      1.94444448e-001 3.05555552e-001 3.88888896e-001 4.16666657e-001
      5.00000000e-001 6.11111104e-001 6.94444478e-001 8.61111104e-001
      9.44444478e-001 9.44444478e-001 9.16666687e-001 9.44444478e-001
      9.44444478e-001 9.44444478e-001 9.72222209e-001 9.44444478e-001
      9.44444478e-001 9.44444478e-001 9.44444478e-001 9.44444478e-001
      9.44444478e-001 9.44444478e-001 9.16666687e-001 8.88888896e-001
      8.88888896e-001 8.88888896e-001 9.16666687e-001 9.16666687e-001
      9.72222209e-001 8.88888896e-001 7.22222209e-001 6.11111104e-001
      5.83333313e-001 6.11111104e-001 5.00000000e-001 6.66666687e-001
      5.83333313e-001 6.38888896e-001 6.11111104e-001 5.83333313e-001
      5.27777791e-001 5.00000000e-001 4.44444448e-001 4.72222239e-001
      4.44444448e-001 2.77777791e-001 3.05555552e-001 6.58227861e-001
      7.21518993e-001 7.08860755e-001 6.96202576e-001 7.21518993e-001
      7.97468364e-001 8.73417735e-001 9.62025344e-001 9.49367106e-001
      7.59493709e-001 7.59493709e-001 6.96202576e-001 7.34177232e-001
      8.10126603e-001 9.11392450e-001 1. 9.87341821e-001 9.11392450e-001
      8.48101258e-001 7.72151947e-001 7.59493709e-001 7.34177232e-001
      7.59493709e-001 8.22784841e-001 9.24050629e-001 9.24050629e-001
      8.35443079e-001 7.34177232e-001 8.35443079e-001 8.22784841e-001
      8.10126603e-001 8.10126603e-001 8.10126603e-001 7.46835470e-001
      5.69620252e-001 1.77215189e-001</_>
    <_>
      6.89655170e-002 3.44827585e-002 1.03448272e-001 1.37931034e-001
      1.03448272e-001 3.44827585e-002 3.44827585e-002 3.44827585e-002
      6.89655170e-002 0. 0. 3.44827585e-002 1.72413796e-001
      2.75862068e-001 4.13793087e-001 4.48275864e-001 6.20689631e-001
      6.89655185e-001 6.89655185e-001 6.20689631e-001 4.13793087e-001
      3.79310340e-001 3.10344815e-001 2.06896544e-001 1.72413796e-001
      3.44827585e-002 6.89655170e-002 6.89655170e-002 2.06896544e-001
      6.89655170e-002 1.03448272e-001 6.89655170e-002 6.89655170e-002
      3.44827585e-002 1.37931034e-001 1.72413796e-001 6.89655170e-002
      6.89655170e-002 1.03448272e-001 3.10344815e-001 1.03448272e-001
      6.89655170e-002 2.06896544e-001 6.89655170e-002 2.41379306e-001
      4.13793087e-001 6.20689631e-001 7.24137902e-001 7.24137902e-001
      8.62068951e-001 7.58620679e-001 6.89655185e-001 4.82758611e-001
      4.48275864e-001 5.51724136e-001 4.82758611e-001 4.48275864e-001
      3.44827592e-001 1.03448272e-001 1.72413796e-001 1.37931034e-001
      1.37931034e-001 1.72413796e-001 2.06896544e-001 2.06896544e-001
      4.48275864e-001 6.20689631e-001 6.20689631e-001 4.82758611e-001
      7.24137902e-001 7.58620679e-001 8.27586174e-001 6.89655185e-001
      5.86206913e-001 6.55172408e-001 6.20689631e-001 6.89655185e-001
      6.89655185e-001 6.20689631e-001 6.89655185e-001 7.93103456e-001 1.
      8.27586174e-001 7.93103456e-001 7.24137902e-001 7.93103456e-001
      8.27586174e-001 8.27586174e-001 6.89655185e-001 6.89655185e-001
      5.86206913e-001 5.51724136e-001 4.82758611e-001 6.89655170e-002
      6.89655170e-002 3.44827585e-002 0. 3.44827585e-002 0. 0.
      1.03448272e-001 0. 1.03448272e-001 1.72413796e-001 4.48275864e-001
      3.44827592e-001 3.44827592e-001 3.79310340e-001 5.17241359e-001
      5.86206913e-001 6.89655185e-001 6.55172408e-001 5.51724136e-001
      4.13793087e-001 4.82758611e-001 5.51724136e-001 6.55172408e-001
      6.20689631e-001 6.89655185e-001 6.89655185e-001 6.89655185e-001
      6.55172408e-001 6.89655185e-001 6.55172408e-001 6.20689631e-001
      5.17241359e-001 4.82758611e-001 4.13793087e-001 3.44827592e-001
      4.82758611e-001 4.82758611e-001 5.17241359e-001 8.27586174e-001
      8.96551728e-001 5.51724136e-001 4.48275864e-001 0. 1.23456791e-002
      7.40740746e-002 2.46913582e-002 3.70370373e-002 4.32098776e-001
      7.53086448e-001 9.50617313e-001 9.87654328e-001 9.13580239e-001
      7.53086448e-001 5.18518507e-001 2.34567910e-001 4.81481493e-001
      6.29629612e-001 7.65432119e-001 9.25925910e-001 9.13580239e-001
      8.14814806e-001 5.92592597e-001 2.96296299e-001 1.97530866e-001
      4.93827164e-001 7.90123463e-001 9.50617313e-001 1. 7.65432119e-001
      5.92592597e-001 2.09876537e-001 9.87654328e-002 1.85185194e-001
      4.44444448e-001 7.65432119e-001 8.02469134e-001 7.53086448e-001
      4.69135821e-001</_>
    <_>
      0. 0. 4.00000006e-001 5.00000000e-001 6.00000024e-001
      5.00000000e-001 4.00000006e-001 4.00000006e-001 5.00000000e-001
      6.99999988e-001 8.00000012e-001 6.99999988e-001 5.00000000e-001
      4.00000006e-001 5.00000000e-001 5.00000000e-001 8.00000012e-001 1.
      6.99999988e-001 6.00000024e-001 5.00000000e-001 3.00000012e-001
      1.00000001e-001 2.00000003e-001 2.00000003e-001 2.00000003e-001
      2.00000003e-001 4.00000006e-001 4.00000006e-001 6.00000024e-001
      4.00000006e-001 5.00000000e-001 2.00000003e-001 3.00000012e-001
      1.00000001e-001 0. 2.00000003e-001 6.00000024e-001 8.00000012e-001
      8.00000012e-001 3.00000012e-001 2.00000003e-001 2.00000003e-001 0.
      0. 3.00000012e-001 4.00000006e-001 6.99999988e-001 8.00000012e-001
      2.00000003e-001 1.00000001e-001 0. 0. 1.00000001e-001
      3.00000012e-001 4.00000006e-001 6.00000024e-001 6.99999988e-001
      4.00000006e-001 2.00000003e-001 2.00000003e-001 3.00000012e-001
      4.00000006e-001 4.00000006e-001 4.00000006e-001 2.00000003e-001
      4.00000006e-001 5.00000000e-001 4.00000006e-001 6.00000024e-001
      6.00000024e-001 1.00000001e-001 2.00000003e-001 5.00000000e-001
      5.00000000e-001 5.00000000e-001 6.00000024e-001 4.00000006e-001
      3.00000012e-001 4.00000006e-001 6.00000024e-001 5.00000000e-001
      4.00000006e-001 3.00000012e-001 0. 0. 0. 0. 3.00000012e-001
      3.00000012e-001 4.00000006e-001 2.00000003e-001 0. 0. 0.
      1.00000001e-001 3.00000012e-001 3.00000012e-001 3.00000012e-001
      2.00000003e-001 0. 1.00000001e-001 1.00000001e-001 2.00000003e-001
      5.00000000e-001 4.00000006e-001 3.00000012e-001 5.00000000e-001
      2.00000003e-001 6.99999988e-001 6.99999988e-001 8.00000012e-001
      5.00000000e-001 2.00000003e-001 2.00000003e-001 3.00000012e-001
      4.00000006e-001 6.00000024e-001 5.00000000e-001 5.00000000e-001
      4.00000006e-001 5.00000000e-001 5.00000000e-001 5.00000000e-001
      5.00000000e-001 5.00000000e-001 5.00000000e-001 4.00000006e-001
      5.00000000e-001 6.99999988e-001 6.00000024e-001 6.00000024e-001
      4.00000006e-001 2.00000003e-001 0. 0. 0. 1.25000000e-001
      3.33333343e-001 7.91666687e-001 5.41666687e-001 4.16666687e-001
      3.75000000e-001 5.41666687e-001 6.25000000e-001 6.66666687e-001
      6.66666687e-001 7.08333373e-001 9.16666687e-001 8.75000000e-001
      8.33333373e-001 7.50000000e-001 8.33333373e-001 8.75000000e-001
      9.16666687e-001 9.58333373e-001 1. 9.16666687e-001 4.58333343e-001
      4.58333343e-001 5.83333373e-001 5.00000000e-001 7.50000000e-001
      5.41666687e-001 4.58333343e-001 1.66666672e-001 1.66666672e-001
      5.00000000e-001 7.91666687e-001 6.25000000e-001 1.66666672e-001 0.</_>
    <_>
      0. 0. 1.61290318e-001 2.58064508e-001 3.87096763e-001
      4.19354826e-001 4.51612890e-001 4.19354826e-001 3.54838699e-001
      1.61290318e-001 9.67741907e-002 0. 0. 0. 0. 0. 0. 0. 0. 0. 0. 0.
      0. 0. 0. 0. 0. 1.29032254e-001 3.87096763e-001 8.38709652e-001 1.
      1. 8.38709652e-001 9.35483813e-001 9.35483813e-001 9.03225780e-001
      8.06451559e-001 8.06451559e-001 7.74193525e-001 7.09677398e-001
      6.77419305e-001 6.12903237e-001 5.48387051e-001 5.16129017e-001
      3.54838699e-001 1.29032254e-001 0. 0. 0. 0. 0. 0. 0. 0. 0. 0. 0.
      0. 0. 0. 0. 0. 0. 0. 0. 0. 0. 0. 0. 0. 0. 0. 0. 1.61290318e-001
      3.22580636e-001 4.83870953e-001 4.83870953e-001 4.51612890e-001
      4.51612890e-001 4.19354826e-001 3.87096763e-001 3.54838699e-001
      3.22580636e-001 2.58064508e-001 1.93548381e-001 1.29032254e-001
      2.25806445e-001 3.22580636e-001 6.45161271e-001 6.77419305e-001
      6.77419305e-001 6.77419305e-001 6.77419305e-001 6.77419305e-001
      7.09677398e-001 5.48387051e-001 4.19354826e-001 3.87096763e-001
      4.83870953e-001 5.16129017e-001 5.80645144e-001 6.12903237e-001
      6.12903237e-001 6.12903237e-001 6.45161271e-001 6.77419305e-001
      6.77419305e-001 6.77419305e-001 6.77419305e-001 6.45161271e-001
      6.12903237e-001 6.45161271e-001 7.09677398e-001 6.77419305e-001
      6.45161271e-001 6.12903237e-001 6.45161271e-001 6.12903237e-001
      4.51612890e-001 2.58064508e-001 6.45161271e-002 6.45161271e-002
      3.22580636e-002 9.67741907e-002 9.67741907e-002 3.22580636e-002 0.
      6.45161271e-002 1.29032254e-001 2.90322572e-001 4.51612890e-001
      5.48387051e-001 4.51612890e-001 2.90322572e-001 0. 0.
      2.18750000e-001 2.03125000e-001 2.03125000e-001 2.81250000e-001
      3.43750000e-001 3.43750000e-001 3.28125000e-001 4.68750000e-001
      6.56250000e-001 8.28125000e-001 8.75000000e-001 9.68750000e-001
      9.68750000e-001 1. 1. 9.68750000e-001 9.06250000e-001
      8.28125000e-001 8.43750000e-001 8.43750000e-001 8.43750000e-001
      7.96875000e-001 6.56250000e-001 5.78125000e-001 7.34375000e-001
      7.65625000e-001 7.34375000e-001 6.71875000e-001 5.31250000e-001
      3.90625000e-001 3.59375000e-001 1.87500000e-001 1.56250000e-001
      1.09375000e-001 3.12500000e-002 0.</_>
    <_>
      1.25000000e-001 0. 0. 0. 0. 0. 1.25000000e-001 1.56250000e-001
      4.06250000e-001 6.25000000e-001 7.18750000e-001 7.81250000e-001
      9.06250000e-001 9.68750000e-001 9.06250000e-001 6.56250000e-001
      5.62500000e-001 5.00000000e-001 4.06250000e-001 6.25000000e-002
      1.87500000e-001 5.00000000e-001 5.93750000e-001 5.62500000e-001
      6.56250000e-001 6.56250000e-001 7.50000000e-001 8.12500000e-001
      8.43750000e-001 8.12500000e-001 8.43750000e-001 7.81250000e-001
      8.12500000e-001 7.81250000e-001 7.18750000e-001 7.50000000e-001
      7.50000000e-001 7.50000000e-001 7.18750000e-001 6.87500000e-001
      6.87500000e-001 6.56250000e-001 6.25000000e-001 6.25000000e-001
      5.93750000e-001 5.62500000e-001 2.81250000e-001 0. 0. 0. 0.
      1.25000000e-001 9.37500000e-001 9.06250000e-001 9.06250000e-001
      9.06250000e-001 9.37500000e-001 9.37500000e-001 7.18750000e-001
      6.25000000e-001 7.18750000e-001 7.18750000e-001 7.18750000e-001
      7.18750000e-001 6.87500000e-001 6.87500000e-001 6.87500000e-001
      6.87500000e-001 8.43750000e-001 8.43750000e-001 8.43750000e-001
      8.43750000e-001 9.06250000e-001 9.37500000e-001 7.50000000e-001
      7.50000000e-001 7.50000000e-001 7.50000000e-001 7.50000000e-001
      7.50000000e-001 7.50000000e-001 7.50000000e-001 7.18750000e-001
      8.75000000e-001 8.75000000e-001 8.75000000e-001 8.75000000e-001
      8.75000000e-001 8.43750000e-001 8.12500000e-001 1.25000000e-001 0.
      0. 0. 0. 8.75000000e-001 9.68750000e-001 9.68750000e-001
      9.68750000e-001 9.68750000e-001 9.68750000e-001 9.68750000e-001
      5.93750000e-001 4.06250000e-001 4.06250000e-001 4.37500000e-001
      4.37500000e-001 7.50000000e-001 8.43750000e-001 9.06250000e-001
      9.06250000e-001 8.75000000e-001 9.06250000e-001 9.06250000e-001
      5.93750000e-001 5.93750000e-001 5.93750000e-001 5.00000000e-001
      5.31250000e-001 7.18750000e-001 7.18750000e-001 6.25000000e-001
      6.25000000e-001 6.25000000e-001 6.87500000e-001 6.87500000e-001
      5.31250000e-001 5.31250000e-001 9.68750000e-001 9.68750000e-001
      9.68750000e-001 9.68750000e-001 1. 9.68750000e-001 9.06250000e-001
      0. 7.01754391e-002 2.63157904e-001 9.21052635e-001 9.47368443e-001
      9.64912295e-001 6.92982435e-001 6.84210539e-001 6.05263174e-001
      6.14035070e-001 7.01754391e-001 7.01754391e-001 5.52631557e-001
      9.12280679e-001 8.94736826e-001 5.52631557e-001 4.82456148e-001
      4.38596487e-001 9.91228104e-001 1. 9.91228104e-001 8.15789461e-001
      3.42105269e-001 4.82456148e-001 5.96491218e-001 7.36842096e-001
      7.19298244e-001 5.17543852e-001 7.19298244e-001 7.28070199e-001
      7.36842096e-001 7.36842096e-001 6.57894731e-001 8.77192974e-001
      8.59649122e-001 7.63157904e-001 1.49122804e-001</_>
    <_>
      0. 0. 6.06060624e-002 6.06060624e-002 9.09090936e-002
      9.09090936e-002 9.09090936e-002 9.09090936e-002 1.51515156e-001
      1.51515156e-001 1.81818187e-001 1.81818187e-001 1.81818187e-001
      1.81818187e-001 2.42424250e-001 2.42424250e-001 2.72727281e-001
      2.72727281e-001 3.63636374e-001 3.93939406e-001 3.33333343e-001
      3.33333343e-001 2.42424250e-001 2.42424250e-001 2.72727281e-001
      3.63636374e-001 4.54545468e-001 4.24242437e-001 4.54545468e-001
      5.15151501e-001 5.45454562e-001 4.84848499e-001 5.15151501e-001
      6.06060624e-001 6.96969748e-001 7.27272749e-001 8.18181872e-001
      8.48484874e-001 9.39393997e-001 1. 9.69696999e-001 9.69696999e-001
      9.39393997e-001 8.78787875e-001 8.48484874e-001 8.18181872e-001
      8.18181872e-001 7.57575750e-001 7.87878811e-001 7.57575750e-001
      7.27272749e-001 6.96969748e-001 6.66666687e-001 6.96969748e-001
      7.27272749e-001 7.87878811e-001 7.27272749e-001 6.66666687e-001
      6.96969748e-001 6.36363626e-001 6.06060624e-001 6.96969748e-001
      7.57575750e-001 7.57575750e-001 7.57575750e-001 7.27272749e-001
      7.57575750e-001 6.66666687e-001 6.66666687e-001 6.36363626e-001
      6.66666687e-001 6.66666687e-001 7.27272749e-001 7.27272749e-001
      6.36363626e-001 6.06060624e-001 6.66666687e-001 6.96969748e-001
      6.36363626e-001 6.36363626e-001 6.36363626e-001 6.06060624e-001
      6.36363626e-001 6.66666687e-001 6.66666687e-001 6.06060624e-001
      6.36363626e-001 6.66666687e-001 8.48484874e-001 8.78787875e-001
      9.09090936e-001 8.48484874e-001 8.78787875e-001 9.39393997e-001
      9.39393997e-001 9.39393997e-001 9.69696999e-001 1. 9.69696999e-001
      9.09090936e-001 8.48484874e-001 8.48484874e-001 7.57575750e-001
      6.36363626e-001 6.96969748e-001 7.27272749e-001 6.36363626e-001
      5.45454562e-001 4.84848499e-001 4.84848499e-001 4.84848499e-001
      5.15151501e-001 5.45454562e-001 5.75757623e-001 5.75757623e-001
      5.75757623e-001 5.75757623e-001 5.75757623e-001 4.54545468e-001
      4.54545468e-001 4.24242437e-001 4.54545468e-001 4.24242437e-001
      4.54545468e-001 3.93939406e-001 3.63636374e-001 2.72727281e-001
      2.42424250e-001 2.12121218e-001 1.81818187e-001 1.81818187e-001
      1.81818187e-001 1.21212125e-001 6.06060624e-002 0. 0.
      3.40425521e-001 6.91489339e-001 6.80851042e-001 5.63829780e-001
      7.55319118e-001 8.19148898e-001 7.87234008e-001 5.53191483e-001
      5.74468076e-001 7.76595712e-001 8.40425491e-001 7.76595712e-001
      9.14893568e-001 8.19148898e-001 6.48936152e-001 5.21276593e-001
      5.21276593e-001 7.34042525e-001 9.78723347e-001 9.99999940e-001
      6.59574449e-001 4.78723377e-001 3.82978708e-001 7.02127635e-001
      8.08510602e-001 7.55319118e-001 6.06382966e-001 6.80851042e-001
      8.82978678e-001 8.72340381e-001 8.82978678e-001 8.29787195e-001
      9.36170161e-001 9.57446754e-001 9.25531864e-001 8.51063788e-001</_>
    <_>
      0. 0. 1.53846160e-001 2.30769247e-001 3.07692319e-001
      3.07692319e-001 4.61538494e-001 3.84615391e-001 5.38461566e-001
      5.38461566e-001 6.15384638e-001 6.92307711e-001 7.69230783e-001
      6.15384638e-001 4.61538494e-001 3.84615391e-001 2.30769247e-001 0.
      1.53846160e-001 4.61538494e-001 3.07692319e-001 5.38461566e-001
      6.15384638e-001 3.84615391e-001 4.61538494e-001 5.38461566e-001
      3.07692319e-001 2.30769247e-001 2.30769247e-001 3.07692319e-001
      4.61538494e-001 5.38461566e-001 6.15384638e-001 6.15384638e-001
      5.38461566e-001 6.92307711e-001 7.69230783e-001 8.46153855e-001
      6.92307711e-001 8.46153855e-001 6.15384638e-001 6.15384638e-001
      5.38461566e-001 9.23076987e-001 9.23076987e-001 8.46153855e-001
      7.69230783e-001 7.69230783e-001 5.38461566e-001 4.61538494e-001
      2.30769247e-001 4.61538494e-001 4.61538494e-001 3.84615391e-001
      7.69230783e-001 8.46153855e-001 5.38461566e-001 1.53846160e-001
      1.53846160e-001 2.30769247e-001 3.84615391e-001 4.61538494e-001
      4.61538494e-001 6.15384638e-001 6.15384638e-001 6.92307711e-001
      6.15384638e-001 6.15384638e-001 5.38461566e-001 6.15384638e-001
      5.38461566e-001 6.15384638e-001 4.61538494e-001 3.84615391e-001
      3.07692319e-001 1.53846160e-001 0. 0. 0. 7.69230798e-002
      1.53846160e-001 3.84615391e-001 3.84615391e-001 3.84615391e-001
      4.61538494e-001 2.30769247e-001 1.53846160e-001 1.53846160e-001
      1.53846160e-001 3.07692319e-001 2.30769247e-001 2.30769247e-001
      1.53846160e-001 2.30769247e-001 2.30769247e-001 3.07692319e-001
      5.38461566e-001 5.38461566e-001 6.15384638e-001 6.92307711e-001
      6.15384638e-001 3.84615391e-001 4.61538494e-001 4.61538494e-001
      5.38461566e-001 6.15384638e-001 6.92307711e-001 6.92307711e-001
      7.69230783e-001 8.46153855e-001 8.46153855e-001 9.23076987e-001
      9.23076987e-001 9.23076987e-001 9.23076987e-001 9.23076987e-001
      9.23076987e-001 1. 9.23076987e-001 8.46153855e-001 7.69230783e-001
      6.15384638e-001 6.15384638e-001 4.61538494e-001 4.61538494e-001
      4.61538494e-001 4.61538494e-001 4.61538494e-001 3.84615391e-001
      3.07692319e-001 3.07692319e-001 2.30769247e-001 1.53846160e-001
